{"learner":{"attributes":{"best_iteration":"136","best_score":"0.477966565711819","scikit_learn":"{\"_estimator_type\": \"classifier\"}"},"feature_names":[],"feature_types":[],"gradient_booster":{"model":{"gbtree_model_param":{"num_parallel_tree":"1","num_trees":"167"},"iteration_indptr":[0,1,2,3,4,5,6,7,8,9,10,11,12,13,14,15,16,17,18,19,20,21,22,23,24,25,26,27,28,29,30,31,32,33,34,35,36,37,38,39,40,41,42,43,44,45,46,47,48,49,50,51,52,53,54,55,56,57,58,59,60,61,62,63,64,65,66,67,68,69,70,71,72,73,74,75,76,77,78,79,80,81,82,83,84,85,86,87,88,89,90,91,92,93,94,95,96,97,98,99,100,101,102,103,104,105,106,107,108,109,110,111,112,113,114,115,116,117,118,119,120,121,122,123,124,125,126,127,128,129,130,131,132,133,134,135,136,137,138,139,140,141,142,143,144,145,146,147,148,149,150,151,152,153,154,155,156,157,158,159,160,161,162,163,164,165,166,167],"tree_info":[0,0,0,0,0,0,0,0,0,0,0,0,0,0,0,0,0,0,0,0,0,0,0,0,0,0,0,0,0,0,0,0,0,0,0,0,0,0,0,0,0,0,0,0,0,0,0,0,0,0,0,0,0,0,0,0,0,0,0,0,0,0,0,0,0,0,0,0,0,0,0,0,0,0,0,0,0,0,0,0,0,0,0,0,0,0,0,0,0,0,0,0,0,0,0,0,0,0,0,0,0,0,0,0,0,0,0,0,0,0,0,0,0,0,0,0,0,0,0,0,0,0,0,0,0,0,0,0,0,0,0,0,0,0,0,0,0,0,0,0,0,0,0,0,0,0,0,0,0,0,0,0,0,0,0,0,0,0,0,0,0,0,0,0,0,0,0],"trees":[{"base_weights":[-1.7705463E-2,6.911761E-1,-1E0,9.943432E-1,-1.4100806E-1,-1E-1,-7.4164855E-1,3.4845096E-1,1E0,-4.6216798E-1,4.9503788E-1,4.546332E-2,-1E-1,-1.350103E-2,7.971894E-2,7.5333916E-2,1E-1,5.1308896E-2,-7.434643E-2,7.603029E-2,-3.5838332E-2,-7.4115835E-2,4.918918E-2],"categories":[],"categories_nodes":[],"categories_segments":[],"categories_sizes":[],"default_left":[0,0,0,0,0,0,0,0,0,0,0,0,0,0,0,0,0,0,0,0,0,0,0],"id":0,"left_children":[1,3,5,7,9,-1,11,13,15,17,19,21,-1,-1,-1,-1,-1,-1,-1,-1,-1,-1,-1],"loss_changes":[1.0622441E3,1.9228644E2,2.8879395E0,5.4783936E1,4.337056E1,0E0,3.378942E1,3.1733381E1,4.485901E0,4.0020294E1,1.7538044E1,1.5252591E1,0E0,0E0,0E0,0E0,0E0,0E0,0E0,0E0,0E0,0E0,0E0],"parents":[2147483647,0,0,1,1,2,2,3,3,4,4,6,6,7,7,8,8,9,9,10,10,11,11],"right_children":[2,4,6,8,10,-1,12,14,16,18,20,22,-1,-1,-1,-1,-1,-1,-1,-1,-1,-1,-1],"split_conditions":[1E0,1E0,1.1587701E0,7.185496E-1,3.9886722E-1,-1E-1,1.8055197E0,5.963094E-1,4.0485255E-2,-1.2776525E0,1.0391964E0,6.7977554E-1,-1E-1,-1.350103E-2,7.971894E-2,7.5333916E-2,1E-1,5.1308896E-2,-7.434643E-2,7.603029E-2,-3.5838332E-2,-7.4115835E-2,4.918918E-2],"split_indices":[14,8,16,32,16,0,33,16,16,23,33,23,0,0,0,0,0,0,0,0,0,0,0],"split_type":[0,0,0,0,0,0,0,0,0,0,0,0,0,0,0,0,0,0,0,0,0,0,0],"sum_hessian":[1.1359602E3,7.521468E2,3.838134E2,5.519E2,2.0024683E2,3.0483847E2,7.8974915E1,1.3484615E2,4.1705383E2,1.344684E2,6.577843E1,3.3303513E1,4.5671406E1,6.451204E1,7.0334114E1,1.1271187E2,3.0434198E2,2.8937792E1,1.055306E2,5.1241302E1,1.4537124E1,1.0768562E1,2.253495E1],"tree_param":{"num_deleted":"0","num_feature":"37","num_nodes":"23","size_leaf_vector":"1"}},{"base_weights":[1.4775235E-3,-1E0,6.365816E-1,-1E-1,-6.3673073E-1,8.9773524E-1,-1.158664E-1,-1E0,-2.9576543E-1,2.799754E-1,1E0,-5.7189715E-1,2.832386E-1,-1E-1,-3.0926919E-2,-3.7759573E-3,-8.013791E-2,-1E-1,4.9499203E-2,4.6297472E-2,1E-1,-9.439155E-2,-3.573775E-3,-1.1302027E-2,6.855787E-2],"categories":[],"categories_nodes":[],"categories_segments":[],"categories_sizes":[],"default_left":[0,0,0,0,0,0,0,0,0,0,0,0,0,0,0,0,0,0,0,0,0,0,0,0,0],"id":1,"left_children":[1,3,5,-1,7,9,11,13,15,17,19,21,23,-1,-1,-1,-1,-1,-1,-1,-1,-1,-1,-1,-1],"loss_changes":[9.0056726E2,1.49823E1,1.5335257E2,0E0,2.4404522E1,6.851843E1,3.84134E1,3.0001755E0,1.1969811E1,4.9343235E1,1.9378113E1,1.8711891E1,1.8752745E1,0E0,0E0,0E0,0E0,0E0,0E0,0E0,0E0,0E0,0E0,0E0,0E0],"parents":[2147483647,0,0,1,1,2,2,4,4,5,5,6,6,7,7,8,8,9,9,10,10,11,11,12,12],"right_children":[2,4,6,-1,8,10,12,14,16,18,20,22,24,-1,-1,-1,-1,-1,-1,-1,-1,-1,-1,-1,-1],"split_conditions":[2E0,-4.268483E-1,1E0,-1E-1,2E0,-3.263845E-1,-2.7594185E-1,1.4307697E-1,1.205658E0,1E0,1E0,6.426691E-2,3E0,-1E-1,-3.0926919E-2,-3.7759573E-3,-8.013791E-2,-1E-1,4.9499203E-2,4.6297472E-2,1E-1,-9.439155E-2,-3.573775E-3,-1.1302027E-2,6.855787E-2],"split_indices":[34,22,8,0,12,22,22,4,28,21,21,30,34,0,0,0,0,0,0,0,0,0,0,0,0],"split_type":[0,0,0,0,0,0,0,0,0,0,0,0,0,0,0,0,0,0,0,0,0,0,0,0,0],"sum_hessian":[1.1597261E3,3.9019867E2,7.695274E2,2.58005E2,1.3219365E2,5.719592E2,1.9756819E2,4.3870853E1,8.83228E1,1.4798299E2,4.2397626E2,9.297339E1,1.045948E2,3.2495213E1,1.1375641E1,6.121368E1,2.710912E1,1.7260063E1,1.3072293E2,7.585179E1,3.4812445E2,5.2889477E1,4.008391E1,5.216802E1,5.242678E1],"tree_param":{"num_deleted":"0","num_feature":"37","num_nodes":"25","size_leaf_vector":"1"}},{"base_weights":[1.7223021E-2,-1E0,5.550233E-1,-1E0,-3.1990582E-1,8.5007244E-1,-1.4999981E-1,-1E-1,-5.226523E-1,-1E-1,-9.8365076E-2,2.6200622E-1,1E0,-3.4673268E-1,5.287797E-1,-8.762874E-2,-0E0,1.2709223E-2,-9.235618E-2,-1.5188681E-2,5.969569E-2,7.194575E-2,1E-1,-9.709167E-2,6.977284E-3,-8.060049E-2,7.734317E-2],"categories":[],"categories_nodes":[],"categories_segments":[],"categories_sizes":[],"default_left":[0,0,0,0,0,0,0,0,0,0,0,0,0,0,0,0,0,0,0,0,0,0,0,0,0,0,0],"id":2,"left_children":[1,3,5,7,9,11,13,-1,15,-1,17,19,21,23,25,-1,-1,-1,-1,-1,-1,-1,-1,-1,-1,-1,-1],"loss_changes":[7.0589124E2,4.1732697E1,1.6495338E2,2.6242065E0,2.0288792E1,6.920172E1,3.2621193E1,0E0,5.867059E0,0E0,1.8457851E1,2.319374E1,5.971924E0,4.9803978E1,2.0227781E1,0E0,0E0,0E0,0E0,0E0,0E0,0E0,0E0,0E0,0E0,0E0,0E0],"parents":[2147483647,0,0,1,1,2,2,3,3,4,4,5,5,6,6,8,8,10,10,11,11,12,12,13,13,14,14],"right_children":[2,4,6,8,10,12,14,-1,16,-1,18,20,22,24,26,-1,-1,-1,-1,-1,-1,-1,-1,-1,-1,-1,-1],"split_conditions":[-4.18174E-1,6.720107E-2,1E0,7.185496E-1,-8.4359914E-1,7.185496E-1,5.018346E-1,-1E-1,-4.3618348E-1,-1E-1,1E0,1E0,6.3713625E-2,-1.8036509E-1,-5.105513E-1,-8.762874E-2,-0E0,1.2709223E-2,-9.235618E-2,-1.5188681E-2,5.969569E-2,7.194575E-2,1E-1,-9.709167E-2,6.977284E-3,-8.060049E-2,7.734317E-2],"split_indices":[22,30,11,32,32,32,22,0,30,0,11,13,16,30,28,0,0,0,0,0,0,0,0,0,0,0,0],"split_type":[0,0,0,0,0,0,0,0,0,0,0,0,0,0,0,0,0,0,0,0,0,0,0,0,0,0,0],"sum_hessian":[1.147313E3,3.652012E2,7.8211176E2,2.697089E2,9.549233E1,5.520769E2,2.3003487E2,2.4722514E2,2.2483742E1,1.4061383E1,8.1430954E1,1.5376044E2,3.9831647E2,1.8024536E2,4.9789497E1,1.3429376E1,9.054365E0,6.4333984E1,1.7096964E1,6.792911E1,8.583132E1,1.06419304E2,2.918972E2,7.203336E1,1.08212E2,6.368345E0,4.3421154E1],"tree_param":{"num_deleted":"0","num_feature":"37","num_nodes":"27","size_leaf_vector":"1"}},{"base_weights":[2.6568251E-3,-8.4238535E-1,6.322723E-1,-2.4680896E-1,-1E0,1E0,2.2090124E-1,6.1719593E-2,-7.031207E-1,-1E0,-6.729971E-1,1E0,4.592479E-1,3.0852674E-2,7.911126E-1,-1.2183388E-2,4.797579E-2,-9.765957E-2,2.6563713E-2,-1E-1,-5.567338E-2,-1E-1,-3.3801783E-2,1E-1,-0E0,-1.4629789E-2,6.467613E-2,-1.943435E-2,4.023851E-2,8.84518E-2,-0E0],"categories":[],"categories_nodes":[],"categories_segments":[],"categories_sizes":[],"default_left":[0,0,0,0,0,0,0,0,0,0,0,0,0,0,0,0,0,0,0,0,0,0,0,0,0,0,0,0,0,0,0],"id":3,"left_children":[1,3,5,7,9,11,13,15,17,19,21,23,25,27,29,-1,-1,-1,-1,-1,-1,-1,-1,-1,-1,-1,-1,-1,-1,-1,-1],"loss_changes":[6.152237E2,9.792377E1,1.2538272E2,2.9883821E1,5.6434326E0,5.4832153E0,3.9162117E1,1.0739012E1,2.4042816E1,6.105652E-1,1.2748688E1,4.5565186E0,4.6831064E0,2.4266106E1,7.2285004E0,0E0,0E0,0E0,0E0,0E0,0E0,0E0,0E0,0E0,0E0,0E0,0E0,0E0,0E0,0E0,0E0],"parents":[2147483647,0,0,1,1,2,2,3,3,4,4,5,5,6,6,7,7,8,8,9,9,10,10,11,11,12,12,13,13,14,14],"right_children":[2,4,6,8,10,12,14,16,18,20,22,24,26,28,30,-1,-1,-1,-1,-1,-1,-1,-1,-1,-1,-1,-1,-1,-1,-1,-1],"split_conditions":[-3.770561E-1,1E0,3E0,1E0,-4.2646283E-1,2E0,6.9659644E-1,7.185496E-1,1E0,2.1400664E0,1.4307697E-1,1E0,-9.564247E-2,3.1806806E-1,2E0,-1.2183388E-2,4.797579E-2,-9.765957E-2,2.6563713E-2,-1E-1,-5.567338E-2,-1E-1,-3.3801783E-2,1E-1,-0E0,-1.4629789E-2,6.467613E-2,-1.943435E-2,4.023851E-2,8.84518E-2,-0E0],"split_indices":[22,11,36,8,22,8,22,32,1,17,4,24,30,30,8,0,0,0,0,0,0,0,0,0,0,0,0,0,0,0,0],"split_type":[0,0,0,0,0,0,0,0,0,0,0,0,0,0,0,0,0,0,0,0,0,0,0,0,0,0,0,0,0,0,0],"sum_hessian":[1.1471826E3,4.8883102E2,6.583516E2,1.9773384E2,2.9109717E2,3.0202792E2,3.5632373E2,1.1769446E2,8.003939E1,2.1550124E2,7.559595E1,2.7473825E2,2.7289663E1,2.7014703E2,8.617669E1,8.110683E1,3.6587627E1,6.3211266E1,1.6828123E1,1.997029E2,1.579834E1,2.3476955E1,5.211899E1,2.6884836E2,5.889892E0,5.2954545E0,2.199421E1,1.6711577E2,1.0303126E2,7.753742E1,8.639265E0],"tree_param":{"num_deleted":"0","num_feature":"37","num_nodes":"31","size_leaf_vector":"1"}},{"base_weights":[-1.5887203E-2,5.118418E-1,-1E0,2.0298082E-1,9.9795884E-1,-1E-1,-5.555383E-1,-2.8002623E-1,5.417783E-1,1E0,4.3358567E-1,-2.8894147E-1,-1E0,-8.450348E-2,-1.1555811E-2,3.022526E-2,8.695069E-2,7.347717E-2,1E-1,1.9473284E-2,9.511348E-2,-8.891046E-2,1.3319096E-3,-1E-1,-5.0266802E-2],"categories":[],"categories_nodes":[],"categories_segments":[],"categories_sizes":[],"default_left":[0,0,0,0,0,0,0,0,0,0,0,0,0,0,0,0,0,0,0,0,0,0,0,0,0],"id":4,"left_children":[1,3,5,7,9,-1,11,13,15,17,19,21,23,-1,-1,-1,-1,-1,-1,-1,-1,-1,-1,-1,-1],"loss_changes":[6.16443E2,1.1325427E2,2.523816E1,7.805107E1,1.6029816E1,0E0,2.1398792E1,1.806495E1,2.1209099E1,1.0888977E0,7.2907724E0,2.0804699E1,1.0069962E0,0E0,0E0,0E0,0E0,0E0,0E0,0E0,0E0,0E0,0E0,0E0,0E0],"parents":[2147483647,0,0,1,1,2,2,3,3,4,4,6,6,7,7,8,8,9,9,10,10,11,11,12,12],"right_children":[2,4,6,8,10,-1,12,14,16,18,20,22,24,-1,-1,-1,-1,-1,-1,-1,-1,-1,-1,-1,-1],"split_conditions":[1E0,1.153618E-1,-4.268483E-1,2.9599833E-1,1E0,-1E-1,2E0,-1.4610696E0,-2.6704282E-1,1E0,4.61916E-1,2E0,1.3860773E0,-8.450348E-2,-1.1555811E-2,3.022526E-2,8.695069E-2,7.347717E-2,1E-1,1.9473284E-2,9.511348E-2,-8.891046E-2,1.3319096E-3,-1E-1,-5.0266802E-2],"split_indices":[14,22,22,16,11,0,14,16,22,21,16,13,16,0,0,0,0,0,0,0,0,0,0,0,0],"split_type":[0,0,0,0,0,0,0,0,0,0,0,0,0,0,0,0,0,0,0,0,0,0,0,0,0],"sum_hessian":[1.1483845E3,7.5382935E2,3.945552E2,4.6394675E2,2.8988257E2,2.5417287E2,1.4038232E2,1.9019308E2,2.7375366E2,2.3216226E2,5.7720314E1,1.0096407E2,3.9418255E1,3.9644268E1,1.5054883E2,1.6214397E2,1.1160971E2,4.9450424E1,1.8271184E2,4.269907E1,1.5021245E1,3.362475E1,6.7339325E1,2.523941E1,1.41788435E1],"tree_param":{"num_deleted":"0","num_feature":"37","num_nodes":"25","size_leaf_vector":"1"}},{"base_weights":[-2.9842203E-2,4.6164742E-1,-1E0,1E0,2.2413667E-1,-1E0,-4.5720807E-1,-0E0,1E0,-5.253668E-1,3.501573E-1,-5.86566E-1,-1E-1,-2.3363677E-3,-1E-1,1E-1,1.9649477E-3,-7.974221E-2,1.6963914E-2,5.08161E-2,-1.7169327E-4,-9.6964076E-2,-5.7968134E-3,-4.1151255E-2,1.1006136E-2],"categories":[],"categories_nodes":[],"categories_segments":[],"categories_sizes":[],"default_left":[0,0,0,0,0,0,0,0,0,0,0,0,0,0,0,0,0,0,0,0,0,0,0,0,0],"id":5,"left_children":[1,3,5,7,9,11,13,-1,15,17,19,21,-1,23,-1,-1,-1,-1,-1,-1,-1,-1,-1,-1,-1],"loss_changes":[5.4329865E2,1.084382E2,2.8840393E1,7.797928E0,5.2990143E1,4.5236206E-1,3.210192E1,0E0,3.0406952E0,1.655468E1,2.6906055E1,3.6268792E0,0E0,4.523439E0,0E0,0E0,0E0,0E0,0E0,0E0,0E0,0E0,0E0,0E0,0E0],"parents":[2147483647,0,0,1,1,2,2,3,3,4,4,5,5,6,6,8,8,9,9,10,10,11,11,13,13],"right_children":[2,4,6,8,10,12,14,-1,16,18,20,22,-1,24,-1,-1,-1,-1,-1,-1,-1,-1,-1,-1,-1],"split_conditions":[1E0,1E0,9.463955E-1,-2.4480335E-2,-4.2245933E-1,-8.533069E-1,1.994159E0,-0E0,6.87699E-1,2E0,1E0,-1.0527692E0,-1E-1,1E0,-1E-1,1E-1,1.9649477E-3,-7.974221E-2,1.6963914E-2,5.08161E-2,-1.7169327E-4,-9.6964076E-2,-5.7968134E-3,-4.1151255E-2,1.1006136E-2],"split_indices":[14,36,16,22,22,28,33,0,28,12,8,28,0,34,0,0,0,0,0,0,0,0,0,0,0],"split_type":[0,0,0,0,0,0,0,0,0,0,0,0,0,0,0,0,0,0,0,0,0,0,0,0,0],"sum_hessian":[1.1254478E3,7.476657E2,3.7778198E2,2.0447699E2,5.431887E2,2.7141995E2,1.0636202E2,8.641332E0,1.9583565E2,7.613074E1,4.67058E2,1.7184996E1,2.5423497E2,6.52515E1,4.1110516E1,1.9055078E2,5.2848663E0,5.5535763E1,2.0594975E1,3.2367175E2,1.4338625E2,7.899618E0,9.2853775E0,1.4831822E1,5.041968E1],"tree_param":{"num_deleted":"0","num_feature":"37","num_nodes":"25","size_leaf_vector":"1"}},{"base_weights":[-1.2956221E-2,4.6252933E-1,-9.91187E-1,1E0,2.5923735E-1,-1E0,-4.72383E-1,3.716059E-3,1E0,4.38544E-1,-7.38937E-2,-1E0,-2.1278688E-1,-3.2267753E-2,-1E0,1E-1,4.1285615E-2,6.047019E-2,1.2183136E-3,-3.1532656E-2,2.1229649E-2,-5.2090015E-2,-1E-1,-0E0,-3.1756163E-2,2.3998626E-2,-2.6547039E-2,-1.7134285E-2,-1E-1],"categories":[],"categories_nodes":[],"categories_segments":[],"categories_sizes":[],"default_left":[0,0,0,0,0,0,0,0,0,0,0,0,0,0,0,0,0,0,0,0,0,0,0,0,0,0,0,0,0],"id":6,"left_children":[1,3,5,7,9,11,13,-1,15,17,19,21,23,25,27,-1,-1,-1,-1,-1,-1,-1,-1,-1,-1,-1,-1,-1,-1],"loss_changes":[5.270682E2,8.350206E1,2.8463654E1,6.5373077E0,3.408995E1,4.052429E0,2.6770668E1,0E0,3.7928772E0,2.54459E1,1.4547161E1,2.1792603E-1,3.7656224E-1,5.2470317E0,5.852417E0,0E0,0E0,0E0,0E0,0E0,0E0,0E0,0E0,0E0,0E0,0E0,0E0,0E0,0E0],"parents":[2147483647,0,0,1,1,2,2,3,3,4,4,5,5,6,6,8,8,9,9,10,10,11,11,12,12,13,13,14,14],"right_children":[2,4,6,8,10,12,14,-1,16,18,20,22,24,26,28,-1,-1,-1,-1,-1,-1,-1,-1,-1,-1,-1,-1,-1,-1],"split_conditions":[1E0,1E0,8.435266E-1,-3.8718794E-2,1E0,1.1520909E0,2E0,3.716059E-3,1E0,1E0,-2.5195682E-1,-9.191278E-1,1E0,1E0,1E0,1E-1,4.1285615E-2,6.047019E-2,1.2183136E-3,-3.1532656E-2,2.1229649E-2,-5.2090015E-2,-1E-1,-0E0,-3.1756163E-2,2.3998626E-2,-2.6547039E-2,-1.7134285E-2,-1E-1],"split_indices":[14,36,16,22,8,30,14,0,8,19,22,28,0,19,9,0,0,0,0,0,0,0,0,0,0,0,0,0,0],"split_type":[0,0,0,0,0,0,0,0,0,0,0,0,0,0,0,0,0,0,0,0,0,0,0,0,0,0,0,0,0],"sum_hessian":[1.1218491E3,7.5493317E2,3.6691592E2,2.0189177E2,5.530414E2,2.5565361E2,1.112623E2,9.2862215E0,1.9260556E2,3.610672E2,1.9197421E2,2.4534634E2,1.0307268E1,6.332884E1,4.793346E1,1.7439557E2,1.8209984E1,2.5752475E2,1.03542435E2,1.05914375E2,8.6059845E1,1.1837187E1,2.3350916E2,5.1253395E0,5.1819286E0,2.7212788E1,3.6116047E1,1.1848994E1,3.6084465E1],"tree_param":{"num_deleted":"0","num_feature":"37","num_nodes":"29","size_leaf_vector":"1"}},{"base_weights":[-9.21402E-3,4.4632584E-1,-9.640252E-1,8.4434964E-2,6.8135655E-1,-4.9274454E-1,-1E-1,-1.0209987E-1,6.2222713E-1,8.2511383E-1,1.6742116E-1,-2.2391373E-1,-9.5377403E-1,2.754902E-2,-4.0027793E-2,-5.6592382E-2,8.64487E-2,6.340323E-2,1E-1,-3.34399E-2,3.407061E-2,-7.89716E-2,1.3525195E-2,-1E-1,-2.3743074E-2],"categories":[],"categories_nodes":[],"categories_segments":[],"categories_sizes":[],"default_left":[0,0,0,0,0,0,0,0,0,0,0,0,0,0,0,0,0,0,0,0,0,0,0,0,0],"id":7,"left_children":[1,3,5,7,9,11,-1,13,15,17,19,21,23,-1,-1,-1,-1,-1,-1,-1,-1,-1,-1,-1,-1],"loss_changes":[4.8015857E2,6.282785E1,2.7088654E1,3.1612776E1,3.2422607E1,1.4451519E1,0E0,2.6267862E1,2.5307705E1,1.1954803E1,1.0107392E1,1.8290745E1,4.395317E0,0E0,0E0,0E0,0E0,0E0,0E0,0E0,0E0,0E0,0E0,0E0,0E0],"parents":[2147483647,0,0,1,1,2,2,3,3,4,4,5,5,7,7,8,8,9,9,10,10,11,11,12,12],"right_children":[2,4,6,8,10,12,-1,14,16,18,20,22,24,-1,-1,-1,-1,-1,-1,-1,-1,-1,-1,-1,-1],"split_conditions":[1E0,-2.5195682E-1,1E0,1.024377E0,1E0,2E0,-1E-1,3E0,6.1149422E-2,3.9886722E-1,-1.4876164E0,5.4819316E-1,1.5547922E0,2.754902E-2,-4.0027793E-2,-5.6592382E-2,8.64487E-2,6.340323E-2,1E-1,-3.34399E-2,3.407061E-2,-7.89716E-2,1.3525195E-2,-1E-1,-2.3743074E-2],"split_indices":[14,22,8,16,11,14,0,36,30,16,16,16,23,0,0,0,0,0,0,0,0,0,0,0,0],"split_type":[0,0,0,0,0,0,0,0,0,0,0,0,0,0,0,0,0,0,0,0,0,0,0,0,0],"sum_hessian":[1.0923168E3,7.3951324E2,3.5280356E2,2.9392007E2,4.4559317E2,1.1649747E2,2.363061E2,2.1804971E2,7.587035E1,3.4572946E2,9.98637E1,7.6834785E1,3.966268E1,9.48003E1,1.2324942E2,1.1698047E1,6.417231E1,1.8445482E2,1.6127466E2,2.367431E1,7.6189384E1,2.9985165E1,4.6849617E1,2.8048128E1,1.1614555E1],"tree_param":{"num_deleted":"0","num_feature":"37","num_nodes":"25","size_leaf_vector":"1"}},{"base_weights":[-1.5820138E-2,3.7709594E-1,-8.362349E-1,7.003791E-1,1.0084454E-1,-1E0,-4.1424865E-1,-2.4064209E-1,7.6575613E-1,5.425885E-1,-7.162993E-2,-4.751003E-1,-1E-1,5.8035742E-2,-5.0058955E-1,2.3340913E-2,-9.2478454E-2,7.990041E-2,-2.8898066E-2,7.737862E-2,1.5666952E-2,-5.4950327E-2,1.092643E-2,-0E0,-7.257086E-2,-6.8771094E-2,2.2403442E-3],"categories":[],"categories_nodes":[],"categories_segments":[],"categories_sizes":[],"default_left":[0,0,0,0,0,0,0,0,0,0,0,0,0,0,0,0,0,0,0,0,0,0,0,0,0,0,0],"id":8,"left_children":[1,3,5,7,9,11,13,15,17,19,21,23,-1,-1,25,-1,-1,-1,-1,-1,-1,-1,-1,-1,-1,-1,-1],"loss_changes":[3.5882327E2,6.652098E1,3.436006E1,2.252707E1,3.2524868E1,4.5662537E0,1.3552263E1,1.0328326E1,1.2871902E1,9.946346E0,2.7001299E1,4.245917E0,0E0,0E0,1.3597549E1,0E0,0E0,0E0,0E0,0E0,0E0,0E0,0E0,0E0,0E0,0E0,0E0],"parents":[2147483647,0,0,1,1,2,2,3,3,4,4,5,5,6,6,7,7,8,8,9,9,10,10,11,11,14,14],"right_children":[2,4,6,8,10,12,14,16,18,20,22,24,-1,-1,26,-1,-1,-1,-1,-1,-1,-1,-1,-1,-1,-1,-1],"split_conditions":[1E0,3E0,-8.243898E-2,1E0,-9.584955E-1,1E0,-7.0555784E-2,-4.775793E-1,1.1169122E0,3E0,1E0,-4.0849274E-1,-1E-1,5.8035742E-2,-6.2524766E-2,2.3340913E-2,-9.2478454E-2,7.990041E-2,-2.8898066E-2,7.737862E-2,1.5666952E-2,-5.4950327E-2,1.092643E-2,-0E0,-7.257086E-2,-6.8771094E-2,2.2403442E-3],"split_indices":[14,36,30,21,33,11,30,23,23,21,21,30,0,0,32,0,0,0,0,0,0,0,0,0,0,0,0],"split_type":[0,0,0,0,0,0,0,0,0,0,0,0,0,0,0,0,0,0,0,0,0,0,0,0,0,0,0],"sum_hessian":[1.1003231E3,7.439092E2,3.564139E2,3.3969302E2,4.042162E2,2.219647E2,1.3444922E2,2.0725006E1,3.1896802E2,1.1392811E2,2.902881E2,2.5642485E1,1.9632222E2,8.900005E0,1.2554922E2,1.2157141E1,8.567865E0,3.1060986E2,8.358158E0,6.836841E1,4.5559696E1,8.011053E1,2.1017755E2,8.68471E0,1.6957775E1,9.3410194E1,3.2139023E1],"tree_param":{"num_deleted":"0","num_feature":"37","num_nodes":"27","size_leaf_vector":"1"}},{"base_weights":[-4.4425193E-2,2.9319742E-1,-7.318261E-1,8.2613254E-1,1.14990324E-1,-1.7371093E-1,-9.9558806E-1,8.9605314E-1,6.138174E-2,2.7617586E-1,-1.9869171E-1,3.5794314E-2,-6.557798E-1,-1E-1,-2.3229235E-1,9.932588E-2,3.956602E-2,-2.653013E-2,4.4904128E-2,7.467621E-2,1.7031569E-2,-0E0,-5.767203E-2,1.3139491E-2,-7.2550885E-2,-8.3316736E-2,-0E0,6.386162E-2,-7.425294E-2],"categories":[],"categories_nodes":[],"categories_segments":[],"categories_sizes":[],"default_left":[0,0,0,0,0,0,0,0,0,0,0,0,0,0,0,0,0,0,0,0,0,0,0,0,0,0,0,0,0],"id":9,"left_children":[1,3,5,7,9,11,13,15,17,19,21,23,25,-1,27,-1,-1,-1,-1,-1,-1,-1,-1,-1,-1,-1,-1,-1,-1],"loss_changes":[2.4636377E2,6.704132E1,5.0468292E1,8.538261E0,2.777694E1,1.3323181E1,1.7338867E1,6.5324554E0,4.00523E0,1.7744953E1,1.4795761E1,7.1088266E0,5.293741E0,0E0,1.9085323E1,0E0,0E0,0E0,0E0,0E0,0E0,0E0,0E0,0E0,0E0,0E0,0E0,0E0,0E0],"parents":[2147483647,0,0,1,1,2,2,3,3,4,4,5,5,6,6,7,7,8,8,9,9,10,10,11,11,12,12,14,14],"right_children":[2,4,6,8,10,12,14,16,18,20,22,24,26,-1,28,-1,-1,-1,-1,-1,-1,-1,-1,-1,-1,-1,-1,-1,-1],"split_conditions":[1E0,1E0,1E0,1E0,1E0,2E0,1.25998E0,-9.959697E-1,5.4819316E-1,-1.2388297E0,-5.082148E-1,1.4863662E0,1.5786104E0,-1E-1,1.7566746E0,9.932588E-2,3.956602E-2,-2.653013E-2,4.4904128E-2,7.467621E-2,1.7031569E-2,-0E0,-5.767203E-2,1.3139491E-2,-7.2550885E-2,-8.3316736E-2,-0E0,6.386162E-2,-7.425294E-2],"split_indices":[14,36,8,8,11,14,16,23,16,23,4,4,23,0,17,0,0,0,0,0,0,0,0,0,0,0,0,0,0],"split_type":[0,0,0,0,0,0,0,0,0,0,0,0,0,0,0,0,0,0,0,0,0,0,0,0,0,0,0,0,0],"sum_hessian":[1.0473477E3,7.021655E2,3.4518216E2,1.727292E2,5.2943634E2,1.1305931E2,2.3212285E2,1.5674695E2,1.5982259E1,3.519922E2,1.7744412E2,7.8653786E1,3.4405525E1,1.9871243E2,3.3410416E1,1.2792756E2,2.8819384E1,7.615942E0,8.366317E0,6.06824E1,2.9130978E2,1.1593398E2,6.151014E1,7.251595E1,6.1378326E0,2.7668701E1,6.736824E0,1.143288E1,2.1977535E1],"tree_param":{"num_deleted":"0","num_feature":"37","num_nodes":"29","size_leaf_vector":"1"}},{"base_weights":[-4.8648834E-2,2.8232357E-1,-7.552329E-1,-4.2936597E-2,4.9636644E-1,-9.4905543E-1,-3.4297848E-1,-2.8295088E-1,4.9751887E-1,1.6515984E-1,7.286044E-1,-1E0,-4.105606E-1,-1E-1,-1.976978E-1,-4.915377E-2,-3.7634923E-4,2.363572E-2,7.272765E-2,-7.237792E-2,2.1874418E-2,7.8200504E-2,2.4724044E-2,-6.257685E-2,-1E-1,3.7281964E-2,-7.3076695E-2,-5.215137E-3,-7.4228175E-2],"categories":[],"categories_nodes":[],"categories_segments":[],"categories_sizes":[],"default_left":[0,0,0,0,0,0,0,0,0,0,0,0,0,0,0,0,0,0,0,0,0,0,0,0,0,0,0,0,0],"id":10,"left_children":[1,3,5,7,9,11,13,15,17,19,21,23,25,-1,27,-1,-1,-1,-1,-1,-1,-1,-1,-1,-1,-1,-1,-1,-1],"loss_changes":[2.4386047E2,4.989995E1,2.551625E1,3.7693993E1,3.2392754E1,5.799881E0,1.2707034E1,1.1313389E1,4.734171E0,9.928892E0,5.5546722E0,3.623825E0,9.11348E0,0E0,8.035952E0,0E0,0E0,0E0,0E0,0E0,0E0,0E0,0E0,0E0,0E0,0E0,0E0,0E0,0E0],"parents":[2147483647,0,0,1,1,2,2,3,3,4,4,5,5,6,6,7,7,8,8,9,9,10,10,11,11,12,12,14,14],"right_children":[2,4,6,8,10,12,14,16,18,20,22,24,26,-1,28,-1,-1,-1,-1,-1,-1,-1,-1,-1,-1,-1,-1,-1,-1],"split_conditions":[1E0,1.5662763E-1,-4.2245933E-1,6.706621E-1,-2.2468337E-1,2.1867938E0,-6.679832E-1,1E0,1.4110626E0,-4.0040976E-1,1E0,1E0,2E0,-1E-1,2E0,-4.915377E-2,-3.7634923E-4,2.363572E-2,7.272765E-2,-7.237792E-2,2.1874418E-2,7.8200504E-2,2.4724044E-2,-6.257685E-2,-1E-1,3.7281964E-2,-7.3076695E-2,-5.215137E-3,-7.4228175E-2],"split_indices":[14,16,22,22,22,33,16,6,22,17,8,11,14,0,14,0,0,0,0,0,0,0,0,0,0,0,0,0,0],"split_type":[0,0,0,0,0,0,0,0,0,0,0,0,0,0,0,0,0,0,0,0,0,0,0,0,0,0,0,0,0],"sum_hessian":[1.0284603E3,7.002435E2,3.2821683E2,2.7669852E2,4.2354504E2,2.198322E2,1.0838464E2,1.9354784E2,8.315067E1,1.777602E2,2.4578484E2,1.946256E2,2.5206598E1,1.3057894E1,9.532675E1,1.07860176E2,8.568765E1,4.285171E1,4.029896E1,7.622913E0,1.7013728E2,2.1824681E2,2.7538023E1,4.3500195E1,1.511254E2,6.312224E0,1.8894375E1,7.840096E1,1.6925785E1],"tree_param":{"num_deleted":"0","num_feature":"37","num_nodes":"29","size_leaf_vector":"1"}},{"base_weights":[-3.5090182E-2,-4.5876938E-1,4.2104805E-1,-8.9506805E-1,-1.8764411E-1,5.3848785E-1,-2.450811E-1,-1E0,-6.281563E-1,-6.019321E-1,-2.755218E-2,1.1895259E-1,6.247165E-1,2.0974943E-1,-5.8577424E-1,-1E-1,-3.6073707E-2,1.7052595E-2,-7.605066E-2,-1.15365675E-2,-8.9228824E-2,4.7735223E-3,-7.335624E-2,5.062412E-2,-3.4546636E-2,4.523028E-2,7.834344E-2,-2.2821402E-2,4.677589E-2,-9.3865804E-2,-1.6418952E-2],"categories":[],"categories_nodes":[],"categories_segments":[],"categories_sizes":[],"default_left":[0,0,0,0,0,0,0,0,0,0,0,0,0,0,0,0,0,0,0,0,0,0,0,0,0,0,0,0,0,0,0],"id":11,"left_children":[1,3,5,7,9,11,13,15,17,19,21,23,25,27,29,-1,-1,-1,-1,-1,-1,-1,-1,-1,-1,-1,-1,-1,-1,-1,-1],"loss_changes":[1.9789934E2,6.2207535E1,3.9440147E1,6.7206116E0,2.205287E1,1.4587517E1,1.3066042E1,2.9483185E0,1.0214981E1,1.2300091E1,1.5087174E1,1.5549989E1,8.666397E0,4.9923906E0,6.115013E0,0E0,0E0,0E0,0E0,0E0,0E0,0E0,0E0,0E0,0E0,0E0,0E0,0E0,0E0,0E0,0E0],"parents":[2147483647,0,0,1,1,2,2,3,3,4,4,5,5,6,6,7,7,8,8,9,9,10,10,11,11,12,12,13,13,14,14],"right_children":[2,4,6,8,10,12,14,16,18,20,22,24,26,28,30,-1,-1,-1,-1,-1,-1,-1,-1,-1,-1,-1,-1,-1,-1,-1,-1],"split_conditions":[7.185496E-1,-1.8329924E-1,2E0,-4.4406894E-1,1E0,1E0,-9.941346E-1,1.4033125E-1,-4.0849274E-1,-3.8609758E-1,1.5677776E0,-9.202206E-1,3.9948982E-1,-3.468201E-1,1E0,-1E-1,-3.6073707E-2,1.7052595E-2,-7.605066E-2,-1.15365675E-2,-8.9228824E-2,4.7735223E-3,-7.335624E-2,5.062412E-2,-3.4546636E-2,4.523028E-2,7.834344E-2,-2.2821402E-2,4.677589E-2,-9.3865804E-2,-1.6418952E-2],"split_indices":[32,30,7,30,21,21,17,17,30,4,4,17,30,28,35,0,0,0,0,0,0,0,0,0,0,0,0,0,0,0,0],"split_type":[0,0,0,0,0,0,0,0,0,0,0,0,0,0,0,0,0,0,0,0,0,0,0,0,0,0,0,0,0,0,0],"sum_hessian":[1.0110893E3,5.253263E2,4.85763E2,1.9815747E2,3.271688E2,4.1455978E2,7.1203224E1,1.1728717E2,8.087031E1,8.790941E1,2.3925938E2,7.346766E1,3.4109213E2,2.9565857E1,4.163737E1,1.0404985E2,1.3237323E1,1.0339982E1,7.053032E1,3.518559E1,5.2723824E1,2.1660904E2,2.2650354E1,4.1136333E1,3.2331326E1,1.7020264E2,1.708895E2,9.609369E0,1.9956486E1,2.0038944E1,2.1598425E1],"tree_param":{"num_deleted":"0","num_feature":"37","num_nodes":"31","size_leaf_vector":"1"}},{"base_weights":[-4.314208E-2,-6.5466136E-1,2.3923719E-1,-9.5143574E-1,-2.9288945E-1,4.7261775E-2,5.960659E-1,-6.031583E-1,-1E0,-8.875397E-1,-1.2121063E-1,1.5986042E-1,-5.156464E-1,1.9643082E-1,7.7615476E-1,-9.3455456E-2,-3.1663564E-3,-1E-1,-2.5204808E-2,-3.3226737E-3,-1E-1,-1.293591E-3,-5.9693255E-2,-5.2330093E-3,4.1416835E-2,-1E-1,-1.6322833E-2,-7.2706537E-3,5.4508764E-2,2.6610944E-2,8.8652045E-2],"categories":[],"categories_nodes":[],"categories_segments":[],"categories_sizes":[],"default_left":[0,0,0,0,0,0,0,0,0,0,0,0,0,0,0,0,0,0,0,0,0,0,0,0,0,0,0,0,0,0,0],"id":12,"left_children":[1,3,5,7,9,11,13,15,17,19,21,23,25,27,29,-1,-1,-1,-1,-1,-1,-1,-1,-1,-1,-1,-1,-1,-1,-1,-1],"loss_changes":[1.7587816E2,3.36221E1,4.7203243E1,3.504593E0,1.5331777E1,2.9650917E1,1.663993E1,7.648449E0,2.4588318E0,6.745821E0,6.4597864E0,2.1460655E1,1.6414164E1,8.7596035E0,8.247993E0,0E0,0E0,0E0,0E0,0E0,0E0,0E0,0E0,0E0,0E0,0E0,0E0,0E0,0E0,0E0,0E0],"parents":[2147483647,0,0,1,1,2,2,3,3,4,4,5,5,6,6,7,7,8,8,9,9,10,10,11,11,12,12,13,13,14,14],"right_children":[2,4,6,8,10,12,14,16,18,20,22,24,26,28,30,-1,-1,-1,-1,-1,-1,-1,-1,-1,-1,-1,-1,-1,-1,-1,-1],"split_conditions":[2E0,-4.328193E-1,1.6494219E-1,1E0,-2.9495448E-1,3E0,3E0,1E0,7.233578E-2,1E0,1.5005606E0,3.9288798E-1,-3.5699674E-1,1.6104012E0,1E0,-9.3455456E-2,-3.1663564E-3,-1E-1,-2.5204808E-2,-3.3226737E-3,-1E-1,-1.293591E-3,-5.9693255E-2,-5.2330093E-3,4.1416835E-2,-1E-1,-1.6322833E-2,-7.2706537E-3,5.4508764E-2,2.6610944E-2,8.8652045E-2],"split_indices":[34,22,22,11,33,15,34,25,30,11,16,30,22,22,21,0,0,0,0,0,0,0,0,0,0,0,0,0,0,0,0],"split_type":[0,0,0,0,0,0,0,0,0,0,0,0,0,0,0,0,0,0,0,0,0,0,0,0,0,0,0,0,0,0,0],"sum_hessian":[1.00244525E3,3.1695453E2,6.854907E2,1.7080943E2,1.4614511E2,4.4899615E2,2.3649458E2,3.996462E1,1.3084482E2,2.9567322E1,1.1657779E2,3.7682773E2,7.216843E1,7.6490005E1,1.6000456E2,2.3384274E1,1.6580345E1,1.2220059E2,8.644218E0,9.612563E0,1.9954758E1,9.834975E1,1.8228037E1,2.0414694E2,1.7268079E2,2.2012644E1,5.015578E1,4.2442394E1,3.4047615E1,3.1288883E1,1.2871568E2],"tree_param":{"num_deleted":"0","num_feature":"37","num_nodes":"31","size_leaf_vector":"1"}},{"base_weights":[-1.5429538E-2,-6.395637E-1,2.4556851E-1,-2.679557E-1,-8.242994E-1,-8.358774E-2,4.570306E-1,2.2112633E-1,-5.370068E-1,-0E0,-8.983767E-1,-2.4019092E-1,1.5873201E-1,1.13618076E-1,5.582869E-1,-7.1150335E-3,7.741037E-2,-0E0,-7.3975995E-2,9.6172296E-2,-6.0552247E-2,-9.665438E-2,-1.9638848E-2,-4.8143078E-2,1.5373399E-2,3.870557E-2,-1.4432992E-2,-9.784325E-2,2.2094926E-2,3.275519E-2,6.947332E-2],"categories":[],"categories_nodes":[],"categories_segments":[],"categories_sizes":[],"default_left":[0,0,0,0,0,0,0,0,0,0,0,0,0,0,0,0,0,0,0,0,0,0,0,0,0,0,0,0,0,0,0],"id":13,"left_children":[1,3,5,7,9,11,13,15,17,19,21,23,25,27,29,-1,-1,-1,-1,-1,-1,-1,-1,-1,-1,-1,-1,-1,-1,-1,-1],"loss_changes":[1.6476181E2,1.9657051E1,4.9966076E1,1.5071717E1,1.2211609E1,1.1216025E1,1.45878525E1,7.978183E0,7.9786243E0,1.4750523E1,7.5421753E0,1.7441555E1,8.473956E0,1.3884722E1,9.821915E0,0E0,0E0,0E0,0E0,0E0,0E0,0E0,0E0,0E0,0E0,0E0,0E0,0E0,0E0,0E0,0E0],"parents":[2147483647,0,0,1,1,2,2,3,3,4,4,5,5,6,6,7,7,8,8,9,9,10,10,11,11,12,12,13,13,14,14],"right_children":[2,4,6,8,10,12,14,16,18,20,22,24,26,28,30,-1,-1,-1,-1,-1,-1,-1,-1,-1,-1,-1,-1,-1,-1,-1,-1],"split_conditions":[-4.187261E-1,1E0,3E0,3E0,-5.489205E-1,2E0,-3.3046505E-1,1E0,-4.5000714E-1,2E0,-4.273951E-1,1.153618E-1,1E0,-9.9318177E-1,2.9599833E-1,-7.1150335E-3,7.741037E-2,-0E0,-7.3975995E-2,9.6172296E-2,-6.0552247E-2,-9.665438E-2,-1.9638848E-2,-4.8143078E-2,1.5373399E-2,3.870557E-2,-1.4432992E-2,-9.784325E-2,2.2094926E-2,3.275519E-2,6.947332E-2],"split_indices":[22,8,34,36,29,13,22,12,22,15,22,22,35,16,16,0,0,0,0,0,0,0,0,0,0,0,0,0,0,0,0],"split_type":[0,0,0,0,0,0,0,0,0,0,0,0,0,0,0,0,0,0,0,0,0,0,0,0,0,0,0,0,0,0,0],"sum_hessian":[9.944179E2,2.9349738E2,7.009205E2,1.0088157E2,1.9261581E2,2.7278735E2,4.2813312E2,3.4608894E1,6.6272675E1,1.582452E1,1.767913E2,1.6821802E2,1.0456934E2,1.0070625E2,3.2742688E2,2.2598637E1,1.2010257E1,1.8457045E1,4.7815628E1,5.7871842E0,1.0037335E1,1.591579E2,1.76334E1,1.0562654E2,6.2591476E1,6.1204147E1,4.33652E1,6.7257304E0,9.398052E1,1.2692414E2,2.0050273E2],"tree_param":{"num_deleted":"0","num_feature":"37","num_nodes":"31","size_leaf_vector":"1"}},{"base_weights":[-5.5015802E-2,2.1160993E-1,-6.537355E-1,4.7009315E-2,5.17877E-1,-3.7399456E-1,-9.464307E-1,-3.4967038E-1,2.7120066E-1,6.541644E-1,-0E0,-6.481585E-1,-1.1138312E-1,-1E-1,-6.3871914E-1,-7.471319E-2,-1.6225401E-2,5.1690554E-3,5.703313E-2,2.382197E-2,7.709861E-2,1.7441748E-2,-5.567334E-2,-8.222195E-2,5.442831E-3,-3.9282173E-2,1.3858059E-2,-9.406761E-2,-2.4831047E-2],"categories":[],"categories_nodes":[],"categories_segments":[],"categories_sizes":[],"default_left":[0,0,0,0,0,0,0,0,0,0,0,0,0,0,0,0,0,0,0,0,0,0,0,0,0,0,0,0,0],"id":14,"left_children":[1,3,5,7,9,11,13,15,17,19,21,23,25,-1,27,-1,-1,-1,-1,-1,-1,-1,-1,-1,-1,-1,-1,-1,-1],"loss_changes":[1.5618477E2,3.3725224E1,2.3752945E1,4.0234253E1,1.6364021E1,1.1223164E1,3.7552795E0,1.1700987E1,1.8586283E1,8.192215E0,6.4485073E0,1.0472469E1,7.171454E0,0E0,5.5685577E0,0E0,0E0,0E0,0E0,0E0,0E0,0E0,0E0,0E0,0E0,0E0,0E0,0E0,0E0],"parents":[2147483647,0,0,1,1,2,2,3,3,4,4,5,5,6,6,7,7,8,8,9,9,10,10,11,11,12,12,14,14],"right_children":[2,4,6,8,10,12,14,16,18,20,22,24,26,-1,28,-1,-1,-1,-1,-1,-1,-1,-1,-1,-1,-1,-1,-1,-1],"split_conditions":[1E0,1.6494219E-1,2E0,2.1538854E-2,1E0,2E0,-1.8036509E-1,-8.52552E-1,-9.595214E-3,1E0,-9.584955E-1,-3.770561E-1,1.1371932E0,-1E-1,7.809958E-1,-7.471319E-2,-1.6225401E-2,5.1690554E-3,5.703313E-2,2.382197E-2,7.709861E-2,1.7441748E-2,-5.567334E-2,-8.222195E-2,5.442831E-3,-3.9282173E-2,1.3858059E-2,-9.406761E-2,-2.4831047E-2],"split_indices":[14,22,14,30,8,13,30,33,28,21,33,22,33,0,28,0,0,0,0,0,0,0,0,0,0,0,0,0,0],"split_type":[0,0,0,0,0,0,0,0,0,0,0,0,0,0,0,0,0,0,0,0,0,0,0,0,0,0,0,0,0],"sum_hessian":[9.617373E2,6.6515094E2,2.965864E2,4.3625925E2,2.2889166E2,1.557253E2,1.4086111E2,1.5551472E2,2.8074454E2,1.8030931E2,4.858236E1,7.2887375E1,8.283792E1,9.0911476E1,4.9949635E1,4.6208923E1,1.0930579E2,1.6520285E2,1.1554168E2,4.274693E1,1.3756238E2,3.8467144E1,1.0115215E1,5.9283154E1,1.3604222E1,4.0309868E1,4.252805E1,2.513157E1,2.4818062E1],"tree_param":{"num_deleted":"0","num_feature":"37","num_nodes":"29","size_leaf_vector":"1"}},{"base_weights":[-2.128553E-2,2.1092086E-1,-5.612369E-1,3.3206424E-1,-1.0021368E-1,-9.1745764E-1,-2.407086E-1,7.58147E-1,2.3782064E-1,1.8031107E-1,-4.2715898E-1,-1E0,-3.4012723E-1,8.152246E-2,-6.516285E-1,3.5334316E-3,8.5400715E-2,2.9136285E-3,4.920497E-2,-3.483763E-2,3.0608892E-2,1.6705794E-3,-7.7452846E-2,-2.6072E-2,-1E-1,-6.9540076E-2,-0E0,1.8526739E-2,-3.1928968E-2,-9.022003E-2,-1.9511204E-2],"categories":[],"categories_nodes":[],"categories_segments":[],"categories_sizes":[],"default_left":[0,0,0,0,0,0,0,0,0,0,0,0,0,0,0,0,0,0,0,0,0,0,0,0,0,0,0,0,0,0,0],"id":15,"left_children":[1,3,5,7,9,11,13,15,17,19,21,23,25,27,29,-1,-1,-1,-1,-1,-1,-1,-1,-1,-1,-1,-1,-1,-1,-1,-1],"loss_changes":[1.2080615E2,2.5703484E1,3.2315926E1,1.9223938E1,1.8366545E1,5.644272E0,2.219009E1,5.1332664E0,2.1102951E1,7.717978E0,1.5016756E1,3.6811752E0,3.7310448E0,4.4609175E0,7.4182224E0,0E0,0E0,0E0,0E0,0E0,0E0,0E0,0E0,0E0,0E0,0E0,0E0,0E0,0E0,0E0,0E0],"parents":[2147483647,0,0,1,1,2,2,3,3,4,4,5,5,6,6,7,7,8,8,9,9,10,10,11,11,12,12,13,13,14,14],"right_children":[2,4,6,8,10,12,14,16,18,20,22,24,26,28,30,-1,-1,-1,-1,-1,-1,-1,-1,-1,-1,-1,-1,-1,-1,-1,-1],"split_conditions":[1E0,1E0,2E0,-1.240918E0,1E0,9.28984E-1,2E0,-1.7826388E0,5.963094E-1,-4.8333687E-1,-1.0780951E0,-8.533069E-1,1E0,1E0,1.2732534E0,3.5334316E-3,8.5400715E-2,2.9136285E-3,4.920497E-2,-3.483763E-2,3.0608892E-2,1.6705794E-3,-7.7452846E-2,-2.6072E-2,-1E-1,-6.9540076E-2,-0E0,1.8526739E-2,-3.1928968E-2,-9.022003E-2,-1.9511204E-2],"split_indices":[14,11,13,29,0,28,14,28,16,28,29,28,0,1,16,0,0,0,0,0,0,0,0,0,0,0,0,0,0,0,0],"split_type":[0,0,0,0,0,0,0,0,0,0,0,0,0,0,0,0,0,0,0,0,0,0,0,0,0,0,0,0,0,0,0],"sum_hessian":[9.44859E2,6.6027435E2,2.8458463E2,4.774528E2,1.8282156E2,1.3154591E2,1.5303871E2,8.200442E1,3.9544836E2,9.723264E1,8.558891E1,1.1124893E2,2.0296986E1,8.531046E1,6.772826E1,1.1144061E1,7.086035E1,2.2056221E2,1.7488617E2,1.6478365E1,8.075428E1,3.714741E1,4.8441505E1,1.1100258E1,1.00148674E2,9.580155E0,1.0716829E1,7.0605606E1,1.4704853E1,4.1052437E1,2.6675814E1],"tree_param":{"num_deleted":"0","num_feature":"37","num_nodes":"31","size_leaf_vector":"1"}},{"base_weights":[-1.2688015E-2,-5.125239E-1,1.9015929E-1,-1.3825859E-1,-7.398756E-1,4.9597953E-2,4.659866E-1,-1.2655848E-3,-7.052647E-1,4.5927357E-2,-7.979439E-1,1.1357407E-1,-6.4869046E-1,5.799769E-1,5.8308255E-2,6.3134753E-3,-7.7287525E-2,-1E-1,-0E0,-9.541915E-2,-6.0161598E-2,-1.9046195E-2,2.047645E-2,-7.740491E-2,-0E0,4.534274E-2,8.238503E-2,2.5751937E-2,-5.7953555E-2],"categories":[],"categories_nodes":[],"categories_segments":[],"categories_sizes":[],"default_left":[0,0,0,0,0,0,0,0,0,0,0,0,0,0,0,0,0,0,0,0,0,0,0,0,0,0,0,0,0],"id":16,"left_children":[1,3,5,7,9,11,13,15,17,-1,19,21,23,25,27,-1,-1,-1,-1,-1,-1,-1,-1,-1,-1,-1,-1,-1,-1],"loss_changes":[9.6809784E1,2.2809616E1,2.5906942E1,8.738381E0,1.3749626E1,2.095132E1,9.962494E0,6.928748E0,4.034317E0,0E0,3.75103E0,1.2060659E1,3.7248154E0,4.6621475E0,8.228231E0,0E0,0E0,0E0,0E0,0E0,0E0,0E0,0E0,0E0,0E0,0E0,0E0,0E0,0E0],"parents":[2147483647,0,0,1,1,2,2,3,3,4,4,5,5,6,6,7,7,8,8,10,10,11,11,12,12,13,13,14,14],"right_children":[2,4,6,8,10,12,14,16,18,-1,20,22,24,26,28,-1,-1,-1,-1,-1,-1,-1,-1,-1,-1,-1,-1,-1,-1],"split_conditions":[-4.18174E-1,1E0,2.2062479E-1,2E0,-9.191278E-1,2E0,1E0,1.4825374E0,1.8987746E0,4.5927357E-2,7.809958E-1,1E0,-3.6155544E-2,2E0,-9.6262956E-1,6.3134753E-3,-7.7287525E-2,-1E-1,-0E0,-9.541915E-2,-6.0161598E-2,-1.9046195E-2,2.047645E-2,-7.740491E-2,-0E0,4.534274E-2,8.238503E-2,2.5751937E-2,-5.7953555E-2],"split_indices":[22,11,22,14,28,7,8,23,33,0,28,21,28,6,17,0,0,0,0,0,0,0,0,0,0,0,0,0,0],"split_type":[0,0,0,0,0,0,0,0,0,0,0,0,0,0,0,0,0,0,0,0,0,0,0,0,0,0,0,0,0],"sum_hessian":[9.341096E2,2.701961E2,6.639135E2,1.04985016E2,1.6521109E2,4.4375928E2,2.2015424E2,8.7590576E1,1.739444E1,6.1971083E0,1.5901399E2,4.0936102E2,3.4398254E1,1.6947063E2,5.0683594E1,8.134195E1,6.248625E0,1.0694826E1,6.6996136E0,8.1409966E1,7.760403E1,9.141912E1,3.179419E2,2.9361757E1,5.0364966E0,1.1803802E2,5.1432617E1,4.0724766E1,9.958829E0],"tree_param":{"num_deleted":"0","num_feature":"37","num_nodes":"29","size_leaf_vector":"1"}},{"base_weights":[-2.4208015E-2,1.709177E-1,-4.999921E-1,3.012889E-1,-1.5793866E-1,-8.734981E-1,-3.3041385E-1,5.2964884E-1,1.4196439E-1,-3.8014833E-2,-5.5689853E-1,-1E-1,-6.0700715E-1,-1.0979625E-1,-6.063842E-1,3.3702232E-2,8.442683E-2,-5.2420347E-4,5.5949908E-2,-1.698794E-2,6.1591394E-2,-9.2615865E-2,3.2023524E-3,-7.8016646E-2,-0E0,6.692116E-2,-2.6097286E-2,-9.948206E-2,-3.746396E-2],"categories":[],"categories_nodes":[],"categories_segments":[],"categories_sizes":[],"default_left":[0,0,0,0,0,0,0,0,0,0,0,0,0,0,0,0,0,0,0,0,0,0,0,0,0,0,0,0,0],"id":17,"left_children":[1,3,5,7,9,11,13,15,17,19,21,-1,23,25,27,-1,-1,-1,-1,-1,-1,-1,-1,-1,-1,-1,-1,-1,-1],"loss_changes":[8.631948E1,2.8497303E1,1.6525368E1,1.6845497E1,8.965307E0,2.232792E0,1.140181E1,1.09394455E1,1.8575737E1,1.37056875E1,1.0474355E1,0E0,4.410288E0,1.4446663E1,6.7306843E0,0E0,0E0,0E0,0E0,0E0,0E0,0E0,0E0,0E0,0E0,0E0,0E0,0E0,0E0],"parents":[2147483647,0,0,1,1,2,2,3,3,4,4,5,5,6,6,7,7,8,8,9,9,10,10,12,12,13,13,14,14],"right_children":[2,4,6,8,10,12,14,16,18,20,22,-1,24,26,28,-1,-1,-1,-1,-1,-1,-1,-1,-1,-1,-1,-1,-1,-1],"split_conditions":[1E0,1E0,-3.6933145E-1,-9.966836E-1,-1.9745992E-2,-1.3631781E0,2E0,3.4909195E-1,1.024377E0,7.7550054E-1,1E0,-1E-1,1E0,-2.5848603E-1,-2.5848603E-1,3.3702232E-2,8.442683E-2,-5.2420347E-4,5.5949908E-2,-1.698794E-2,6.1591394E-2,-9.2615865E-2,3.2023524E-3,-7.8016646E-2,-0E0,6.692116E-2,-2.6097286E-2,-9.948206E-2,-3.746396E-2],"split_indices":[14,8,16,29,29,16,14,16,16,16,1,0,25,30,30,0,0,0,0,0,0,0,0,0,0,0,0,0,0],"split_type":[0,0,0,0,0,0,0,0,0,0,0,0,0,0,0,0,0,0,0,0,0,0,0,0,0,0,0,0,0],"sum_hessian":[9.084715E2,6.4367224E2,2.647993E2,4.6323624E2,1.80436E2,7.825002E1,1.8654924E2,1.8588373E2,2.773525E2,1.4234534E2,3.809067E1,4.1077145E1,3.717288E1,1.07239E2,7.931025E1,1.1983518E2,6.6048546E1,2.0474669E2,7.260581E1,1.2096285E2,2.1382477E1,2.3751184E1,1.4339485E1,2.8390581E1,8.782299E0,1.5239944E1,9.1999054E1,2.556281E1,5.3747437E1],"tree_param":{"num_deleted":"0","num_feature":"37","num_nodes":"29","size_leaf_vector":"1"}},{"base_weights":[-2.0985346E-2,-5.048737E-1,1.6473363E-1,-8.9479405E-1,-3.0780575E-1,-9.149088E-2,3.3897394E-1,-9.949003E-1,-8.879907E-2,1.8359196E-1,-3.9178175E-1,-1.9082016E-1,5.4627633E-1,7.198537E-2,5.4852265E-1,-4.7396787E-2,-1E-1,8.7979715E-3,-3.8898658E-2,-6.1364854E-3,8.602708E-2,9.936608E-3,-4.522217E-2,-7.3906355E-2,-8.099552E-3,7.495443E-2,-2.9454185E-2,3.6160465E-2,-1.8883093E-3,-7.7428967E-3,7.19297E-2],"categories":[],"categories_nodes":[],"categories_segments":[],"categories_sizes":[],"default_left":[0,0,0,0,0,0,0,0,0,0,0,0,0,0,0,0,0,0,0,0,0,0,0,0,0,0,0,0,0,0,0],"id":18,"left_children":[1,3,5,7,9,11,13,15,17,19,21,23,25,27,29,-1,-1,-1,-1,-1,-1,-1,-1,-1,-1,-1,-1,-1,-1,-1,-1],"loss_changes":[8.2026695E1,1.8819595E1,2.9641563E1,5.6559067E0,7.9245625E0,1.7638626E1,2.1500229E1,2.6113892E-1,1.7959938E0,6.443946E0,5.1564426E0,1.405426E1,7.7456074E0,5.5646887E0,2.4154785E1,0E0,0E0,0E0,0E0,0E0,0E0,0E0,0E0,0E0,0E0,0E0,0E0,0E0,0E0,0E0,0E0],"parents":[2147483647,0,0,1,1,2,2,3,3,4,4,5,5,6,6,7,7,8,8,9,9,10,10,11,11,12,12,13,13,14,14],"right_children":[2,4,6,8,10,12,14,16,18,20,22,24,26,28,30,-1,-1,-1,-1,-1,-1,-1,-1,-1,-1,-1,-1,-1,-1,-1,-1],"split_conditions":[-4.187261E-1,-4.6434733E-1,3E0,7.185496E-1,2E0,1.1095767E0,1E0,6.1665505E-2,-2.4521889E-1,1E0,1E0,-3.770561E-1,1.6859877E0,-1.2562989E0,7.185496E-1,-4.7396787E-2,-1E-1,8.7979715E-3,-3.8898658E-2,-6.1364854E-3,8.602708E-2,9.936608E-3,-4.522217E-2,-7.3906355E-2,-8.099552E-3,7.495443E-2,-2.9454185E-2,3.6160465E-2,-1.8883093E-3,-7.7428967E-3,7.19297E-2],"split_indices":[22,22,34,32,36,33,6,29,28,12,5,22,33,23,32,0,0,0,0,0,0,0,0,0,0,0,0,0,0,0,0],"split_type":[0,0,0,0,0,0,0,0,0,0,0,0,0,0,0,0,0,0,0,0,0,0,0,0,0,0,0,0,0,0,0],"sum_hessian":[8.90683E2,2.475756E2,6.431074E2,7.903694E1,1.6853865E2,2.5837357E2,3.8473383E2,6.878433E1,1.025261E1,2.2514013E1,1.4602464E2,2.261252E2,3.224838E1,1.7245984E2,2.12274E2,9.943431E0,5.8840904E1,5.245908E0,5.0067024E0,1.6780367E1,5.7336464E0,1.4046485E1,1.3197816E2,3.4305935E1,1.9181926E2,2.7102716E1,5.145661E0,4.239213E1,1.300677E2,4.447909E1,1.677949E2],"tree_param":{"num_deleted":"0","num_feature":"37","num_nodes":"31","size_leaf_vector":"1"}},{"base_weights":[-1.6187748E-2,1.0175244E-1,-7.930484E-1,-2.089421E-1,2.4876888E-1,-9.180192E-1,-5.68393E-1,-5.6269765E-1,-1.1556787E-1,4.5500794E-1,9.521042E-2,-1.9739844E-2,-9.732241E-2,-7.329613E-1,2.9267475E-2,-0E0,-1E-1,8.3385825E-2,-1.9171031E-2,2.6419897E-2,6.1948724E-2,-1.639584E-2,2.0316347E-2,-8.572116E-2,-0E0],"categories":[],"categories_nodes":[],"categories_segments":[],"categories_sizes":[],"default_left":[0,0,0,0,0,0,0,0,0,0,0,0,0,0,0,0,0,0,0,0,0,0,0,0,0],"id":19,"left_children":[1,3,5,7,9,11,13,15,17,19,21,-1,-1,23,-1,-1,-1,-1,-1,-1,-1,-1,-1,-1,-1],"loss_changes":[8.4458405E1,3.631161E1,2.2002106E0,8.329637E0,1.675106E1,1.7514153E0,8.965271E0,1.21550865E1,1.6038475E1,6.6415863E0,9.297953E0,0E0,0E0,3.965891E0,0E0,0E0,0E0,0E0,0E0,0E0,0E0,0E0,0E0,0E0,0E0],"parents":[2147483647,0,0,1,1,2,2,3,3,4,4,5,5,6,6,7,7,8,8,9,9,10,10,13,13],"right_children":[2,4,6,8,10,12,14,16,18,20,22,-1,-1,24,-1,-1,-1,-1,-1,-1,-1,-1,-1,-1,-1],"split_conditions":[2E0,-3.834577E-1,1.1509709E0,-4.573976E-1,3E0,-4.8333687E-1,-4.195494E-1,-3.8486722E-1,-4.5054802E-1,1E0,2E0,-1.9739844E-2,-9.732241E-2,1E0,2.9267475E-2,-0E0,-1E-1,8.3385825E-2,-1.9171031E-2,2.6419897E-2,6.1948724E-2,-1.639584E-2,2.0316347E-2,-8.572116E-2,-0E0],"split_indices":[14,22,17,22,36,28,22,28,22,6,15,0,0,1,0,0,0,0,0,0,0,0,0,0,0],"split_type":[0,0,0,0,0,0,0,0,0,0,0,0,0,0,0,0,0,0,0,0,0,0,0,0,0],"sum_hessian":[8.9131726E2,7.7422766E2,1.1708964E2,2.46226E2,5.2800165E2,6.841047E1,4.867917E1,4.7083675E1,1.9914233E2,2.2089153E2,3.071101E2,6.8079715E0,6.1602497E1,4.2093174E1,6.585995E0,2.2409767E1,2.4673908E1,1.2332429E1,1.868099E2,1.0748862E2,1.13402916E2,8.727746E1,2.1983264E2,3.529618E1,6.7969937E0],"tree_param":{"num_deleted":"0","num_feature":"37","num_nodes":"25","size_leaf_vector":"1"}},{"base_weights":[-2.2183813E-2,-2.8560954E-1,2.4963513E-1,-5.18006E-1,-1.7364502E-2,1.8087019E-1,8.1406766E-1,-6.1739E-1,-2.6928413E-1,-4.192941E-1,2.0495446E-1,-5.5545447E-3,3.9935416E-1,8.734975E-2,2.5165841E-2,-4.7614623E-2,-9.3882084E-2,2.7911011E-2,-4.8771065E-2,-7.181764E-2,-3.7283965E-3,-5.7708498E-2,2.7180046E-2,-1.3921796E-2,1.908333E-2,-1.4871922E-2,4.921647E-2],"categories":[],"categories_nodes":[],"categories_segments":[],"categories_sizes":[],"default_left":[0,0,0,0,0,0,0,0,0,0,0,0,0,0,0,0,0,0,0,0,0,0,0,0,0,0,0],"id":20,"left_children":[1,3,5,7,9,11,13,15,17,19,21,23,25,-1,-1,-1,-1,-1,-1,-1,-1,-1,-1,-1,-1,-1,-1],"loss_changes":[6.3671238E1,2.7739155E1,1.6834677E1,5.37191E0,2.04562E1,1.6575037E1,5.410652E-1,6.7673264E0,1.0343482E1,8.701883E0,8.385488E0,6.107118E0,1.0143751E1,0E0,0E0,0E0,0E0,0E0,0E0,0E0,0E0,0E0,0E0,0E0,0E0,0E0,0E0],"parents":[2147483647,0,0,1,1,2,2,3,3,4,4,5,5,6,6,7,7,8,8,9,9,10,10,11,11,12,12],"right_children":[2,4,6,8,10,12,14,16,18,20,22,24,26,-1,-1,-1,-1,-1,-1,-1,-1,-1,-1,-1,-1,-1,-1],"split_conditions":[7.185496E-1,5.664442E-1,3.663792E0,-3.7252373E-1,9.63588E-2,1E0,-1.6142975E-1,3E0,-3.3547464E-1,1E0,-8.4359914E-1,1E0,-4.0824988E-1,8.734975E-2,2.5165841E-2,-4.7614623E-2,-9.3882084E-2,2.7911011E-2,-4.8771065E-2,-7.181764E-2,-3.7283965E-3,-5.7708498E-2,2.7180046E-2,-1.3921796E-2,1.908333E-2,-1.4871922E-2,4.921647E-2],"split_indices":[32,16,22,22,30,6,28,15,22,35,32,35,22,0,0,0,0,0,0,0,0,0,0,0,0,0,0],"split_type":[0,0,0,0,0,0,0,0,0,0,0,0,0,0,0,0,0,0,0,0,0,0,0,0,0,0,0],"sum_hessian":[8.703877E2,4.4383493E2,4.2655276E2,2.348127E2,2.0902225E2,3.8416272E2,4.239005E1,1.6278305E2,7.2029655E1,7.541172E1,1.3361052E2,2.0587173E2,1.7829099E2,3.573011E1,6.6599393E0,1.1869821E2,4.408484E1,1.9055063E1,5.2974586E1,3.985315E1,3.5558567E1,8.14109E0,1.2546943E2,1.2587453E2,7.999721E1,2.4084652E1,1.5420633E2],"tree_param":{"num_deleted":"0","num_feature":"37","num_nodes":"27","size_leaf_vector":"1"}},{"base_weights":[-1.5813312E-2,-2.3942377E-1,2.0298E-1,-4.105724E-1,1.1975186E-1,9.8199295E-3,3.9774644E-1,-5.5011696E-1,-2.453817E-1,6.6386026E-1,2.3609439E-2,1.2233435E-1,-4.0304923E-1,4.8830533E-1,-2.223289E-1,-7.124885E-2,-2.8841078E-2,-2.5766883E-3,-4.7123548E-2,1.5433745E-2,8.448752E-2,-5.497423E-2,1.0722469E-2,3.548002E-2,-1.5265078E-3,1.903217E-2,-7.39054E-2,5.7593893E-2,1.7852265E-2,2.3752803E-2,-5.0009575E-2],"categories":[],"categories_nodes":[],"categories_segments":[],"categories_sizes":[],"default_left":[0,0,0,0,0,0,0,0,0,0,0,0,0,0,0,0,0,0,0,0,0,0,0,0,0,0,0,0,0,0,0],"id":21,"left_children":[1,3,5,7,9,11,13,15,17,19,21,23,25,27,29,-1,-1,-1,-1,-1,-1,-1,-1,-1,-1,-1,-1,-1,-1,-1,-1],"loss_changes":[4.3104847E1,2.7338348E1,1.6319397E1,6.454792E0,7.6403217E0,1.1185027E1,1.3094654E1,6.0273933E0,6.9751806E0,1.172348E0,6.742404E0,6.5487757E0,1.1096319E1,4.6835136E0,5.000916E0,0E0,0E0,0E0,0E0,0E0,0E0,0E0,0E0,0E0,0E0,0E0,0E0,0E0,0E0,0E0,0E0],"parents":[2147483647,0,0,1,1,2,2,3,3,4,4,5,5,6,6,7,7,8,8,9,9,10,10,11,11,12,12,13,13,14,14],"right_children":[2,4,6,8,10,12,14,16,18,20,22,24,26,28,30,-1,-1,-1,-1,-1,-1,-1,-1,-1,-1,-1,-1,-1,-1,-1,-1],"split_conditions":[7.185496E-1,9.463955E-1,2.9599833E-1,2E0,-2.6091778E-1,-2.4521889E-1,1E0,7.9386455E-1,1E0,1.1222683E0,-8.4359914E-1,-1.2770787E0,1E0,-3.287454E-1,-6.7563987E-1,-7.124885E-2,-2.8841078E-2,-2.5766883E-3,-4.7123548E-2,1.5433745E-2,8.448752E-2,-5.497423E-2,1.0722469E-2,3.548002E-2,-1.5265078E-3,1.903217E-2,-7.39054E-2,5.7593893E-2,1.7852265E-2,2.3752803E-2,-5.0009575E-2],"split_indices":[32,16,16,34,23,28,3,28,35,16,32,23,5,23,17,0,0,0,0,0,0,0,0,0,0,0,0,0,0,0,0],"split_type":[0,0,0,0,0,0,0,0,0,0,0,0,0,0,0,0,0,0,0,0,0,0,0,0,0,0,0,0,0,0,0],"sum_hessian":[8.588785E2,4.269304E2,4.3194812E2,2.9084128E2,1.3608908E2,2.2050096E2,2.1144716E2,1.5185123E2,1.3899007E2,1.7100328E1,1.1898876E2,1.7628856E2,4.42124E1,1.8627966E2,2.5167494E1,8.92262E1,6.2625023E1,7.384285E1,6.514722E1,6.902041E0,1.0198287E1,1.220308E1,1.0678568E2,6.707683E1,1.0921174E2,1.5221985E1,2.8990416E1,1.4134776E2,4.4931896E1,8.230718E0,1.6936775E1],"tree_param":{"num_deleted":"0","num_feature":"37","num_nodes":"31","size_leaf_vector":"1"}},{"base_weights":[6.1534205E-3,-2.3611686E-1,2.52567E-1,-4.6812665E-1,-1.3655728E-3,7.28734E-2,4.637445E-1,-3.6339942E-1,-7.836513E-1,-3.0357605E-1,1.3259324E-1,3.0234912E-1,-3.196856E-2,6.1651725E-1,3.3646394E-2,-1.3958804E-2,-5.7501603E-2,-9.2262864E-2,-2.9643396E-2,9.73032E-3,-5.2970793E-2,4.624353E-2,-1.1147796E-2,5.025473E-2,-0E0,-5.628368E-2,7.6282644E-3,5.0446577E-2,8.917206E-2,2.1729654E-2,-5.522998E-2],"categories":[],"categories_nodes":[],"categories_segments":[],"categories_sizes":[],"default_left":[0,0,0,0,0,0,0,0,0,0,0,0,0,0,0,0,0,0,0,0,0,0,0,0,0,0,0,0,0,0,0],"id":22,"left_children":[1,3,5,7,9,11,13,15,17,19,21,23,25,27,29,-1,-1,-1,-1,-1,-1,-1,-1,-1,-1,-1,-1,-1,-1,-1,-1],"loss_changes":[5.1856403E1,2.3289928E1,1.6072754E1,6.678055E0,9.895431E0,6.4490967E0,1.2311798E1,7.6890965E0,2.4198837E0,7.479584E0,1.3353751E1,5.0434666E0,1.09601E1,3.5809898E0,7.2108593E0,0E0,0E0,0E0,0E0,0E0,0E0,0E0,0E0,0E0,0E0,0E0,0E0,0E0,0E0,0E0,0E0],"parents":[2147483647,0,0,1,1,2,2,3,3,4,4,5,5,6,6,7,7,8,8,9,9,10,10,11,11,12,12,13,13,14,14],"right_children":[2,4,6,8,10,12,14,16,18,20,22,24,26,28,30,-1,-1,-1,-1,-1,-1,-1,-1,-1,-1,-1,-1,-1,-1,-1,-1],"split_conditions":[7.185496E-1,2E0,1E0,8.5595405E-1,2E0,-1.2562989E0,-1.6712207E-1,1E0,2E0,1E0,1E0,1E0,-1.2010857E0,8.435266E-1,1E0,-1.3958804E-2,-5.7501603E-2,-9.2262864E-2,-2.9643396E-2,9.73032E-3,-5.2970793E-2,4.624353E-2,-1.1147796E-2,5.025473E-2,-0E0,-5.628368E-2,7.6282644E-3,5.0446577E-2,8.917206E-2,2.1729654E-2,-5.522998E-2],"split_indices":[32,13,6,23,21,23,23,0,12,12,9,11,23,16,8,0,0,0,0,0,0,0,0,0,0,0,0,0,0,0,0],"split_type":[0,0,0,0,0,0,0,0,0,0,0,0,0,0,0,0,0,0,0,0,0,0,0,0,0,0,0,0,0,0,0],"sum_hessian":[8.4819653E2,4.2568982E2,4.225067E2,2.1095264E2,2.1473718E2,2.3228122E2,1.9022551E2,1.6399356E2,4.6959072E1,6.746625E1,1.4727095E2,7.465296E1,1.5762825E2,1.3801135E2,5.221416E1,8.3610085E1,8.0383484E1,3.3549393E1,1.3409681E1,2.3147793E1,4.431845E1,6.361217E1,8.3658775E1,4.4129974E1,3.0522985E1,2.6840488E1,1.3078777E2,1.0468695E2,3.3324406E1,4.201162E1,1.0202541E1],"tree_param":{"num_deleted":"0","num_feature":"37","num_nodes":"31","size_leaf_vector":"1"}},{"base_weights":[-4.522189E-3,1.3793042E-1,-2.2965832E-1,5.1751345E-1,5.543947E-2,-3.8606688E-1,6.001643E-2,7.6546E-2,7.5253403E-1,8.073883E-2,-5.775131E-1,-7.669653E-1,-2.3962298E-1,-1.108612E-1,3.10082E-1,-2.1290885E-2,4.1626524E-2,8.34744E-2,2.6237906E-3,-1.686477E-2,1.4530438E-2,-5.6513925E-3,-7.333945E-2,-8.94471E-2,-0E0,-1.5734311E-2,-6.256158E-2,1.7770145E-2,-3.5395715E-2,-1.467178E-2,6.0479593E-2],"categories":[],"categories_nodes":[],"categories_segments":[],"categories_sizes":[],"default_left":[0,0,0,0,0,0,0,0,0,0,0,0,0,0,0,0,0,0,0,0,0,0,0,0,0,0,0,0,0,0,0],"id":23,"left_children":[1,3,5,7,9,11,13,15,17,19,21,23,25,27,29,-1,-1,-1,-1,-1,-1,-1,-1,-1,-1,-1,-1,-1,-1,-1,-1],"loss_changes":[2.7771158E1,1.6273073E1,1.5684044E1,8.903372E0,7.6084023E0,1.1902157E1,5.8881755E0,4.893251E0,2.677124E0,7.125676E0,7.752514E-1,5.155304E0,5.2089863E0,5.8573895E0,8.173819E0,0E0,0E0,0E0,0E0,0E0,0E0,0E0,0E0,0E0,0E0,0E0,0E0,0E0,0E0,0E0,0E0],"parents":[2147483647,0,0,1,1,2,2,3,3,4,4,5,5,6,6,7,7,8,8,9,9,10,10,11,11,12,12,13,13,14,14],"right_children":[2,4,6,8,10,12,14,16,18,20,22,24,26,28,30,-1,-1,-1,-1,-1,-1,-1,-1,-1,-1,-1,-1,-1,-1,-1,-1],"split_conditions":[1E0,-9.601943E-1,7.185496E-1,1E0,1.5171242E0,-5.220064E-1,-8.919407E-1,-9.8740715E-1,1E0,1E0,1.9256305E0,2E0,3E0,-9.941346E-1,-5.867259E-2,-2.1290885E-2,4.1626524E-2,8.34744E-2,2.6237906E-3,-1.686477E-2,1.4530438E-2,-5.6513925E-3,-7.333945E-2,-8.94471E-2,-0E0,-1.5734311E-2,-6.256158E-2,1.7770145E-2,-3.5395715E-2,-1.467178E-2,6.0479593E-2],"split_indices":[11,17,32,21,23,30,17,33,9,21,17,34,34,17,30,0,0,0,0,0,0,0,0,0,0,0,0,0,0,0,0],"split_type":[0,0,0,0,0,0,0,0,0,0,0,0,0,0,0,0,0,0,0,0,0,0,0,0,0,0,0,0,0,0,0],"sum_hessian":[8.364443E2,5.1004892E2,3.2639536E2,8.700854E1,4.2304037E2,2.1376212E2,1.1263325E2,3.2651363E1,5.4357174E1,4.0997818E2,1.3062207E1,5.5112427E1,1.586497E2,6.519669E1,4.743655E1,1.6443647E1,1.6207716E1,4.7324947E1,7.0322247E0,8.0465485E1,3.295127E2,5.113081E0,7.9491262E0,4.6115105E1,8.99732E0,1.3522957E2,2.3420128E1,2.817568E1,3.7021015E1,1.766595E1,2.9770601E1],"tree_param":{"num_deleted":"0","num_feature":"37","num_nodes":"31","size_leaf_vector":"1"}},{"base_weights":[-2.1520881E-2,1.465223E-1,-2.1084188E-1,1.9781996E-2,4.140086E-1,-7.417231E-1,-5.6231398E-2,-1E-1,5.0335497E-2,1.1656375E-1,5.0561565E-1,-4.254777E-1,-9.4949216E-1,3.912892E-1,-1.24172874E-1,-1.082341E-3,5.0005175E-2,-2.4528567E-2,3.4886435E-2,6.6049E-2,2.6769955E-2,-6.6549964E-2,3.0465672E-2,-2.3822274E-2,-1E-1,5.2101064E-2,-2.191318E-2,-6.6957856E-3,-8.180005E-2],"categories":[],"categories_nodes":[],"categories_segments":[],"categories_sizes":[],"default_left":[0,0,0,0,0,0,0,0,0,0,0,0,0,0,0,0,0,0,0,0,0,0,0,0,0,0,0,0,0],"id":24,"left_children":[1,3,5,7,9,11,13,-1,15,17,19,21,23,25,27,-1,-1,-1,-1,-1,-1,-1,-1,-1,-1,-1,-1,-1,-1],"loss_changes":[2.7627668E1,1.5215681E1,3.3139404E1,1.1041962E1,3.503994E0,4.9074593E0,1.0281835E1,0E0,9.696094E0,4.444806E0,3.4039001E0,8.984096E0,1.7723618E0,4.3849273E0,1.1470575E1,0E0,0E0,0E0,0E0,0E0,0E0,0E0,0E0,0E0,0E0,0E0,0E0,0E0,0E0],"parents":[2147483647,0,0,1,1,2,2,3,3,4,4,5,5,6,6,8,8,9,9,10,10,11,11,12,12,13,13,14,14],"right_children":[2,4,6,8,10,12,14,-1,16,18,20,22,24,26,28,-1,-1,-1,-1,-1,-1,-1,-1,-1,-1,-1,-1,-1,-1],"split_conditions":[-3.8609758E-1,4.3371004E-1,-6.4451545E-2,-1.512504E0,7.185496E-1,1E0,1.1661401E-1,-1E-1,2.2806983E0,1E0,1E0,1E0,-7.2461194E-1,1.0354599E0,3E0,-1.082341E-3,5.0005175E-2,-2.4528567E-2,3.4886435E-2,6.6049E-2,2.6769955E-2,-6.6549964E-2,3.0465672E-2,-2.3822274E-2,-1E-1,5.2101064E-2,-2.191318E-2,-6.6957856E-3,-8.180005E-2],"split_indices":[4,16,33,16,32,13,33,0,32,13,35,25,33,30,15,0,0,0,0,0,0,0,0,0,0,0,0,0,0],"split_type":[0,0,0,0,0,0,0,0,0,0,0,0,0,0,0,0,0,0,0,0,0,0,0,0,0,0,0,0,0],"sum_hessian":[8.413327E2,4.431545E2,3.981782E2,3.0467828E2,1.3847621E2,8.6636055E1,3.1154214E2,5.816097E0,2.988622E2,3.6246433E1,1.02229774E2,3.8676E1,4.7960056E1,3.7868816E1,2.7367334E2,2.6284497E2,3.6017216E1,1.2444834E1,2.38016E1,5.7223797E1,4.5005974E1,3.0271357E1,8.404643E0,7.1716456E0,4.078841E1,3.2824413E1,5.0444036E0,2.561821E2,1.7491222E1],"tree_param":{"num_deleted":"0","num_feature":"37","num_nodes":"29","size_leaf_vector":"1"}},{"base_weights":[-1.7089223E-2,8.065882E-2,-8.03669E-1,2.0027988E-1,-1.691479E-1,-9.574153E-1,-4.170161E-1,1.6439338E-1,8.537137E-2,-6.013114E-1,-4.858122E-2,-3.935347E-1,-1E-1,-0E0,-7.569209E-1,1.8710995E-2,-4.3743618E-2,4.4839066E-3,-7.838408E-2,-1.2916571E-2,4.4300474E-2,-8.395695E-2,2.01449E-2,-1.8642338E-2,2.2163518E-2,-1.7188346E-2,-9.7935535E-2],"categories":[],"categories_nodes":[],"categories_segments":[],"categories_sizes":[],"default_left":[0,0,0,0,0,0,0,0,0,0,0,0,0,0,0,0,0,0,0,0,0,0,0,0,0,0,0],"id":25,"left_children":[1,3,5,7,9,11,13,15,-1,17,19,21,-1,23,25,-1,-1,-1,-1,-1,-1,-1,-1,-1,-1,-1,-1],"loss_changes":[6.613483E1,2.2664925E1,4.4775124E0,1.2089663E1,1.2583359E1,2.271881E0,4.8862734E0,7.3827686E0,0E0,7.1179237E0,8.33524E0,6.249741E0,0E0,1.5782164E0,1.5106297E0,0E0,0E0,0E0,0E0,0E0,0E0,0E0,0E0,0E0,0E0,0E0,0E0],"parents":[2147483647,0,0,1,1,2,2,3,3,4,4,5,5,6,6,7,7,9,9,10,10,11,11,13,13,14,14],"right_children":[2,4,6,8,10,12,14,16,-1,18,20,22,-1,24,26,-1,-1,-1,-1,-1,-1,-1,-1,-1,-1,-1,-1],"split_conditions":[2E0,1E0,9.59669E-1,3.8285513E0,-4.2646283E-1,1E0,1E0,1.3370557E0,8.537137E-2,-1.4975716E0,1.3031185E0,1.3090785E0,-1E-1,-4.24683E-1,-4.3163553E-1,1.8710995E-2,-4.3743618E-2,4.4839066E-3,-7.838408E-2,-1.2916571E-2,4.4300474E-2,-8.395695E-2,2.01449E-2,-1.8642338E-2,2.2163518E-2,-1.7188346E-2,-9.7935535E-2],"split_indices":[14,11,16,22,22,9,20,23,0,16,16,23,0,22,22,0,0,0,0,0,0,0,0,0,0,0,0],"split_type":[0,0,0,0,0,0,0,0,0,0,0,0,0,0,0,0,0,0,0,0,0,0,0,0,0,0,0],"sum_hessian":[8.245115E2,7.338409E2,9.0670616E1,4.9919754E2,2.3464334E2,6.091152E1,2.97591E1,4.7703253E2,2.2165018E1,4.763387E1,1.8700946E2,1.2991111E1,4.7920406E1,1.4777162E1,1.4981938E1,4.626107E2,1.442183E1,9.617662E0,3.801621E1,1.6368561E2,2.3323856E1,7.9156394E0,5.075471E0,9.154653E0,5.622509E0,6.342184E0,8.639754E0],"tree_param":{"num_deleted":"0","num_feature":"37","num_nodes":"27","size_leaf_vector":"1"}},{"base_weights":[-1.4303412E-2,4.8482645E-2,-5.1235455E-1,2.937448E-2,8.861374E-2,-7.775403E-1,-2.824165E-1,2.2465348E-1,-4.58712E-2,-0E0,-8.800535E-2,-3.5283953E-2,-7.923427E-2,9.581491E-3,4.7522046E-2,7.24794E-4,-3.4544896E-2,-2.62295E-2,2.5254551E-2],"categories":[],"categories_nodes":[],"categories_segments":[],"categories_sizes":[],"default_left":[0,0,0,0,0,0,0,0,0,0,0,0,0,0,0,0,0,0,0],"id":26,"left_children":[1,3,5,7,-1,9,11,13,15,-1,-1,17,-1,-1,-1,-1,-1,-1,-1],"loss_changes":[2.7237505E1,1.2417773E1,5.3105145E0,1.1186823E1,0E0,3.1391659E0,7.18258E0,6.580554E0,9.136932E0,0E0,0E0,3.7606118E0,0E0,0E0,0E0,0E0,0E0,0E0,0E0],"parents":[2147483647,0,0,1,1,2,2,3,3,5,5,6,6,7,7,8,8,11,11],"right_children":[2,4,6,8,-1,10,12,14,16,-1,-1,18,-1,-1,-1,-1,-1,-1,-1],"split_conditions":[2E0,1.6174506E0,7.0801395E-1,-1.0780951E0,8.861374E-2,-4.6207637E-1,1.4849623E0,1E0,3E0,-0E0,-8.800535E-2,1.0512354E0,-7.923427E-2,9.581491E-3,4.7522046E-2,7.24794E-4,-3.4544896E-2,-2.62295E-2,2.5254551E-2],"split_indices":[14,28,17,4,0,28,28,6,15,0,0,28,0,0,0,0,0,0,0],"split_type":[0,0,0,0,0,0,0,0,0,0,0,0,0,0,0,0,0,0,0],"sum_hessian":[8.1764624E2,7.259304E2,9.171583E1,7.1293134E2,1.2999094E1,3.8361626E1,5.33542E1,2.0089178E2,5.1203955E2,5.066931E0,3.3294697E1,3.8698612E1,1.4655583E1,1.3713455E2,6.3757225E1,4.3374442E2,7.82951E1,2.3676594E1,1.502202E1],"tree_param":{"num_deleted":"0","num_feature":"37","num_nodes":"19","size_leaf_vector":"1"}},{"base_weights":[-3.5787996E-2,-5.9532803E-1,1.477942E-2,-7.3964244E-1,4.1307297E-2,-5.986245E-2,2.4598424E-1,-0E0,-8.227433E-1,5.014527E-2,-2.5290871E-2,-6.189806E-1,-1.7713167E-2,1.176678E-1,6.1936617E-1,-8.871938E-2,-8.984385E-3,-1.2791066E-2,-9.993067E-2,2.343627E-3,-3.6437042E-2,4.07761E-2,-1.5755583E-3,8.056274E-2,3.362488E-2],"categories":[],"categories_nodes":[],"categories_segments":[],"categories_sizes":[],"default_left":[0,0,0,0,0,0,0,0,0,0,0,0,0,0,0,0,0,0,0,0,0,0,0,0,0],"id":27,"left_children":[1,3,5,7,9,11,13,-1,15,-1,-1,17,19,21,23,-1,-1,-1,-1,-1,-1,-1,-1,-1,-1],"loss_changes":[2.447865E1,7.403555E0,1.3518714E1,3.6569824E0,3.7194862E0,1.3587839E1,8.893703E0,0E0,1.5934639E0,0E0,0E0,6.5857725E0,8.520806E0,6.476769E0,1.7072201E0,0E0,0E0,0E0,0E0,0E0,0E0,0E0,0E0,0E0,0E0],"parents":[2147483647,0,0,1,1,2,2,3,3,4,4,5,5,6,6,8,8,11,11,12,12,13,13,14,14],"right_children":[2,4,6,8,10,12,14,-1,16,-1,-1,18,20,22,24,-1,-1,-1,-1,-1,-1,-1,-1,-1,-1],"split_conditions":[-4.585037E-1,7.185496E-1,1.8452007E-1,-1.1878886E0,-3.8486722E-1,-9.2259014E-1,2E0,-0E0,-7.363659E-2,5.014527E-2,-2.5290871E-2,1E0,2E0,-1.376179E0,1E0,-8.871938E-2,-8.984385E-3,-1.2791066E-2,-9.993067E-2,2.343627E-3,-3.6437042E-2,4.07761E-2,-1.5755583E-3,8.056274E-2,3.362488E-2],"split_indices":[22,32,22,28,28,17,13,0,30,0,0,0,14,28,0,0,0,0,0,0,0,0,0,0,0],"split_type":[0,0,0,0,0,0,0,0,0,0,0,0,0,0,0,0,0,0,0,0,0,0,0,0,0],"sum_hessian":[8.014022E2,6.627573E1,7.351265E2,5.5045105E1,1.1230626E1,5.5356976E2,1.8155675E2,5.7846975E0,4.9260406E1,5.156357E0,6.074269E0,3.522377E1,5.18346E2,1.3907182E2,4.2484924E1,4.363747E1,5.622937E0,1.76877E1,1.753607E1,4.624336E2,5.59124E1,4.4878426E1,9.4193405E1,2.1268972E1,2.1215954E1],"tree_param":{"num_deleted":"0","num_feature":"37","num_nodes":"25","size_leaf_vector":"1"}},{"base_weights":[-2.377956E-2,-4.724113E-1,9.283574E-2,-3.0494037E-1,-7.343428E-1,-5.7815954E-2,2.0708142E-1,-5.1637006E-1,2.0119151E-1,-4.8249203E-1,-9.4061404E-1,-1.4499524E-1,4.6047357E-1,-0E0,3.4586853E-1,-2.5343899E-2,-8.7800644E-2,8.689342E-2,-0E0,-7.016536E-2,1.4216055E-2,-3.0985544E-2,-1E-1,-9.043433E-3,-9.7213745E-2,6.915351E-2,-2.5839586E-2,7.113691E-3,-8.722743E-2,-4.5722625E-3,4.5326233E-2],"categories":[],"categories_nodes":[],"categories_segments":[],"categories_sizes":[],"default_left":[0,0,0,0,0,0,0,0,0,0,0,0,0,0,0,0,0,0,0,0,0,0,0,0,0,0,0,0,0,0,0],"id":28,"left_children":[1,3,5,7,9,11,13,15,17,19,21,23,25,27,29,-1,-1,-1,-1,-1,-1,-1,-1,-1,-1,-1,-1,-1,-1,-1,-1],"loss_changes":[4.3899975E1,7.064312E0,1.1573505E1,1.3001573E1,2.2780876E0,1.3331549E1,1.116025E1,7.143156E0,5.6086235E0,6.1766996E0,2.4854279E-1,1.1357254E1,8.147769E0,1.1807197E1,1.0152117E1,0E0,0E0,0E0,0E0,0E0,0E0,0E0,0E0,0E0,0E0,0E0,0E0,0E0,0E0,0E0,0E0],"parents":[2147483647,0,0,1,1,2,2,3,3,4,4,5,5,6,6,7,7,8,8,9,9,10,10,11,11,12,12,13,13,14,14],"right_children":[2,4,6,8,10,12,14,16,18,20,22,24,26,28,30,-1,-1,-1,-1,-1,-1,-1,-1,-1,-1,-1,-1,-1,-1,-1,-1],"split_conditions":[-4.273951E-1,2E0,3E0,7.216864E-1,9.5478314E-1,1.3669934E0,-2.5195682E-1,-2.4521889E-1,8.3137935E-1,7.4239033E-1,-4.786265E-1,2E0,1E0,3E0,1E0,-2.5343899E-2,-8.7800644E-2,8.689342E-2,-0E0,-7.016536E-2,1.4216055E-2,-3.0985544E-2,-1E-1,-9.043433E-3,-9.7213745E-2,6.915351E-2,-2.5839586E-2,7.113691E-3,-8.722743E-2,-4.5722625E-3,4.5326233E-2],"split_indices":[22,14,34,28,28,33,22,28,28,28,22,14,3,15,21,0,0,0,0,0,0,0,0,0,0,0,0,0,0,0,0],"split_type":[0,0,0,0,0,0,0,0,0,0,0,0,0,0,0,0,0,0,0,0,0,0,0,0,0,0,0,0,0,0,0],"sum_hessian":[8.0747845E2,1.6709995E2,6.403785E2,1.0689852E2,6.0201424E1,2.7283524E2,3.6754327E2,7.676592E1,3.0132599E1,3.2295643E1,2.7905779E1,2.3643535E2,3.6399883E1,1.460976E2,2.2144566E2,4.8019638E1,2.8746283E1,5.382065E0,2.4750534E1,2.4910173E1,7.385472E0,5.5908747E0,2.2314905E1,2.2501996E2,1.1415381E1,2.8656221E1,7.7436604E0,1.3597694E2,1.0120652E1,4.590366E1,1.75542E2],"tree_param":{"num_deleted":"0","num_feature":"37","num_nodes":"31","size_leaf_vector":"1"}},{"base_weights":[-3.3559255E-2,1.781357E-2,-4.81565E-1,9.016278E-2,-2.1393688E-1,-9.7708054E-2,-3.049923E-1,3.8738185E-1,4.4578575E-2,3.7496236E-1,-2.9298046E-1,3.3169232E-2,-6.12715E-1,9.248684E-3,6.245334E-2,-9.3508735E-3,1.9942919E-2,-1.7544752E-2,7.200315E-2,-4.2430248E-2,1.0265218E-2,-3.606905E-2,4.2738523E-2,-0E0,-8.293577E-2],"categories":[],"categories_nodes":[],"categories_segments":[],"categories_sizes":[],"default_left":[0,0,0,0,0,0,0,0,0,0,0,0,0,0,0,0,0,0,0,0,0,0,0,0,0],"id":29,"left_children":[1,3,5,7,9,-1,11,13,15,17,19,21,23,-1,-1,-1,-1,-1,-1,-1,-1,-1,-1,-1,-1],"loss_changes":[1.9587425E1,1.2364661E1,7.012245E0,7.5947747E0,8.765192E0,0E0,8.151129E0,4.6685095E0,1.0846119E1,5.447876E0,8.609266E0,6.8079395E0,5.040594E0,0E0,0E0,0E0,0E0,0E0,0E0,0E0,0E0,0E0,0E0,0E0,0E0],"parents":[2147483647,0,0,1,1,2,2,3,3,4,4,6,6,7,7,8,8,9,9,10,10,11,11,12,12],"right_children":[2,4,6,8,10,-1,12,14,16,18,20,22,24,-1,-1,-1,-1,-1,-1,-1,-1,-1,-1,-1,-1],"split_conditions":[2E0,1E0,6.7977554E-1,1E0,1E0,-9.7708054E-2,1.4188231E0,1E0,3.9886722E-1,4.8846292E-1,1.1829807E0,9.455522E-1,8.1316763E-1,9.248684E-3,6.245334E-2,-9.3508735E-3,1.9942919E-2,-1.7544752E-2,7.200315E-2,-4.2430248E-2,1.0265218E-2,-3.606905E-2,4.2738523E-2,-0E0,-8.293577E-2],"split_indices":[14,20,23,5,36,0,23,0,16,16,17,17,28,0,0,0,0,0,0,0,0,0,0,0,0],"split_type":[0,0,0,0,0,0,0,0,0,0,0,0,0,0,0,0,0,0,0,0,0,0,0,0,0],"sum_hessian":[7.876861E2,7.063745E2,8.131161E1,5.425385E2,1.6383595E2,1.749234E1,6.381927E1,6.72327E1,4.7530582E2,1.7004963E1,1.46831E2,2.9707716E1,3.4111553E1,3.3086605E1,3.414609E1,2.4825766E2,2.2704817E2,5.814912E0,1.1190051E1,1.1202821E2,3.4802773E1,1.3676741E1,1.6030973E1,9.703599E0,2.4407955E1],"tree_param":{"num_deleted":"0","num_feature":"37","num_nodes":"25","size_leaf_vector":"1"}},{"base_weights":[-1.45977335E-2,-1.7788228E-1,1.4368449E-1,-7.4876946E-1,-1.0399716E-1,9.651386E-2,4.9443516E-1,-8.863464E-1,-0E0,-6.888906E-2,-5.3070664E-1,1.4466229E-1,-2.659996E-1,6.7697085E-2,-2.9083928E-3,-4.8380837E-2,-1E-1,-1.1590688E-2,4.315097E-2,-9.3901165E-2,-0E0,1.806288E-2,-2.4916878E-2,1.7846316E-2,-6.880804E-2,1.5847739E-2,-3.1521592E-2],"categories":[],"categories_nodes":[],"categories_segments":[],"categories_sizes":[],"default_left":[0,0,0,0,0,0,0,0,0,0,0,0,0,0,0,0,0,0,0,0,0,0,0,0,0,0,0],"id":30,"left_children":[1,3,5,7,9,11,13,15,-1,17,19,21,23,-1,25,-1,-1,-1,-1,-1,-1,-1,-1,-1,-1,-1,-1],"loss_changes":[2.1169989E1,1.6954767E1,6.829261E0,4.4933014E0,5.6009245E0,6.8281565E0,5.0833616E0,6.4752007E-1,0E0,8.511916E0,5.369581E0,5.117815E0,9.500324E0,0E0,1.825833E0,0E0,0E0,0E0,0E0,0E0,0E0,0E0,0E0,0E0,0E0,0E0,0E0],"parents":[2147483647,0,0,1,1,2,2,3,3,4,4,5,5,6,6,7,7,9,9,10,10,11,11,12,12,14,14],"right_children":[2,4,6,8,10,12,14,16,-1,18,20,22,24,-1,26,-1,-1,-1,-1,-1,-1,-1,-1,-1,-1,-1,-1],"split_conditions":[7.185496E-1,-4.6434733E-1,2.3338065E0,2E0,1.5547922E0,1E0,-5.489205E-1,-4.9707735E-1,-0E0,1.364249E0,2.2591496E0,8.5786706E-1,1E0,6.7697085E-2,5.3657895E-1,-4.8380837E-2,-1E-1,-1.1590688E-2,4.315097E-2,-9.3901165E-2,-0E0,1.806288E-2,-2.4916878E-2,1.7846316E-2,-6.880804E-2,1.5847739E-2,-3.1521592E-2],"split_indices":[32,22,30,13,23,20,4,22,0,4,33,28,0,0,16,0,0,0,0,0,0,0,0,0,0,0,0],"split_type":[0,0,0,0,0,0,0,0,0,0,0,0,0,0,0,0,0,0,0,0,0,0,0,0,0,0,0],"sum_hessian":[7.9005646E2,3.91871E2,3.9818546E2,4.1260563E1,3.5061044E2,3.5574457E2,4.244088E1,3.424246E1,7.018105E0,3.2826816E2,2.2342306E1,3.1753104E2,3.8213535E1,3.1988688E1,1.0452194E1,1.2714508E1,2.152795E1,3.033046E2,2.4963562E1,1.0939112E1,1.1403194E1,2.9427805E2,2.325299E1,1.8021523E1,2.0192013E1,5.429588E0,5.022607E0],"tree_param":{"num_deleted":"0","num_feature":"37","num_nodes":"27","size_leaf_vector":"1"}},{"base_weights":[-1.3394829E-2,-2.1940511E-1,5.9971843E-2,1.293755E-3,-3.9838982E-1,1.4341571E-2,3.5112512E-1,-6.6415004E-2,9.407233E-2,-2.8186476E-1,-9.580519E-2,9.933917E-2,-3.851073E-1,6.760543E-1,5.2637935E-2,1.7103147E-2,-6.1533876E-2,-5.8484025E-2,-0E0,5.110554E-3,3.2134425E-2,-1.83666E-2,-9.573697E-2,8.9593716E-2,1.914305E-2,-4.6465527E-2,2.9676238E-2],"categories":[],"categories_nodes":[],"categories_segments":[],"categories_sizes":[],"default_left":[0,0,0,0,0,0,0,0,0,0,0,0,0,0,0,0,0,0,0,0,0,0,0,0,0,0,0],"id":31,"left_children":[1,3,5,7,9,11,13,-1,15,17,-1,19,21,23,25,-1,-1,-1,-1,-1,-1,-1,-1,-1,-1,-1,-1],"loss_changes":[1.2819244E1,9.222747E0,8.052549E0,6.961432E0,7.7826366E0,1.8173243E1,7.3909483E0,0E0,5.891703E0,9.688165E0,0E0,4.71596E0,1.0219061E1,3.114874E0,7.0481153E0,0E0,0E0,0E0,0E0,0E0,0E0,0E0,0E0,0E0,0E0,0E0,0E0],"parents":[2147483647,0,0,1,1,2,2,3,3,4,4,5,5,6,6,8,8,9,9,11,11,12,12,13,13,14,14],"right_children":[2,4,6,8,10,12,14,-1,16,18,-1,20,22,24,26,-1,-1,-1,-1,-1,-1,-1,-1,-1,-1,-1,-1],"split_conditions":[2E0,1E0,1.092403E0,-2.6860872E-1,1.5677776E0,5.079353E-1,2.8747904E-1,-6.6415004E-2,1.4574219E0,1.6658252E-1,-9.580519E-2,-8.546927E-2,2.4713247E-1,1E0,8.933145E-1,1.7103147E-2,-6.1533876E-2,-5.8484025E-2,-0E0,5.110554E-3,3.2134425E-2,-1.83666E-2,-9.573697E-2,8.9593716E-2,1.914305E-2,-4.6465527E-2,2.9676238E-2],"split_indices":[34,8,16,30,4,31,17,0,16,16,0,17,17,9,17,0,0,0,0,0,0,0,0,0,0,0,0],"split_type":[0,0,0,0,0,0,0,0,0,0,0,0,0,0,0,0,0,0,0,0,0,0,0,0,0,0,0],"sum_hessian":[7.9866815E2,2.122707E2,5.8639746E2,9.34454E1,1.1882531E2,5.1173083E2,7.466661E1,8.608277E0,8.483712E1,1.0231646E2,1.650885E1,4.252493E2,8.648153E1,3.2934475E1,4.1732132E1,7.917537E1,5.6617503E0,4.878358E1,5.353288E1,3.5507025E2,7.017906E1,6.7211754E1,1.9269777E1,2.0068233E1,1.2866242E1,1.1487482E1,3.024465E1],"tree_param":{"num_deleted":"0","num_feature":"37","num_nodes":"27","size_leaf_vector":"1"}},{"base_weights":[1.4581508E-2,1.1941848E-1,-1.615815E-1,2.5876123E-1,1.5699346E-2,-3.601437E-2,-4.272103E-1,-0E0,3.9043465E-1,-9.733833E-3,5.6556505E-1,1.5799236E-2,-8.7574266E-2,-7.084014E-1,2.55014E-2,5.0394174E-2,-1.5124715E-2,3.8975563E-3,4.956944E-2,-1.0899135E-2,2.241627E-2,8.740827E-2,-0E0,-1.9812945E-2,3.715795E-2,-0E0,-8.842482E-2,2.270983E-2,-3.7413683E-2],"categories":[],"categories_nodes":[],"categories_segments":[],"categories_sizes":[],"default_left":[0,0,0,0,0,0,0,0,0,0,0,0,0,0,0,0,0,0,0,0,0,0,0,0,0,0,0,0,0],"id":32,"left_children":[1,3,5,7,9,11,13,15,17,19,21,23,-1,25,27,-1,-1,-1,-1,-1,-1,-1,-1,-1,-1,-1,-1,-1,-1],"loss_changes":[1.5086141E1,7.2370725E0,9.827343E0,7.534439E0,5.772718E0,1.141271E1,1.2888668E1,6.749352E0,4.8697605E0,7.0701275E0,3.1590586E0,1.6015127E1,0E0,7.381403E0,4.0223713E0,0E0,0E0,0E0,0E0,0E0,0E0,0E0,0E0,0E0,0E0,0E0,0E0,0E0,0E0],"parents":[2147483647,0,0,1,1,2,2,3,3,4,4,5,5,6,6,7,7,8,8,9,9,10,10,11,11,13,13,14,14],"right_children":[2,4,6,8,10,12,14,16,18,20,22,24,-1,26,28,-1,-1,-1,-1,-1,-1,-1,-1,-1,-1,-1,-1,-1,-1],"split_conditions":[1E0,3E0,3E0,-8.983467E-1,2.5470889E0,1.6084833E0,1.6494219E-1,-1.4036022E0,3.7454978E-1,1.024377E0,-1.2482048E0,7.216864E-1,-8.7574266E-2,3E0,-2.4521889E-1,5.0394174E-2,-1.5124715E-2,3.8975563E-3,4.956944E-2,-1.0899135E-2,2.241627E-2,8.740827E-2,-0E0,-1.9812945E-2,3.715795E-2,-0E0,-8.842482E-2,2.270983E-2,-3.7413683E-2],"split_indices":[8,36,15,28,22,4,22,28,30,16,28,28,0,36,28,0,0,0,0,0,0,0,0,0,0,0,0,0,0],"split_type":[0,0,0,0,0,0,0,0,0,0,0,0,0,0,0,0,0,0,0,0,0,0,0,0,0,0,0,0,0],"sum_hessian":[7.862045E2,4.9684576E2,2.893588E2,2.0662363E2,2.9022214E2,2.0057803E2,8.878075E1,6.92895E1,1.3733414E2,2.775313E2,1.2690809E1,1.8964775E2,1.0930292E1,5.5430645E1,3.3350105E1,1.4281807E1,5.500769E1,3.4472473E1,1.02861664E2,1.9859709E2,7.8934235E1,7.477601E0,5.2132077E0,1.17232185E2,7.241556E1,1.1580128E1,4.3850517E1,2.4404856E1,8.94525E0],"tree_param":{"num_deleted":"0","num_feature":"37","num_nodes":"29","size_leaf_vector":"1"}},{"base_weights":[2.3975546E-2,8.086722E-2,-4.858353E-1,5.864875E-2,5.40458E-1,9.013936E-2,-7.1262E-1,-6.647162E-2,1.6677795E-1,6.665482E-2,2.606907E-1,-2.5690109E-2,4.9567755E-2,-8.6639225E-1,-4.652831E-2,-2.6285797E-3,-5.3005245E-2,3.3201735E-2,4.6858634E-3,-0E0,3.8029402E-2,-9.588174E-2,-3.0063593E-3,5.3481024E-2,-7.484963E-2],"categories":[],"categories_nodes":[],"categories_segments":[],"categories_sizes":[],"default_left":[0,0,0,0,0,0,0,0,0,0,0,0,0,0,0,0,0,0,0,0,0,0,0,0,0],"id":33,"left_children":[1,3,5,7,9,11,13,15,17,-1,19,-1,-1,21,23,-1,-1,-1,-1,-1,-1,-1,-1,-1,-1],"loss_changes":[2.3260788E1,7.536353E0,1.1365042E1,9.581989E0,5.5800056E-1,4.930723E0,5.1727085E0,6.157741E0,7.2681265E0,0E0,6.2129533E-1,0E0,0E0,2.6304398E0,9.1565E0,0E0,0E0,0E0,0E0,0E0,0E0,0E0,0E0,0E0,0E0],"parents":[2147483647,0,0,1,1,2,2,3,3,4,4,5,5,6,6,7,7,8,8,10,10,13,13,14,14],"right_children":[2,4,6,8,10,12,14,16,18,-1,20,-1,-1,22,24,-1,-1,-1,-1,-1,-1,-1,-1,-1,-1],"split_conditions":[2E0,3.663792E0,1E0,1E0,-5.7052994E-1,1.2828375E0,1.4325342E0,6.315458E-1,-4.268033E-1,6.665482E-2,4.950995E-1,-2.5690109E-2,4.9567755E-2,1.8730462E0,2.3840766E0,-2.6285797E-3,-5.3005245E-2,3.3201735E-2,4.6858634E-3,-0E0,3.8029402E-2,-9.588174E-2,-3.0063593E-3,5.3481024E-2,-7.484963E-2],"split_indices":[14,22,9,6,18,4,16,4,4,0,16,0,0,33,17,0,0,0,0,0,0,0,0,0,0],"split_type":[0,0,0,0,0,0,0,0,0,0,0,0,0,0,0,0,0,0,0,0,0,0,0,0,0],"sum_hessian":[7.7381464E2,6.9940924E2,7.4405396E1,6.7138293E2,2.8026293E1,2.011474E1,5.4290657E1,3.073078E2,3.6407513E2,1.4949285E1,1.3077009E1,9.90537E0,1.0209371E1,4.2399666E1,1.1890992E1,2.867235E2,2.0584303E1,1.4811208E2,2.1596307E2,5.3502645E0,7.726744E0,3.683977E1,5.559894E0,5.98564E0,5.905352E0],"tree_param":{"num_deleted":"0","num_feature":"37","num_nodes":"25","size_leaf_vector":"1"}},{"base_weights":[-7.517446E-4,4.623983E-2,-4.7530013E-1,-1E-1,6.1878365E-2,-6.8316805E-1,-1.3148357E-1,1.2187797E-1,-1.4799176E-1,-0E0,-8.261796E-1,1.22758724E-1,-6.386452E-2,-4.3595798E-4,2.331067E-2,-3.0341197E-2,1.2874759E-2,-3.283246E-2,-9.5585965E-2,-2.2625707E-2,5.633545E-2],"categories":[],"categories_nodes":[],"categories_segments":[],"categories_sizes":[],"default_left":[0,0,0,0,0,0,0,0,0,0,0,0,0,0,0,0,0,0,0,0,0],"id":34,"left_children":[1,3,5,-1,7,9,11,13,15,-1,17,19,-1,-1,-1,-1,-1,-1,-1,-1,-1],"loss_changes":[1.8738749E1,1.3304755E1,4.807863E0,0E0,9.186321E0,4.180298E0,5.9684873E0,8.126102E0,7.3532753E0,0E0,1.243721E0,5.1877756E0,0E0,0E0,0E0,0E0,0E0,0E0,0E0,0E0,0E0],"parents":[2147483647,0,0,1,1,2,2,4,4,5,5,6,6,7,7,8,8,10,10,11,11],"right_children":[2,4,6,-1,8,10,12,14,16,-1,18,20,-1,-1,-1,-1,-1,-1,-1,-1,-1],"split_conditions":[2E0,-1.5108448E0,1E0,-1E-1,1E0,1E0,1.1513146E0,1E0,-2.1797095E-1,-0E0,-4.786265E-1,7.809958E-1,-6.386452E-2,-4.3595798E-4,2.331067E-2,-3.0341197E-2,1.2874759E-2,-3.283246E-2,-9.5585965E-2,-2.2625707E-2,5.633545E-2],"split_indices":[14,16,20,0,3,13,28,6,22,0,22,28,0,0,0,0,0,0,0,0,0],"split_type":[0,0,0,0,0,0,0,0,0,0,0,0,0,0,0,0,0,0,0,0,0],"sum_hessian":[7.703915E2,7.0070306E2,6.9688416E1,7.0000477E0,6.93703E2,4.0387806E1,2.9300606E1,5.43831E2,1.4987201E2,7.699259E0,3.268855E1,1.9213125E1,1.0087481E1,2.5141832E2,2.924127E2,9.816315E1,5.170887E1,9.808313E0,2.2880234E1,9.997192E0,9.215932E0],"tree_param":{"num_deleted":"0","num_feature":"37","num_nodes":"21","size_leaf_vector":"1"}},{"base_weights":[5.530585E-4,-1.3087797E-1,1.1691956E-1,-1.8255593E-1,3.8383985E-1,4.2863004E-2,4.2014593E-1,3.917949E-1,-2.198121E-1,6.375741E-1,8.011001E-3,8.361998E-2,-1E-1,-3.0590426E-2,6.076886E-1,-3.9877547E-3,1E-1,-1.4853095E-2,-5.2834637E-2,8.070115E-2,1.4513211E-2,-6.005019E-2,5.351735E-2,1.1129331E-2,-6.524418E-2,-6.0402703E-2,5.1300555E-2,3.2081943E-2,8.5260324E-2],"categories":[],"categories_nodes":[],"categories_segments":[],"categories_sizes":[],"default_left":[0,0,0,0,0,0,0,0,0,0,0,0,0,0,0,0,0,0,0,0,0,0,0,0,0,0,0,0,0],"id":35,"left_children":[1,3,5,7,9,11,13,15,17,19,21,23,-1,25,27,-1,-1,-1,-1,-1,-1,-1,-1,-1,-1,-1,-1,-1,-1],"loss_changes":[1.2010871E1,1.0119856E1,9.263069E0,7.7312374E0,2.8060822E0,1.7255463E1,7.5090847E0,8.9650955E0,6.7779837E0,8.4290504E-1,7.975789E0,7.5131283E0,0E0,9.986653E0,3.3185196E0,0E0,0E0,0E0,0E0,0E0,0E0,0E0,0E0,0E0,0E0,0E0,0E0,0E0,0E0],"parents":[2147483647,0,0,1,1,2,2,3,3,4,4,5,5,6,6,7,7,8,8,9,9,10,10,11,11,13,13,14,14],"right_children":[2,4,6,8,10,12,14,16,18,20,22,24,-1,26,28,-1,-1,-1,-1,-1,-1,-1,-1,-1,-1,-1,-1,-1,-1],"split_conditions":[1E0,2.5470889E0,-3.8718794E-2,-8.4359914E-1,-1.2153155E0,-1.1794569E-1,3E0,8.3137935E-1,1E0,1.6658252E-1,3.573878E-1,1.9465841E0,-1E-1,-1.1602135E0,-3.129731E-2,-3.9877547E-3,1E-1,-1.4853095E-2,-5.2834637E-2,8.070115E-2,1.4513211E-2,-6.005019E-2,5.351735E-2,1.1129331E-2,-6.524418E-2,-6.0402703E-2,5.1300555E-2,3.2081943E-2,8.5260324E-2],"split_indices":[6,22,22,32,28,22,34,28,14,16,16,28,0,23,18,0,0,0,0,0,0,0,0,0,0,0,0,0,0],"split_type":[0,0,0,0,0,0,0,0,0,0,0,0,0,0,0,0,0,0,0,0,0,0,0,0,0,0,0,0,0],"sum_hessian":[7.4990326E2,3.4800424E2,4.01899E2,3.1919077E2,2.8813465E1,3.2749576E2,7.440325E1,1.6649168E1,3.0254163E2,1.4780791E1,1.4032673E1,3.1950488E2,7.990859E0,2.0786663E1,5.361659E1,1.1471652E1,5.1775155E0,2.508023E2,5.17393E1,8.535608E0,6.2451835E0,5.504055E0,8.528618E0,3.1087332E2,8.631561E0,1.0902712E1,9.88395E0,2.8701427E1,2.4915163E1],"tree_param":{"num_deleted":"0","num_feature":"37","num_nodes":"29","size_leaf_vector":"1"}},{"base_weights":[-3.7859503E-2,8.202337E-2,-1.8056643E-1,-2.209249E-2,2.0092325E-1,-5.044471E-1,-8.024118E-2,-9.400621E-2,3.7530306E-1,2.5941893E-1,-3.3675838E-1,-1.1364593E-1,-1E0,6.843081E-1,-1.6264303E-1,-2.1576325E-3,-5.1800113E-2,4.7714513E-2,-0E0,7.3503934E-2,1.9978518E-2,-1E-1,2.8519008E-2,-5.0459173E-2,3.3812698E-2,-1E-1,-0E0,-0E0,8.6738475E-2,-3.401807E-2,-5.8434666E-3],"categories":[],"categories_nodes":[],"categories_segments":[],"categories_sizes":[],"default_left":[0,0,0,0,0,0,0,0,0,0,0,0,0,0,0,0,0,0,0,0,0,0,0,0,0,0,0,0,0,0,0],"id":36,"left_children":[1,3,5,7,9,11,13,15,17,19,21,23,25,27,29,-1,-1,-1,-1,-1,-1,-1,-1,-1,-1,-1,-1,-1,-1,-1,-1],"loss_changes":[1.3639427E1,5.576065E0,1.161261E1,6.8918962E0,7.0919704E0,1.6648642E1,1.8511986E1,6.092785E0,1.0040255E0,5.247711E0,1.1335903E1,1.0791965E1,7.777153E0,2.914981E0,4.6654863E0,0E0,0E0,0E0,0E0,0E0,0E0,0E0,0E0,0E0,0E0,0E0,0E0,0E0,0E0,0E0,0E0],"parents":[2147483647,0,0,1,1,2,2,3,3,4,4,5,5,6,6,7,7,8,8,9,9,10,10,11,11,12,12,13,13,14,14],"right_children":[2,4,6,8,10,12,14,16,18,20,22,24,26,28,30,-1,-1,-1,-1,-1,-1,-1,-1,-1,-1,-1,-1,-1,-1,-1,-1],"split_conditions":[-3.8609758E-1,-4.3507987E-1,-1.5482494E-2,2.5470889E0,9.28984E-1,-4.2245933E-1,9.5157996E-2,1E0,3E0,1E0,-7.254424E-1,-4.242636E-1,1.0471678E0,-2.6860872E-1,-4.273951E-1,-2.1576325E-3,-5.1800113E-2,4.7714513E-2,-0E0,7.3503934E-2,1.9978518E-2,-1E-1,2.8519008E-2,-5.0459173E-2,3.3812698E-2,-1E-1,-0E0,-0E0,8.6738475E-2,-3.401807E-2,-5.8434666E-3],"split_indices":[4,28,17,22,28,22,17,12,15,5,17,30,18,30,22,0,0,0,0,0,0,0,0,0,0,0,0,0,0,0,0],"split_type":[0,0,0,0,0,0,0,0,0,0,0,0,0,0,0,0,0,0,0,0,0,0,0,0,0,0,0,0,0,0,0],"sum_hessian":[7.6148566E2,4.104906E2,3.5099506E2,2.1523549E2,1.9525513E2,7.874812E1,2.7224695E2,1.85678E2,2.9557493E1,1.7870795E2,1.6547186E1,4.7972755E1,3.0775372E1,2.3885489E1,2.4836145E2,1.6239655E2,2.3281456E1,2.1039253E1,8.51824E0,1.5518265E1,1.6318968E2,7.8929462E0,8.65424E0,2.6778988E1,2.1193766E1,2.4788593E1,5.986777E0,6.386189E0,1.7499298E1,8.663618E1,1.6172528E2],"tree_param":{"num_deleted":"0","num_feature":"37","num_nodes":"31","size_leaf_vector":"1"}},{"base_weights":[6.78259E-2,1.0405148E-1,-3.0074388E-1,7.933599E-2,9.3096876E-1,-6.226291E-1,-4.847867E-2,9.835121E-2,-5.4272366E-1,7.881866E-3,1E-1,-9.285616E-2,-0E0,1.1051269E-1,-7.3617525E-2,-2.9872698E-4,2.1142004E-2,-9.003519E-2,-6.066547E-3,-1.9120833E-2,4.0740654E-2],"categories":[],"categories_nodes":[],"categories_segments":[],"categories_sizes":[],"default_left":[0,0,0,0,0,0,0,0,0,0,0,0,0,0,0,0,0,0,0,0,0],"id":37,"left_children":[1,3,5,7,9,11,13,15,17,-1,-1,-1,-1,19,-1,-1,-1,-1,-1,-1,-1],"loss_changes":[1.090261E1,1.5178311E1,5.490403E0,8.987541E0,3.1246052E0,5.4817553E0,6.9500694E0,8.188297E0,3.0959382E0,0E0,0E0,0E0,0E0,4.436099E0,0E0,0E0,0E0,0E0,0E0,0E0,0E0],"parents":[2147483647,0,0,1,1,2,2,3,3,4,4,5,5,6,6,7,7,8,8,13,13],"right_children":[2,4,6,8,10,12,14,16,18,-1,-1,-1,-1,20,-1,-1,-1,-1,-1,-1,-1],"split_conditions":[2E0,1.5788451E0,7.4239033E-1,1.2153088E0,1E0,2E0,1.733267E0,1E0,-1.9760309E-1,7.881866E-3,1E-1,-9.285616E-2,-0E0,1E0,-7.3617525E-2,-2.9872698E-4,2.1142004E-2,-9.003519E-2,-6.066547E-3,-1.9120833E-2,4.0740654E-2],"split_indices":[14,28,28,28,35,10,28,6,30,0,0,0,0,35,0,0,0,0,0,0,0],"split_type":[0,0,0,0,0,0,0,0,0,0,0,0,0,0,0,0,0,0,0,0,0],"sum_hessian":[7.7414185E2,7.086404E2,6.5501495E1,6.913772E2,1.7263176E1,2.5747646E1,3.9753853E1,6.7406366E2,1.7313534E1,6.155669E0,1.1107506E1,1.6123697E1,9.623948E0,3.2471176E1,7.282673E0,3.5183386E2,3.222298E2,7.7523494E0,9.561185E0,1.4787244E1,1.7683933E1],"tree_param":{"num_deleted":"0","num_feature":"37","num_nodes":"21","size_leaf_vector":"1"}},{"base_weights":[-4.1704193E-2,7.206893E-2,-1.7656939E-1,2.302053E-1,-1.2768541E-1,-1.0851971E-1,-5.7429093E-1,1.6029803E-1,7.977574E-1,-5.672874E-1,1.3544945E-2,-2.643599E-1,1.4787666E-1,-3.109462E-1,-8.713462E-2,4.5723212E-4,3.804187E-2,1E-1,3.2254525E-2,-2.0303598E-3,-1E-1,-7.232734E-2,8.777395E-3,-1.860116E-2,-1E-1,4.3240845E-2,-1.6006706E-2,-5.43001E-2,-0E0],"categories":[],"categories_nodes":[],"categories_segments":[],"categories_sizes":[],"default_left":[0,0,0,0,0,0,0,0,0,0,0,0,0,0,0,0,0,0,0,0,0,0,0,0,0,0,0,0,0],"id":38,"left_children":[1,3,5,7,9,11,13,15,17,19,21,23,25,27,-1,-1,-1,-1,-1,-1,-1,-1,-1,-1,-1,-1,-1,-1,-1],"loss_changes":[1.2130518E1,1.3589151E1,9.681404E0,9.393832E0,1.2546667E1,1.2932765E1,3.289196E0,7.2402806E0,3.0495243E0,1.1034173E1,8.48078E0,1.33486E1,1.1255869E1,2.202334E0,0E0,0E0,0E0,0E0,0E0,0E0,0E0,0E0,0E0,0E0,0E0,0E0,0E0,0E0,0E0],"parents":[2147483647,0,0,1,1,2,2,3,3,4,4,5,5,6,6,7,7,8,8,9,9,10,10,11,11,12,12,13,13],"right_children":[2,4,6,8,10,12,14,16,18,20,22,24,26,28,-1,-1,-1,-1,-1,-1,-1,-1,-1,-1,-1,-1,-1,-1,-1],"split_conditions":[1E0,-4.7559622E-1,2E0,-5.514932E-1,-1.3786064E-1,2.2276872E-1,1E0,1E0,-3.4798464E-1,-4.775793E-1,-4.5532668E-1,2.4178804E-1,8.879224E-1,9.28984E-1,-8.713462E-2,4.5723212E-4,3.804187E-2,1E-1,3.2254525E-2,-2.0303598E-3,-1E-1,-7.232734E-2,8.777395E-3,-1.860116E-2,-1E-1,4.3240845E-2,-1.6006706E-2,-5.43001E-2,-0E0],"split_indices":[9,17,14,33,17,23,20,6,22,23,22,33,23,28,0,0,0,0,0,0,0,0,0,0,0,0,0,0,0],"split_type":[0,0,0,0,0,0,0,0,0,0,0,0,0,0,0,0,0,0,0,0,0,0,0,0,0,0,0,0,0],"sum_hessian":[7.531272E2,4.0499084E2,3.4813635E2,2.2866695E2,1.763239E2,3.0159402E2,4.6542347E1,2.0744241E2,2.1224537E1,4.3128063E1,1.3319585E2,1.8996783E2,1.1162618E2,2.8625364E1,1.7916985E1,1.2534842E2,8.2093994E1,8.081363E0,1.3143175E1,2.1523453E1,2.1604612E1,9.356922E0,1.2383892E2,1.7819312E2,1.1774723E1,5.9286255E1,5.2339928E1,1.393798E1,1.4687384E1],"tree_param":{"num_deleted":"0","num_feature":"37","num_nodes":"29","size_leaf_vector":"1"}},{"base_weights":[2.2591189E-2,5.249455E-2,-2.9124418E-1,-3.4732938E-2,1.826886E-1,-6.266098E-1,2.3353439E-2,1.5769759E-1,-1.0954527E-1,1.5871572E-1,8.6449675E-2,-1.6488394E-1,-9.586279E-2,-2.8455904E-1,3.2979372E-1,-2.9883489E-2,2.3720091E-2,-1E-1,-8.133377E-3,1.872544E-2,-6.345334E-2,1.4498522E-2,-7.344384E-2,-6.302018E-2,-0E0,-0E0,8.266505E-2],"categories":[],"categories_nodes":[],"categories_segments":[],"categories_sizes":[],"default_left":[0,0,0,0,0,0,0,0,0,0,0,0,0,0,0,0,0,0,0,0,0,0,0,0,0,0,0],"id":39,"left_children":[1,3,5,7,9,11,13,15,17,19,-1,21,-1,23,25,-1,-1,-1,-1,-1,-1,-1,-1,-1,-1,-1,-1],"loss_changes":[7.641068E0,8.505243E0,8.12372E0,6.493279E0,5.091651E0,4.56501E0,4.5774674E0,4.995049E0,8.96393E0,7.5036187E0,0E0,5.2931566E0,0E0,2.2409134E0,3.931986E0,0E0,0E0,0E0,0E0,0E0,0E0,0E0,0E0,0E0,0E0,0E0,0E0],"parents":[2147483647,0,0,1,1,2,2,3,3,4,4,5,5,6,6,7,7,8,8,9,9,11,11,13,13,14,14],"right_children":[2,4,6,8,10,12,14,16,18,20,-1,22,-1,24,26,-1,-1,-1,-1,-1,-1,-1,-1,-1,-1,-1,-1],"split_conditions":[2E0,2E0,1E0,-9.584955E-1,2.2955072E0,1E0,1E0,2E0,-9.4854444E-1,2.0730789E0,8.6449675E-2,1.4170963E0,-9.586279E-2,-2.6860872E-1,2.0730789E0,-2.9883489E-2,2.3720091E-2,-1E-1,-8.133377E-3,1.872544E-2,-6.345334E-2,1.4498522E-2,-7.344384E-2,-6.302018E-2,-0E0,-0E0,8.266505E-2],"split_indices":[14,13,35,33,17,0,0,15,17,33,0,17,0,30,33,0,0,0,0,0,0,0,0,0,0,0,0],"split_type":[0,0,0,0,0,0,0,0,0,0,0,0,0,0,0,0,0,0,0,0,0,0,0,0,0,0,0],"sum_hessian":[7.6594354E2,7.037405E2,6.2203068E1,4.1768515E2,2.8605536E2,3.0686216E1,3.1516851E1,1.1256513E2,3.0512003E2,2.8013776E2,5.9175863E0,1.5347749E1,1.5338469E1,1.4164168E1,1.7352684E1,1.4011453E1,9.855368E1,5.5150814E0,2.9960492E2,2.7310095E2,7.0368195E0,9.768349E0,5.5793996E0,5.1974616E0,8.966706E0,1.197266E1,5.380024E0],"tree_param":{"num_deleted":"0","num_feature":"37","num_nodes":"27","size_leaf_vector":"1"}},{"base_weights":[-9.103845E-3,-9.123449E-2,9.3689576E-2,-6.744235E-2,-8.991666E-2,1.1480528E-1,-4.5165103E-2,1.7192951E-1,-1.323022E-1,7.4391365E-2,4.3084192E-1,-3.0301964E-2,2.5693942E-2,-1.7561698E-2,4.8906494E-2,-7.9260476E-2,1.0479288E-2,8.7651916E-2,6.536513E-3],"categories":[],"categories_nodes":[],"categories_segments":[],"categories_sizes":[],"default_left":[0,0,0,0,0,0,0,0,0,0,0,0,0,0,0,0,0,0,0],"id":40,"left_children":[1,3,5,7,-1,9,-1,11,13,15,17,-1,-1,-1,-1,-1,-1,-1,-1],"loss_changes":[6.5944996E0,8.668958E0,4.434413E0,6.81309E0,0E0,4.228869E0,0E0,4.2996E0,9.680862E0,8.612562E0,5.249416E0,0E0,0E0,0E0,0E0,0E0,0E0,0E0,0E0],"parents":[2147483647,0,0,1,1,2,2,3,3,5,5,7,7,8,8,9,9,10,10],"right_children":[2,4,6,8,-1,10,-1,12,14,16,18,-1,-1,-1,-1,-1,-1,-1,-1],"split_conditions":[2E0,9.911935E-1,1.9465841E0,-1.2433581E0,-8.991666E-2,1.3478469E0,-4.5165103E-2,-1.4942532E0,7.216864E-1,-2.885607E-1,5.233055E-1,-3.0301964E-2,2.5693942E-2,-1.7561698E-2,4.8906494E-2,-7.9260476E-2,1.0479288E-2,8.7651916E-2,6.536513E-3],"split_indices":[12,16,28,23,0,28,0,16,28,30,16,0,0,0,0,0,0,0,0],"split_type":[0,0,0,0,0,0,0,0,0,0,0,0,0,0,0,0,0,0,0],"sum_hessian":[7.35723E2,4.144977E2,3.212253E2,4.0594794E2,8.549757E0,3.125365E2,8.688807E0,8.255412E1,3.2339383E2,2.8209756E2,3.0438915E1,9.968406E0,7.258572E1,3.051652E2,1.8228617E1,6.7437077E0,2.7535388E2,1.122183E1,1.9217085E1],"tree_param":{"num_deleted":"0","num_feature":"37","num_nodes":"19","size_leaf_vector":"1"}},{"base_weights":[4.3486834E-2,-5.7170117E-1,5.8214493E-2,-0E0,-8.2551084E-2,6.987226E-1,4.269569E-2,-5.1217165E-4,1E-1,-1.0457983E-1,8.824494E-2,7.282339E-3,-2.6707932E-2,-4.3042522E-2,1.1266317E-2],"categories":[],"categories_nodes":[],"categories_segments":[],"categories_sizes":[],"default_left":[0,0,0,0,0,0,0,0,0,0,0,0,0,0,0],"id":41,"left_children":[1,3,5,-1,-1,7,9,-1,-1,11,13,-1,-1,-1,-1],"loss_changes":[7.6379294E0,2.8643203E0,8.004917E0,0E0,0E0,7.162758E0,5.2289834E0,0E0,0E0,5.581809E0,7.872431E0,0E0,0E0,0E0,0E0],"parents":[2147483647,0,0,1,1,2,2,5,5,6,6,9,9,10,10],"right_children":[2,4,6,-1,-1,8,10,-1,-1,12,14,-1,-1,-1,-1],"split_conditions":[-4.875044E-1,-1.4909348E0,-4.7600526E-1,-0E0,-8.2551084E-2,1E0,1E0,-5.1217165E-4,1E-1,-8.533069E-1,-8.4359914E-1,7.282339E-3,-2.6707932E-2,-4.3042522E-2,1.1266317E-2],"split_indices":[22,16,22,0,0,2,21,0,0,28,32,0,0,0,0],"split_type":[0,0,0,0,0,0,0,0,0,0,0,0,0,0,0],"sum_hessian":[7.608901E2,1.4433967E1,7.464561E2,5.0937214E0,9.340245E0,1.4050792E1,7.3240533E2,5.925464E0,8.125327E0,1.6721117E2,5.6519415E2,7.752537E1,8.96858E1,2.2075647E1,5.431185E2],"tree_param":{"num_deleted":"0","num_feature":"37","num_nodes":"15","size_leaf_vector":"1"}},{"base_weights":[3.0936055E-2,-2.4560623E-1,6.2379748E-2,-4.472357E-1,2.9910535E-1,9.02664E-2,-3.080009E-1,-5.7511973E-1,-0E0,7.211493E-1,-3.9658144E-2,7.2536625E-2,3.76999E-1,-5.2015996E-1,3.4175657E-2,-9.864171E-3,-7.714517E-2,-6.835797E-2,7.7505395E-2,9.824627E-2,1.6382467E-2,9.389992E-3,-7.151535E-2,-4.7808844E-3,5.6469023E-2,-1.103066E-2,-1E-1],"categories":[],"categories_nodes":[],"categories_segments":[],"categories_sizes":[],"default_left":[0,0,0,0,0,0,0,0,0,0,0,0,0,0,0,0,0,0,0,0,0,0,0,0,0,0,0],"id":42,"left_children":[1,3,5,7,9,11,13,15,17,19,-1,21,23,25,-1,-1,-1,-1,-1,-1,-1,-1,-1,-1,-1,-1,-1],"loss_changes":[6.9063735E0,9.493167E0,7.497393E0,3.848094E0,8.324935E0,3.4334397E0,7.888341E0,3.7407608E0,1.103356E1,1.4036083E0,0E0,1.1118205E1,3.6821175E0,8.278121E0,0E0,0E0,0E0,0E0,0E0,0E0,0E0,0E0,0E0,0E0,0E0,0E0,0E0],"parents":[2147483647,0,0,1,1,2,2,3,3,4,4,5,5,6,6,7,7,8,8,9,9,11,11,12,12,13,13],"right_children":[2,4,6,8,10,12,14,16,18,20,-1,22,24,26,-1,-1,-1,-1,-1,-1,-1,-1,-1,-1,-1,-1,-1],"split_conditions":[1E0,1.5864005E0,1.5864005E0,1.2977887E0,1.3370557E0,1.2717644E0,2.3286955E0,1E0,2E0,3.8272408E-1,-3.9658144E-2,1.0998731E0,2E0,1.493599E0,3.4175657E-2,-9.864171E-3,-7.714517E-2,-6.835797E-2,7.7505395E-2,9.824627E-2,1.6382467E-2,9.389992E-3,-7.151535E-2,-4.7808844E-3,5.6469023E-2,-1.103066E-2,-1E-1],"split_indices":[34,18,18,23,23,23,33,8,10,33,0,23,13,17,0,0,0,0,0,0,0,0,0,0,0,0,0],"split_type":[0,0,0,0,0,0,0,0,0,0,0,0,0,0,0,0,0,0,0,0,0,0,0,0,0,0,0],"sum_hessian":[7.460708E2,7.153214E1,6.7453864E2,5.3808292E1,1.7723848E1,6.3122504E2,4.3313614E1,4.2609276E1,1.1199014E1,1.1880609E1,5.8432403E0,6.001114E2,3.1113665E1,3.4112976E1,9.200638E0,1.479691E1,2.7812366E1,5.598782E0,5.600232E0,5.8280716E0,6.052537E0,5.872164E2,1.2895034E1,8.358424E0,2.2755241E1,2.2524803E1,1.1588175E1],"tree_param":{"num_deleted":"0","num_feature":"37","num_nodes":"27","size_leaf_vector":"1"}},{"base_weights":[1.3915676E-2,-1.8872707E-1,7.451675E-2,-5.870654E-1,-6.300832E-2,1.3366006E-1,-6.936068E-2,5.295219E-2,-8.1985766E-1,-2.6531973E-1,1.18007824E-1,-5.7658345E-2,1.4824265E-1,6.0593855E-1,-1.3407522E-1,-4.78312E-2,-1E-1,-7.834176E-3,-8.857321E-2,4.1223813E-2,-2.0449203E-2,5.883059E-2,1.2408143E-2,-0E0,1E-1,-2.9700255E-2,8.217759E-3],"categories":[],"categories_nodes":[],"categories_segments":[],"categories_sizes":[],"default_left":[0,0,0,0,0,0,0,0,0,0,0,0,0,0,0,0,0,0,0,0,0,0,0,0,0,0,0],"id":43,"left_children":[1,3,5,7,9,11,13,-1,15,17,19,-1,21,23,25,-1,-1,-1,-1,-1,-1,-1,-1,-1,-1,-1,-1],"loss_changes":[9.548671E0,8.6135235E0,5.257645E0,1.2602726E1,5.679929E0,5.224994E0,8.231802E0,0E0,1.8654327E0,7.892571E0,7.861784E0,0E0,4.627019E0,4.256615E0,6.1562715E0,0E0,0E0,0E0,0E0,0E0,0E0,0E0,0E0,0E0,0E0,0E0,0E0],"parents":[2147483647,0,0,1,1,2,2,3,3,4,4,5,5,6,6,8,8,9,9,10,10,12,12,13,13,14,14],"right_children":[2,4,6,8,10,12,14,-1,16,18,20,-1,22,24,26,-1,-1,-1,-1,-1,-1,-1,-1,-1,-1,-1,-1],"split_conditions":[-6.2524766E-2,-1.01157434E-1,2E0,-7.931549E-1,-4.273951E-1,-1.5141633E0,-4.5054802E-1,5.295219E-2,-3.8609758E-1,1.5864005E0,-4.0988806E-1,-5.7658345E-2,-1.5008898E0,-4.7551876E-1,-2.5195682E-1,-4.78312E-2,-1E-1,-7.834176E-3,-8.857321E-2,4.1223813E-2,-2.0449203E-2,5.883059E-2,1.2408143E-2,-0E0,1E-1,-2.9700255E-2,8.217759E-3],"split_indices":[32,4,9,4,22,16,22,0,4,18,22,0,16,16,22,0,0,0,0,0,0,0,0,0,0,0,0],"split_type":[0,0,0,0,0,0,0,0,0,0,0,0,0,0,0,0,0,0,0,0,0,0,0,0,0,0,0],"sum_hessian":[7.4195966E2,1.6603354E2,5.759261E2,3.6161774E1,1.2987177E2,4.1317554E2,1.6275055E2,5.057673E0,3.1104101E1,6.3497337E1,6.637442E1,5.3822155E0,4.0779333E2,1.1418542E1,1.5133202E2,1.8660004E1,1.24440975E1,5.176188E1,1.1735458E1,3.6038883E1,3.033554E1,1.6639576E1,3.9115375E2,5.5320516E0,5.8864903E0,8.851854E1,6.2813473E1],"tree_param":{"num_deleted":"0","num_feature":"37","num_nodes":"27","size_leaf_vector":"1"}},{"base_weights":[1.5835864E-2,-3.6373276E-2,1.6966265E-1,5.7058726E-2,-1.799371E-1,3.6121807E-1,6.9663E-3,-6.909544E-2,8.013927E-2,-9.057604E-2,-4.7158515E-1,-6.308408E-2,4.5371062E-1,1.3940716E-1,-3.441967E-1,1.0581404E-2,-5.6666743E-2,-2.144894E-2,4.71954E-2,-8.848127E-2,1.8892527E-2,6.278714E-2,3.71282E-3,1.8406658E-3,8.426015E-2,-0E0,-6.7775436E-2],"categories":[],"categories_nodes":[],"categories_segments":[],"categories_sizes":[],"default_left":[0,0,0,0,0,0,0,0,0,0,0,0,0,0,0,0,0,0,0,0,0,0,0,0,0,0,0],"id":44,"left_children":[1,3,5,7,9,11,13,-1,15,17,19,-1,21,23,25,-1,-1,-1,-1,-1,-1,-1,-1,-1,-1,-1,-1],"loss_changes":[6.4622083E0,7.903796E0,6.023287E0,6.6191764E0,5.876386E0,9.691755E0,5.911784E0,0E0,6.2054844E0,1.3283671E1,1.5535282E1,0E0,5.5396805E0,7.58002E0,4.558978E0,0E0,0E0,0E0,0E0,0E0,0E0,0E0,0E0,0E0,0E0,0E0,0E0],"parents":[2147483647,0,0,1,1,2,2,3,3,4,4,5,5,6,6,8,8,9,9,10,10,12,12,13,13,14,14],"right_children":[2,4,6,8,10,12,14,-1,16,18,20,-1,22,24,26,-1,-1,-1,-1,-1,-1,-1,-1,-1,-1,-1,-1],"split_conditions":[9.463955E-1,-3.129729E-2,1E0,-1.512504E0,4.5439416E-1,1E0,1E0,-6.909544E-2,9.761462E-1,2.3834743E-1,1.3235432E0,-6.308408E-2,1.1737028E0,2.3364902E0,1E0,1.0581404E-2,-5.6666743E-2,-2.144894E-2,4.71954E-2,-8.848127E-2,1.8892527E-2,6.278714E-2,3.71282E-3,1.8406658E-3,8.426015E-2,-0E0,-6.7775436E-2],"split_indices":[16,31,9,16,17,34,3,0,23,23,4,0,16,17,14,0,0,0,0,0,0,0,0,0,0,0,0],"split_type":[0,0,0,0,0,0,0,0,0,0,0,0,0,0,0,0,0,0,0,0,0,0,0,0,0,0,0],"sum_hessian":[7.371427E2,5.466387E2,1.9050404E2,3.276452E2,2.1899345E2,8.354869E1,1.0695536E2,6.7780128E0,3.208672E2,1.7226219E2,4.6731266E1,5.2103887E0,7.83383E1,8.060787E1,2.634749E1,3.117127E2,9.154462E0,1.436371E2,2.8625093E1,2.926029E1,1.7470976E1,5.2834778E1,2.5503527E1,7.173814E1,8.869736E0,1.2563851E1,1.3783639E1],"tree_param":{"num_deleted":"0","num_feature":"37","num_nodes":"27","size_leaf_vector":"1"}},{"base_weights":[-1.1102246E-2,3.2057375E-2,-1.4907466E-1,-1.3088627E-1,8.5620925E-2,-4.252508E-1,3.9045665E-2,-4.1629615E-1,-0E0,-3.0973002E-1,1.1135931E-1,-0E0,-6.469366E-1,4.577626E-1,-1.05083145E-1,-9.474002E-2,-1.040578E-2,1.5754003E-2,-2.6808662E-2,-6.84799E-2,-0E0,6.1612695E-2,7.3720473E-3,2.558488E-2,-2.2647219E-2,-4.1653056E-2,-1E-1,6.759564E-2,-0E0,-3.3836942E-2,1.9655475E-2],"categories":[],"categories_nodes":[],"categories_segments":[],"categories_sizes":[],"default_left":[0,0,0,0,0,0,0,0,0,0,0,0,0,0,0,0,0,0,0,0,0,0,0,0,0,0,0,0,0,0,0],"id":45,"left_children":[1,3,5,7,9,11,13,15,17,19,21,23,25,27,29,-1,-1,-1,-1,-1,-1,-1,-1,-1,-1,-1,-1,-1,-1,-1,-1],"loss_changes":[4.8486533E0,5.2044735E0,1.0464874E1,5.162236E0,4.8638783E0,8.108165E0,7.9822636E0,6.609959E0,5.1058893E0,3.0478106E0,8.026227E0,2.6516156E0,4.7874565E0,3.706214E0,6.749917E0,0E0,0E0,0E0,0E0,0E0,0E0,0E0,0E0,0E0,0E0,0E0,0E0,0E0,0E0,0E0,0E0],"parents":[2147483647,0,0,1,1,2,2,3,3,4,4,5,5,6,6,7,7,8,8,9,9,10,10,11,11,12,12,13,13,14,14],"right_children":[2,4,6,8,10,12,14,16,18,20,22,24,26,28,30,-1,-1,-1,-1,-1,-1,-1,-1,-1,-1,-1,-1,-1,-1,-1,-1],"split_conditions":[1E0,1E0,8.5355856E-2,-3.770561E-1,-8.4359914E-1,-3.0468613E-1,2.3224516E-1,1.4150321E-1,-3.129731E-2,1E0,1E0,-1.6514878E-1,-6.659472E-2,1.0793089E0,9.683418E-1,-9.474002E-2,-1.040578E-2,1.5754003E-2,-2.6808662E-2,-6.84799E-2,-0E0,6.1612695E-2,7.3720473E-3,2.558488E-2,-2.2647219E-2,-4.1653056E-2,-1E-1,6.759564E-2,-0E0,-3.3836942E-2,1.9655475E-2],"split_indices":[20,21,30,22,32,4,30,23,18,9,15,22,30,4,30,0,0,0,0,0,0,0,0,0,0,0,0,0,0,0,0],"split_type":[0,0,0,0,0,0,0,0,0,0,0,0,0,0,0,0,0,0,0,0,0,0,0,0,0,0,0,0,0,0,0],"sum_hessian":[7.338756E2,5.546585E2,1.7921713E2,1.3188861E2,4.2276987E2,7.3746254E1,1.0547088E2,3.7728756E1,9.415985E1,2.2117474E1,4.006524E2,2.4703863E1,4.904239E1,2.7670324E1,7.780055E1,1.1276607E1,2.6452148E1,5.7512466E1,3.664739E1,7.8333087E0,1.4284164E1,2.3825523E1,3.7682687E2,1.3157251E1,1.1546612E1,3.7980694E1,1.1061694E1,1.8763378E1,8.906947E0,4.560297E1,3.2197582E1],"tree_param":{"num_deleted":"0","num_feature":"37","num_nodes":"31","size_leaf_vector":"1"}},{"base_weights":[1.2586372E-2,2.726013E-1,-2.3512281E-2,9.0178885E-2,6.006041E-1,-7.27069E-2,-1.1509551E-2,1.9783093E-1,-3.2147847E-2,1.1985487E-2,7.248164E-2,5.0725844E-2,-2.2550859E-2,-3.296293E-4,4.0201426E-2,2.3710147E-2,-4.3557957E-3],"categories":[],"categories_nodes":[],"categories_segments":[],"categories_sizes":[],"default_left":[0,0,0,0,0,0,0,0,0,0,0,0,0,0,0,0,0],"id":46,"left_children":[1,3,5,7,9,-1,11,13,-1,-1,-1,-1,15,-1,-1,-1,-1],"loss_changes":[7.8013926E0,5.6673794E0,6.170102E0,3.7324958E0,1.339757E0,0E0,4.259281E0,3.0550172E0,0E0,0E0,0E0,0E0,3.799633E0,0E0,0E0,0E0,0E0],"parents":[2147483647,0,0,1,1,2,2,3,3,4,4,6,6,7,7,12,12],"right_children":[2,4,6,8,10,-1,12,14,-1,-1,-1,-1,16,-1,-1,-1,-1],"split_conditions":[-1.240918E0,-9.8423994E-1,-9.8423994E-1,-9.8742115E-1,1.4996239E0,-7.27069E-2,-9.743013E-1,-9.999266E-1,-3.2147847E-2,1.1985487E-2,7.248164E-2,5.0725844E-2,-8.4359914E-1,-3.296293E-4,4.0201426E-2,2.3710147E-2,-4.3557957E-3],"split_indices":[4,17,17,17,32,0,17,17,0,0,0,0,32,0,0,0,0],"split_type":[0,0,0,0,0,0,0,0,0,0,0,0,0,0,0,0,0],"sum_hessian":[7.4083936E2,9.209404E1,6.487453E2,6.2777985E1,2.9316057E1,7.4858656E0,6.4125946E2,5.251334E1,1.0264643E1,8.479133E0,2.0836924E1,9.603283E0,6.316561E2,2.497868E1,2.753466E1,4.2175938E1,5.894802E2],"tree_param":{"num_deleted":"0","num_feature":"37","num_nodes":"17","size_leaf_vector":"1"}},{"base_weights":[-4.02244E-2,-1.7785748E-2,-2.773891E-1,-2.8922323E-2,5.7448544E-2,-8.138221E-2,-1.2616648E-1,-1.55111E-2,-7.736376E-2,7.282811E-2,-2.8996304E-1,-2.4653228E-3,5.7290502E-2,-7.715246E-2,-2.4259563E-3],"categories":[],"categories_nodes":[],"categories_segments":[],"categories_sizes":[],"default_left":[0,0,0,0,0,0,0,0,0,0,0,0,0,0,0],"id":47,"left_children":[1,3,5,7,-1,-1,9,11,-1,-1,13,-1,-1,-1,-1],"loss_changes":[4.1188974E0,5.130317E0,5.0132546E0,7.388564E0,0E0,0E0,8.808099E0,4.19709E0,0E0,0E0,5.8879366E0,0E0,0E0,0E0,0E0],"parents":[2147483647,0,0,1,1,2,2,3,3,6,6,7,7,10,10],"right_children":[2,4,6,8,-1,-1,10,12,-1,-1,14,-1,-1,-1,-1],"split_conditions":[2E0,1.7893977E0,5.171844E-1,1.4445293E0,5.7448544E-2,-8.138221E-2,8.123593E-1,1.3214743E0,-7.736376E-2,7.282811E-2,1.2977887E0,-2.4653228E-3,5.7290502E-2,-7.715246E-2,-2.4259563E-3],"split_indices":[14,28,23,28,0,0,23,28,0,0,23,0,0,0,0],"split_type":[0,0,0,0,0,0,0,0,0,0,0,0,0,0,0],"sum_hessian":[7.3349243E2,6.7590967E2,5.7582767E1,6.669595E2,8.950201E0,9.281708E0,4.830106E1,6.584856E2,8.473901E0,5.6789703E0,4.262209E1,6.519717E2,6.513897E0,1.2463041E1,3.015905E1],"tree_param":{"num_deleted":"0","num_feature":"37","num_nodes":"15","size_leaf_vector":"1"}},{"base_weights":[1.6247213E-2,9.271843E-2,-1.1669303E-1,7.192813E-2,9.397593E-2,-6.3122526E-2,-3.959761E-1,1.06162146E-1,-7.057929E-1,-1.06125645E-1,6.533067E-2,-6.786467E-1,8.8975966E-2,1.5574658E-2,-7.2530634E-3,-9.5393606E-2,-0E0,-1.4984718E-3,-2.5813779E-2,-3.3052783E-2,-8.831132E-2,5.7026524E-2,-2.597177E-2],"categories":[],"categories_nodes":[],"categories_segments":[],"categories_sizes":[],"default_left":[0,0,0,0,0,0,0,0,0,0,0,0,0,0,0,0,0,0,0,0,0,0,0],"id":48,"left_children":[1,3,5,7,-1,9,11,13,15,17,-1,19,21,-1,-1,-1,-1,-1,-1,-1,-1,-1,-1],"loss_changes":[7.962461E0,9.128675E0,4.190342E0,1.3569657E1,0E0,8.086439E0,6.90996E0,4.3733945E0,3.5648327E0,3.1082487E0,0E0,1.1716251E0,4.626672E0,0E0,0E0,0E0,0E0,0E0,0E0,0E0,0E0,0E0,0E0],"parents":[2147483647,0,0,1,1,2,2,3,3,5,5,6,6,7,7,8,8,9,9,11,11,12,12],"right_children":[2,4,6,8,-1,10,12,14,16,18,-1,20,22,-1,-1,-1,-1,-1,-1,-1,-1,-1,-1],"split_conditions":[1E0,1.4445293E0,1.415904E0,9.28984E-1,9.397593E-2,1.4126241E0,2.1867938E0,1E0,1.7393985E0,3E0,6.533067E-2,1E0,1.4723547E0,1.5574658E-2,-7.2530634E-3,-9.5393606E-2,-0E0,-1.4984718E-3,-2.5813779E-2,-3.3052783E-2,-8.831132E-2,5.7026524E-2,-2.597177E-2],"split_indices":[11,28,33,28,0,16,33,8,33,15,0,20,16,0,0,0,0,0,0,0,0,0,0],"split_type":[0,0,0,0,0,0,0,0,0,0,0,0,0,0,0,0,0,0,0,0,0,0,0],"sum_hessian":[7.434645E2,4.771314E2,2.6633304E2,4.689711E2,8.160306E0,2.2853027E2,3.780276E1,4.5208392E2,1.6887201E1,2.185137E2,1.0016572E1,2.4680273E1,1.3122487E1,3.5846777E2,9.361614E1,1.1711172E1,5.1760287E0,1.4209457E2,7.6419136E1,1.287815E1,1.1802124E1,6.1839643E0,6.9385223E0],"tree_param":{"num_deleted":"0","num_feature":"37","num_nodes":"23","size_leaf_vector":"1"}},{"base_weights":[1.6261078E-2,-5.924383E-1,3.1374674E-2,-0E0,-8.4891684E-2,-1.4597625E-1,8.522775E-2,-2.1993148E-1,3.9991537E-1,5.444228E-2,5.021342E-1,-9.4098033E-4,-4.0381774E-2,1E-1,-1.123484E-2,6.89558E-2,3.7353684E-3,8.1302E-3,6.7189954E-2],"categories":[],"categories_nodes":[],"categories_segments":[],"categories_sizes":[],"default_left":[0,0,0,0,0,0,0,0,0,0,0,0,0,0,0,0,0,0,0],"id":49,"left_children":[1,3,5,-1,-1,7,9,11,13,15,17,-1,-1,-1,-1,-1,-1,-1,-1],"loss_changes":[7.5891423E0,2.9211373E0,7.385043E0,0E0,0E0,7.711728E0,7.640742E0,5.7937083E0,1.0139898E1,6.3709526E0,2.2605143E0,0E0,0E0,0E0,0E0,0E0,0E0,0E0,0E0],"parents":[2147483647,0,0,1,1,2,2,5,5,6,6,7,7,8,8,9,9,10,10],"right_children":[2,4,6,-1,-1,8,10,12,14,16,18,-1,-1,-1,-1,-1,-1,-1,-1],"split_conditions":[-4.858615E-1,1E0,1E0,-0E0,-8.4891684E-2,1E0,1.698883E0,-3.1457856E-1,-4.121154E-1,-4.7682095E-1,-1.0656376E0,-9.4098033E-4,-4.0381774E-2,1E-1,-1.123484E-2,6.89558E-2,3.7353684E-3,8.1302E-3,6.7189954E-2],"split_indices":[22,19,21,0,0,1,22,16,22,22,28,0,0,0,0,0,0,0,0],"split_type":[0,0,0,0,0,0,0,0,0,0,0,0,0,0,0,0,0,0,0],"sum_hessian":[7.478044E2,1.4663631E1,7.3314075E2,5.206305E0,9.457327E0,1.6564436E2,5.674964E2,1.4854604E2,1.7098331E1,5.3281195E2,3.468445E1,7.277279E1,7.577325E1,6.4965925E0,1.060174E1,1.0364957E1,5.2244696E2,1.2513345E1,2.2171104E1],"tree_param":{"num_deleted":"0","num_feature":"37","num_nodes":"19","size_leaf_vector":"1"}},{"base_weights":[-2.6139474E-2,2.9805234E-2,-2.1691637E-1,-7.199026E-2,4.2673215E-2,-4.3829226E-1,-9.6237585E-2,-6.9615565E-2,1.4870177E-1,-7.2575665E-1,-0E0,5.0399005E-2,-3.569841E-1,7.884116E-4,-4.017913E-2,-3.4731608E-2,1.715646E-2,-2.2298796E-2,-1E-1,-2.3384333E-2,4.4299975E-2,6.0070094E-2,-1.533921E-2,-1.1688453E-2,-7.949122E-2],"categories":[],"categories_nodes":[],"categories_segments":[],"categories_sizes":[],"default_left":[0,0,0,0,0,0,0,0,0,0,0,0,0,0,0,0,0,0,0,0,0,0,0,0,0],"id":50,"left_children":[1,3,5,-1,7,9,11,13,15,17,19,21,23,-1,-1,-1,-1,-1,-1,-1,-1,-1,-1,-1,-1],"loss_changes":[8.548219E0,6.354096E0,4.618947E0,0E0,7.167553E0,8.369577E0,5.437854E0,8.050687E0,4.033423E0,4.9677105E0,4.1717157E0,1.0357535E1,4.723748E0,0E0,0E0,0E0,0E0,0E0,0E0,0E0,0E0,0E0,0E0,0E0,0E0],"parents":[2147483647,0,0,1,1,2,2,4,4,5,5,6,6,7,7,8,8,9,9,10,10,11,11,12,12],"right_children":[2,4,6,-1,8,10,12,14,16,18,20,22,24,-1,-1,-1,-1,-1,-1,-1,-1,-1,-1,-1,-1],"split_conditions":[1E0,-4.858615E-1,-3.2951117E-1,-7.199026E-2,1E0,-2.1797095E-1,-3.5058486E-1,-3.8486722E-1,-1.5058674E0,-4.5532668E-1,-1.1949815E0,4.529946E-1,1.8260951E-1,7.884116E-4,-4.017913E-2,-3.4731608E-2,1.715646E-2,-2.2298796E-2,-1E-1,-2.3384333E-2,4.4299975E-2,6.0070094E-2,-1.533921E-2,-1.1688453E-2,-7.949122E-2],"split_indices":[3,22,16,0,12,22,22,28,16,22,23,33,28,0,0,0,0,0,0,0,0,0,0,0,0],"split_type":[0,0,0,0,0,0,0,0,0,0,0,0,0,0,0,0,0,0,0,0,0,0,0,0,0],"sum_hessian":[7.388455E2,5.6856226E2,1.7028323E2,6.428448E0,5.6213385E2,5.5296265E1,1.1498698E2,2.6876047E2,2.9337338E2,3.3694813E1,2.160145E1,7.217567E1,4.2811306E1,2.1706033E2,5.1700115E1,9.748748E0,2.8362463E2,1.5652796E1,1.8042019E1,1.3584407E1,8.017043E0,1.9778646E1,5.2397022E1,3.0762606E1,1.20487E1],"tree_param":{"num_deleted":"0","num_feature":"37","num_nodes":"25","size_leaf_vector":"1"}},{"base_weights":[-1.2600099E-2,2.2474589E-2,-4.479751E-1,1.959453E-3,6.59347E-1,-1.1714601E-1,-7.5957984E-1,-4.306779E-1,2.4226101E-2,8.990658E-2,3.0446216E-1,-8.299815E-2,2.5047973E-1,-7.9947937E-4,-9.2027105E-2,-0E0,-8.8342234E-2,4.382601E-2,-0E0,4.226991E-2,-0E0,-3.534084E-3,7.255116E-2],"categories":[],"categories_nodes":[],"categories_segments":[],"categories_sizes":[],"default_left":[0,0,0,0,0,0,0,0,0,0,0,0,0,0,0,0,0,0,0,0,0,0,0],"id":51,"left_children":[1,3,5,7,9,11,13,15,17,-1,19,-1,21,-1,-1,-1,-1,-1,-1,-1,-1,-1,-1],"loss_changes":[1.2372178E1,9.329357E0,5.573598E0,6.779858E0,9.7842693E-1,1.1064897E1,2.6439056E0,6.9505343E0,7.123552E0,0E0,4.0704536E-1,0E0,4.628587E0,0E0,0E0,0E0,0E0,0E0,0E0,0E0,0E0,0E0,0E0],"parents":[2147483647,0,0,1,1,2,2,3,3,4,4,5,5,6,6,7,7,8,8,10,10,12,12],"right_children":[2,4,6,8,10,12,14,16,18,-1,20,-1,22,-1,-1,-1,-1,-1,-1,-1,-1,-1,-1],"split_conditions":[2E0,1.5788451E0,1.3898243E0,-1.7826388E0,1.733267E0,6.722515E-1,-1.9191821E-1,3E0,-1.4259565E0,8.990658E-2,1E0,-8.299815E-2,9.3531656E-1,-7.9947937E-4,-9.2027105E-2,-0E0,-8.8342234E-2,4.382601E-2,-0E0,4.226991E-2,-0E0,-3.534084E-3,7.255116E-2],"split_indices":[14,28,33,28,28,4,30,34,28,0,0,0,33,0,0,0,0,0,0,0,0,0,0],"split_type":[0,0,0,0,0,0,0,0,0,0,0,0,0,0,0,0,0,0,0,0,0,0,0],"sum_hessian":[7.190466E2,6.6506726E2,5.3979275E1,6.477772E2,1.7290077E1,2.9073341E1,2.4905931E1,2.7713549E1,6.2006366E2,6.807265E0,1.0482812E1,9.961854E0,1.9111488E1,5.8529825E0,1.905295E1,1.4905888E1,1.2807661E1,3.267751E1,5.8738617E2,5.430791E0,5.0520215E0,1.1773568E1,7.3379197E0],"tree_param":{"num_deleted":"0","num_feature":"37","num_nodes":"23","size_leaf_vector":"1"}},{"base_weights":[-8.183018E-3,-3.1678876E-1,2.1495968E-2,-5.8394825E-1,4.1896036E-1,5.135395E-2,-2.3398502E-1,-8.383799E-1,3.38023E-2,8.145092E-1,-2.8982138E-2,2.9333198E-1,1.8569574E-2,-7.715352E-1,-4.5272112E-2,-1.4592583E-2,-9.953854E-2,6.515791E-2,-5.4508943E-2,1E-1,2.4546277E-2,-2.4329871E-2,5.1423084E-2,3.7731865E-4,6.1368734E-2,-3.0351136E-2,-1E-1,1.586801E-2,-3.6372527E-2],"categories":[],"categories_nodes":[],"categories_segments":[],"categories_sizes":[],"default_left":[0,0,0,0,0,0,0,0,0,0,0,0,0,0,0,0,0,0,0,0,0,0,0,0,0,0,0,0,0],"id":52,"left_children":[1,3,5,7,9,11,13,15,17,19,-1,21,23,25,27,-1,-1,-1,-1,-1,-1,-1,-1,-1,-1,-1,-1,-1,-1],"loss_changes":[7.6962414E0,1.5298688E1,5.471957E0,9.511387E0,7.457186E0,4.9906683E0,7.060912E0,3.2626019E0,8.779003E0,9.453392E-1,0E0,9.546587E0,5.3112693E0,1.1492329E0,4.7160645E0,0E0,0E0,0E0,0E0,0E0,0E0,0E0,0E0,0E0,0E0,0E0,0E0,0E0,0E0],"parents":[2147483647,0,0,1,1,2,2,3,3,4,4,5,5,6,6,7,7,8,8,9,9,11,11,12,12,13,13,14,14],"right_children":[2,4,6,8,10,12,14,16,18,20,-1,22,24,26,28,-1,-1,-1,-1,-1,-1,-1,-1,-1,-1,-1,-1,-1,-1],"split_conditions":[1E0,1.5864005E0,1.0998731E0,1E0,1.4045279E0,2E0,1.2717644E0,-5.333502E-1,1E0,1.3478469E0,-2.8982138E-2,-1.3011833E-1,1.3214743E0,6.072709E-1,1.3031185E0,-1.4592583E-2,-9.953854E-2,6.515791E-2,-5.4508943E-2,1E-1,2.4546277E-2,-2.4329871E-2,5.1423084E-2,3.7731865E-4,6.1368734E-2,-3.0351136E-2,-1E-1,1.586801E-2,-3.6372527E-2],"split_indices":[34,18,23,25,23,34,23,23,12,28,0,30,28,28,16,0,0,0,0,0,0,0,0,0,0,0,0,0,0],"split_type":[0,0,0,0,0,0,0,0,0,0,0,0,0,0,0,0,0,0,0,0,0,0,0,0,0,0,0,0,0],"sum_hessian":[7.324741E2,6.552135E1,6.669528E2,4.9367283E1,1.615406E1,6.0209796E2,6.485483E1,3.560656E1,1.3760723E1,1.1082051E1,5.0720096E0,6.6305695E1,5.357923E2,1.3870042E1,5.0984787E1,8.471608E0,2.7134953E1,7.3709583E0,6.3897643E0,5.1190524E0,5.962999E0,1.7955805E1,4.8349888E1,5.263975E2,9.394778E0,8.129197E0,