{"learner":{"attributes":{"best_iteration":"89","best_score":"0.47538883162621404","scikit_learn":"{\"_estimator_type\": \"classifier\"}"},"feature_names":[],"feature_types":[],"gradient_booster":{"model":{"gbtree_model_param":{"num_parallel_tree":"1","num_trees":"120"},"iteration_indptr":[0,1,2,3,4,5,6,7,8,9,10,11,12,13,14,15,16,17,18,19,20,21,22,23,24,25,26,27,28,29,30,31,32,33,34,35,36,37,38,39,40,41,42,43,44,45,46,47,48,49,50,51,52,53,54,55,56,57,58,59,60,61,62,63,64,65,66,67,68,69,70,71,72,73,74,75,76,77,78,79,80,81,82,83,84,85,86,87,88,89,90,91,92,93,94,95,96,97,98,99,100,101,102,103,104,105,106,107,108,109,110,111,112,113,114,115,116,117,118,119,120],"tree_info":[0,0,0,0,0,0,0,0,0,0,0,0,0,0,0,0,0,0,0,0,0,0,0,0,0,0,0,0,0,0,0,0,0,0,0,0,0,0,0,0,0,0,0,0,0,0,0,0,0,0,0,0,0,0,0,0,0,0,0,0,0,0,0,0,0,0,0,0,0,0,0,0,0,0,0,0,0,0,0,0,0,0,0,0,0,0,0,0,0,0,0,0,0,0,0,0,0,0,0,0,0,0,0,0,0,0,0,0,0,0,0,0,0,0,0,0,0,0,0,0],"trees":[{"base_weights":[-1.7705463E-2,6.911761E-1,-1E0,9.943432E-1,-1.4100806E-1,-1E-1,-7.0969975E-1,3.4845096E-1,1E0,-7.1936584E-1,2.7398646E-1,-1E0,1.2054822E-1,-1.350103E-2,7.971894E-2,3.2656487E-2,1E-1,-1E-1,4.795715E-2,3.8526944E-4,1E-1,-2.1769542E-2,-1E-1,-4.4424534E-2,8.111864E-2],"categories":[],"categories_nodes":[],"categories_segments":[],"categories_sizes":[],"default_left":[0,0,0,0,0,0,0,0,0,0,0,0,0,0,0,0,0,0,0,0,0,0,0,0,0],"id":0,"left_children":[1,3,5,7,9,-1,11,13,15,17,19,21,23,-1,-1,-1,-1,-1,-1,-1,-1,-1,-1,-1,-1],"loss_changes":[1.0622441E3,1.9228644E2,6.9675293E0,5.4783936E1,5.1086594E1,0E0,3.4032036E1,3.1733381E1,6.951782E0,3.649944E1,2.7127909E1,1.9547653E0,1.6640625E1,0E0,0E0,0E0,0E0,0E0,0E0,0E0,0E0,0E0,0E0,0E0,0E0],"parents":[2147483647,0,0,1,1,2,2,3,3,4,4,6,6,7,7,8,8,9,9,10,10,11,11,12,12],"right_children":[2,4,6,8,10,-1,12,14,16,18,20,22,24,-1,-1,-1,-1,-1,-1,-1,-1,-1,-1,-1,-1],"split_conditions":[1E0,1E0,-4.195494E-1,7.185496E-1,-3.263845E-1,-1E-1,1.1095767E0,5.963094E-1,-4.187261E-1,1E0,6.610172E-1,-9.44422E-1,-4.0477097E-1,-1.350103E-2,7.971894E-2,3.2656487E-2,1E-1,-1E-1,4.795715E-2,3.8526944E-4,1E-1,-2.1769542E-2,-1E-1,-4.4424534E-2,8.111864E-2],"split_indices":[14,8,22,31,22,0,32,16,22,1,16,29,29,0,0,0,0,0,0,0,0,0,0,0,0],"split_type":[0,0,0,0,0,0,0,0,0,0,0,0,0,0,0,0,0,0,0,0,0,0,0,0,0],"sum_hessian":[1.1359602E3,7.521468E2,3.838134E2,5.519E2,2.0024683E2,2.7251422E2,1.11299164E2,1.3484615E2,4.1705383E2,8.405134E1,1.1619548E2,7.924565E1,3.2053513E1,6.451204E1,7.0334114E1,2.0708529E1,3.963453E2,6.697709E1,1.7074247E1,9.068127E1,2.5514214E1,7.018562E0,7.222709E1,1.7229263E1,1.4824247E1],"tree_param":{"num_deleted":"0","num_feature":"36","num_nodes":"25","size_leaf_vector":"1"}},{"base_weights":[2.5533722E-4,-1E0,6.3500786E-1,-1E-1,-5.946273E-1,8.956299E-1,-1.15779035E-1,-2.1002044E-1,-1E0,3.9860165E-1,1E0,-5.5527395E-1,2.680269E-1,-7.6348125E-3,-1E-1,-1E-1,-2.8132722E-2,-7.342254E-2,5.8167834E-2,4.971155E-2,1E-1,-8.255064E-2,2.1135122E-2,-1.2653643E-2,6.694021E-2],"categories":[],"categories_nodes":[],"categories_segments":[],"categories_sizes":[],"default_left":[0,0,0,0,0,0,0,0,0,0,0,0,0,0,0,0,0,0,0,0,0,0,0,0,0],"id":1,"left_children":[1,3,5,-1,7,9,11,13,15,17,19,21,23,-1,-1,-1,-1,-1,-1,-1,-1,-1,-1,-1,-1],"loss_changes":[8.9932404E2,1.5072571E1,1.526932E2,0E0,2.268647E1,6.720151E1,3.5664295E1,8.148733E0,7.267494E-1,4.6372375E1,1.4068573E1,2.1587063E1,1.8661392E1,0E0,0E0,0E0,0E0,0E0,0E0,0E0,0E0,0E0,0E0,0E0,0E0],"parents":[2147483647,0,0,1,1,2,2,4,4,5,5,6,6,7,7,8,8,9,9,10,10,11,11,12,12],"right_children":[2,4,6,-1,8,10,12,14,16,18,20,22,24,-1,-1,-1,-1,-1,-1,-1,-1,-1,-1,-1,-1],"split_conditions":[2E0,9.463955E-1,1E0,-1E-1,1.4045279E0,-2.2156689E-1,-2.7594185E-1,1.205658E0,-4.2591193E-1,1E0,1E0,1E0,3E0,-7.6348125E-3,-1E-1,-1E-1,-2.8132722E-2,-7.342254E-2,5.8167834E-2,4.971155E-2,1E-1,-8.255064E-2,2.1135122E-2,-1.2653643E-2,6.694021E-2],"split_indices":[33,16,8,0,23,22,22,28,22,21,21,25,33,0,0,0,0,0,0,0,0,0,0,0,0],"split_type":[0,0,0,0,0,0,0,0,0,0,0,0,0,0,0,0,0,0,0,0,0,0,0,0,0],"sum_hessian":[1.1596631E3,3.9020126E2,7.694619E2,2.8337335E2,1.0682791E2,5.718876E2,1.9757431E2,6.744607E1,3.9381847E1,2.0936632E2,3.6252127E2,9.290317E1,1.0467115E2,6.1009098E1,6.4369707E0,3.3319572E1,6.062274E0,2.7530737E1,1.8183559E2,6.551599E1,2.9700528E2,6.954103E1,2.3362135E1,5.2217705E1,5.245344E1],"tree_param":{"num_deleted":"0","num_feature":"36","num_nodes":"25","size_leaf_vector":"1"}},{"base_weights":[1.81416E-2,-1E0,5.5604255E-1,-1E0,6.411545E-1,-1.2026669E-2,9.1066915E-1,-1E0,-1.6086893E-1,9.991473E-2,-0E0,-2.3414129E-1,7.1500283E-1,3.416316E-1,1E0,-1E-1,-7.14007E-2,-8.095721E-2,2.1709984E-2,-5.605675E-2,5.1060107E-2,1.834344E-3,8.937412E-2,-4.437466E-3,7.2054215E-2,5.6305557E-2,1E-1],"categories":[],"categories_nodes":[],"categories_segments":[],"categories_sizes":[],"default_left":[0,0,0,0,0,0,0,0,0,0,0,0,0,0,0,0,0,0,0,0,0,0,0,0,0,0,0],"id":2,"left_children":[1,3,5,7,9,11,13,15,17,-1,-1,19,21,23,25,-1,-1,-1,-1,-1,-1,-1,-1,-1,-1,-1,-1],"loss_changes":[7.0593414E2,4.0858093E1,1.59582E2,2.1733917E1,3.8621845E0,5.0527115E1,4.6189392E1,3.7423096E0,1.1524413E1,0E0,0E0,5.919082E1,8.1852455E0,1.9534248E1,1.072934E1,0E0,0E0,0E0,0E0,0E0,0E0,0E0,0E0,0E0,0E0,0E0,0E0],"parents":[2147483647,0,0,1,1,2,2,3,3,4,4,5,5,6,6,7,7,8,8,11,11,12,12,13,13,14,14],"right_children":[2,4,6,8,10,12,14,16,18,-1,-1,20,22,24,26,-1,-1,-1,-1,-1,-1,-1,-1,-1,-1,-1,-1],"split_conditions":[-4.18174E-1,2.1027951E0,-1.2530497E-1,7.185496E-1,8.5595405E-1,2.962485E-1,7.185496E-1,-3.9905024E-1,-5.7052994E-1,9.991473E-2,-0E0,1.1587701E0,-6.950003E-1,1E0,1E0,-1E-1,-7.14007E-2,-8.095721E-2,2.1709984E-2,-5.605675E-2,5.1060107E-2,1.834344E-3,8.937412E-2,-4.437466E-3,7.2054215E-2,5.6305557E-2,1E-1],"split_indices":[22,29,29,31,23,22,31,29,18,0,0,16,29,13,21,0,0,0,0,0,0,0,0,0,0,0,0],"split_type":[0,0,0,0,0,0,0,0,0,0,0,0,0,0,0,0,0,0,0,0,0,0,0,0,0,0,0],"sum_hessian":[1.1472142E3,3.6526645E2,7.8194775E2,3.5257278E2,1.2693667E1,3.0019064E2,4.817571E2,3.184831E2,3.4089714E1,7.2021456E0,5.4915223E0,2.3203351E2,6.815715E1,1.20708435E2,3.6104868E2,2.4328381E2,7.5199265E1,1.26833515E1,2.1406364E1,1.6260143E2,6.943208E1,1.5508906E1,5.264824E1,5.9361713E1,6.134672E1,6.925085E1,2.9179782E2],"tree_param":{"num_deleted":"0","num_feature":"36","num_nodes":"27","size_leaf_vector":"1"}},{"base_weights":[7.115346E-3,5.5908376E-1,-1E0,1E0,3.1494156E-1,-7.332757E-1,-1E-1,1.09830415E-2,1E-1,5.257976E-1,-1.2970865E-1,-1E0,-2.1164164E-1,1E-1,3.9273493E-2,5.152283E-2,-2.7529126E-2,-5.992822E-3,-1E-1,-6.640255E-2,-0E0],"categories":[],"categories_nodes":[],"categories_segments":[],"categories_sizes":[],"default_left":[0,0,0,0,0,0,0,0,0,0,0,0,0,0,0,0,0,0,0,0,0],"id":3,"left_children":[1,3,5,7,9,11,-1,-1,-1,13,15,17,19,-1,-1,-1,-1,-1,-1,-1,-1],"loss_changes":[7.1174445E2,1.1460091E2,1.108847E1,2.3095093E0,5.4616905E1,4.2559425E1,0E0,0E0,0E0,2.8812347E1,1.857556E1,5.6565704E0,1.0465662E1,0E0,0E0,0E0,0E0,0E0,0E0,0E0,0E0],"parents":[2147483647,0,0,1,1,2,2,3,3,4,4,5,5,9,9,10,10,11,11,12,12],"right_children":[2,4,6,8,10,12,-1,-1,-1,14,16,18,20,-1,-1,-1,-1,-1,-1,-1,-1],"split_conditions":[1E0,1E0,2E0,-5.058363E-1,1E0,2E0,-1E-1,1.09830415E-2,1E-1,-1.2388297E0,-1.2781827E0,-8.109394E-1,-6.507603E-1,1E-1,3.9273493E-2,5.152283E-2,-2.7529126E-2,-5.992822E-3,-1E-1,-6.640255E-2,-0E0],"split_indices":[14,35,14,29,11,13,0,0,0,23,23,29,29,0,0,0,0,0,0,0,0],"split_type":[0,0,0,0,0,0,0,0,0,0,0,0,0,0,0,0,0,0,0,0,0],"sum_hessian":[1.1472375E3,7.7072314E2,3.765144E2,2.0313182E2,5.675913E2,1.8947601E2,1.8703838E2,5.685276E0,1.9744653E2,3.8629272E2,1.812986E2,9.618427E1,9.329175E1,6.724501E1,3.190477E2,3.1187881E1,1.5011072E2,8.791356E0,8.7392914E1,2.936377E1,6.392798E1],"tree_param":{"num_deleted":"0","num_feature":"36","num_nodes":"21","size_leaf_vector":"1"}},{"base_weights":[-1.2040289E-2,-1E0,4.4164068E-1,-4.5155978E-1,-1E0,-1.06705405E-1,7.3607785E-1,-7.57266E-2,-9.720371E-1,8.998974E-3,-1E0,-7.694122E-1,1.2555651E-1,8.712944E-1,-2.4779305E-1,3.4172203E-2,-5.313765E-2,-0E0,-1E-1,-1E-1,-3.725044E-2,-2.1886146E-2,-9.2174985E-2,2.0911694E-2,-1E-1,5.7003766E-2,1E-1,3.0834705E-2,-7.598789E-2],"categories":[],"categories_nodes":[],"categories_segments":[],"categories_sizes":[],"default_left":[0,0,0,0,0,0,0,0,0,0,0,0,0,0,0,0,0,0,0,0,0,0,0,0,0,0,0,0,0],"id":4,"left_children":[1,3,5,7,9,11,13,15,17,-1,19,21,23,25,27,-1,-1,-1,-1,-1,-1,-1,-1,-1,-1,-1,-1,-1,-1],"loss_changes":[5.326404E2,3.2179688E1,1.2999382E2,2.293907E1,1.063855E1,4.5267036E1,7.0853E1,1.5726381E1,3.5652657E0,0E0,4.3792725E-1,5.3753967E0,2.5366932E1,2.7788208E1,2.0605532E1,0E0,0E0,0E0,0E0,0E0,0E0,0E0,0E0,0E0,0E0,0E0,0E0,0E0,0E0],"parents":[2147483647,0,0,1,1,2,2,3,3,4,4,5,5,6,6,7,7,8,8,10,10,11,11,12,12,13,13,14,14],"right_children":[2,4,6,8,10,12,14,16,18,-1,20,22,24,26,28,-1,-1,-1,-1,-1,-1,-1,-1,-1,-1,-1,-1,-1,-1],"split_conditions":[-4.2245933E-1,1E0,7.185496E-1,1E0,-9.191278E-1,1E0,2E0,1E0,-9.689998E-1,8.998974E-3,-4.24683E-1,-8.315231E-1,2E0,5.6475542E-2,-1.2780983E0,3.4172203E-2,-5.313765E-2,-0E0,-1E-1,-1E-1,-3.725044E-2,-2.1886146E-2,-9.2174985E-2,2.0911694E-2,-1E-1,5.7003766E-2,1E-1,3.0834705E-2,-7.598789E-2],"split_indices":[22,11,31,8,28,21,7,19,29,0,22,23,7,22,23,0,0,0,0,0,0,0,0,0,0,0,0,0,0],"split_type":[0,0,0,0,0,0,0,0,0,0,0,0,0,0,0,0,0,0,0,0,0,0,0,0,0,0,0,0,0],"sum_hessian":[1.1486692E3,3.553623E2,7.933069E2,1.15281E2,2.400813E2,2.7641092E2,5.1689594E2,6.9388405E1,4.5892597E1,6.8029294E0,2.3327837E2,7.165103E1,2.047599E2,4.555355E2,6.1360466E1,3.5327827E1,3.4060574E1,5.19034E0,4.0702255E1,2.2589957E2,7.3787966E0,1.8007906E1,5.3643127E1,1.9577458E2,8.985316E0,2.0338954E2,2.5214597E2,2.8860283E1,3.2500183E1],"tree_param":{"num_deleted":"0","num_feature":"36","num_nodes":"29","size_leaf_vector":"1"}},{"base_weights":[-2.9210547E-2,-1E0,4.3305957E-1,-4.9525234E-1,-1E0,9.039147E-1,8.515744E-2,-1.538186E-1,-9.2537546E-1,-1E-1,-5.594893E-1,5.314865E-1,1E0,3.142866E-1,-2.6231855E-1,-5.5288624E-2,2.6128015E-2,-1E-1,-4.4308644E-2,2.516186E-2,-9.461718E-2,-9.60908E-3,6.352919E-2,-0E0,1E-1,4.1309274E-3,5.7861913E-2,3.382776E-2,-4.0509548E-2],"categories":[],"categories_nodes":[],"categories_segments":[],"categories_sizes":[],"default_left":[0,0,0,0,0,0,0,0,0,0,0,0,0,0,0,0,0,0,0,0,0,0,0,0,0,0,0,0,0],"id":5,"left_children":[1,3,5,7,9,11,13,15,17,-1,19,21,23,25,27,-1,-1,-1,-1,-1,-1,-1,-1,-1,-1,-1,-1,-1,-1],"loss_changes":[5.282594E2,2.5862335E1,1.2664758E2,1.644675E1,8.927002E-1,2.40159E1,3.6880363E1,1.2978492E1,2.4522667E0,0E0,8.546785E0,9.899738E0,7.372696E0,1.9621593E1,1.6518826E1,0E0,0E0,0E0,0E0,0E0,0E0,0E0,0E0,0E0,0E0,0E0,0E0,0E0,0E0],"parents":[2147483647,0,0,1,1,2,2,3,3,4,4,5,5,6,6,7,7,8,8,10,10,11,11,12,12,13,13,14,14],"right_children":[2,4,6,8,10,12,14,16,18,-1,20,22,24,26,28,-1,-1,-1,-1,-1,-1,-1,-1,-1,-1,-1,-1,-1,-1],"split_conditions":[-4.187261E-1,1E0,3E0,1E0,2.3364902E0,7.722304E-2,1E0,2E0,-2.8972167E-1,-1E-1,2.4535623E0,1E0,-5.1854897E-1,-2.2156689E-1,-9.941346E-1,-5.5288624E-2,2.6128015E-2,-1E-1,-4.4308644E-2,2.516186E-2,-9.461718E-2,-9.60908E-3,6.352919E-2,-0E0,1E-1,4.1309274E-3,5.7861913E-2,3.382776E-2,-4.0509548E-2],"split_indices":[22,11,35,8,17,22,8,15,29,0,32,7,29,22,17,0,0,0,0,0,0,0,0,0,0,0,0,0,0],"split_type":[0,0,0,0,0,0,0,0,0,0,0,0,0,0,0,0,0,0,0,0,0,0,0,0,0,0,0,0,0],"sum_hessian":[1.1255964E3,3.542771E2,7.713194E2,1.1132497E2,2.4295215E2,3.2516553E2,4.4615384E2,6.487056E1,4.645441E1,2.255048E2,1.7447329E1,1.3367468E2,1.9149086E2,2.7071234E2,1.7544148E2,3.3963715E1,3.0906845E1,3.0119307E1,1.6335104E1,5.0231695E0,1.2424159E1,1.7626324E1,1.16048355E2,5.4062033E0,1.8608466E2,1.3617723E2,1.3453513E2,3.1825191E1,1.436163E2],"tree_param":{"num_deleted":"0","num_feature":"36","num_nodes":"29","size_leaf_vector":"1"}},{"base_weights":[-1.2528035E-2,4.690928E-1,-1E0,1E0,2.6900166E-1,-5.737654E-1,-1E-1,1E0,4.03023E-1,-1.6162342E-1,4.1524264E-1,-3.0119097E-1,-1E0,2.5291413E-2,1E-1,-3.707742E-3,7.466256E-2,4.7268134E-2,-3.5979416E-2,1.2317064E-2,5.7662655E-2,-0E0,-5.9672225E-2,-1E-1,-0E0],"categories":[],"categories_nodes":[],"categories_segments":[],"categories_sizes":[],"default_left":[0,0,0,0,0,0,0,0,0,0,0,0,0,0,0,0,0,0,0,0,0,0,0,0,0],"id":6,"left_children":[1,3,5,7,9,11,-1,13,15,17,19,21,23,-1,-1,-1,-1,-1,-1,-1,-1,-1,-1,-1,-1],"loss_changes":[5.4010675E2,8.092398E1,1.8385101E1,4.2929535E0,3.596948E1,1.5705494E1,0E0,3.4128113E0,4.703122E0,1.9225277E1,1.937207E1,7.809511E0,4.346386E0,0E0,0E0,0E0,0E0,0E0,0E0,0E0,0E0,0E0,0E0,0E0,0E0],"parents":[2147483647,0,0,1,1,2,2,3,3,4,4,5,5,7,7,8,8,9,9,10,10,11,11,12,12],"right_children":[2,4,6,8,10,12,-1,14,16,18,20,22,24,-1,-1,-1,-1,-1,-1,-1,-1,-1,-1,-1,-1],"split_conditions":[1E0,1E0,1E0,1E0,-5.7245046E-1,2E0,-1E-1,-1.357897E0,-8.3959323E-1,-1.240918E0,1E0,1E0,1.6029335E0,2.5291413E-2,1E-1,-3.707742E-3,7.466256E-2,4.7268134E-2,-3.5979416E-2,1.2317064E-2,5.7662655E-2,-0E0,-5.9672225E-2,-1E-1,-0E0],"split_indices":[14,35,8,8,29,14,0,28,17,4,7,19,23,0,0,0,0,0,0,0,0,0,0,0,0],"split_type":[0,0,0,0,0,0,0,0,0,0,0,0,0,0,0,0,0,0,0,0,0,0,0,0,0],"sum_hessian":[1.1225922E3,7.550007E2,3.6759146E2,2.0176627E2,5.5323444E2,1.1489833E2,2.5269315E2,1.827581E2,1.9008165E1,1.3846329E2,4.1477112E2,7.886318E1,3.6035145E1,1.0375014E1,1.7238309E2,7.8400936E0,1.1168073E1,3.1100435E1,1.07362854E2,1.5107643E2,2.636947E2,3.998996E1,3.8873222E1,3.055762E1,5.4775248E0],"tree_param":{"num_deleted":"0","num_feature":"36","num_nodes":"25","size_leaf_vector":"1"}},{"base_weights":[-7.3393085E-3,4.526044E-1,-9.706232E-1,6.330323E-1,-1.53463315E-2,-5.2912587E-1,-1E0,4.022606E-1,9.6748376E-1,-3.824711E-1,2.4492484E-1,-9.172566E-1,-2.3018356E-1,-1E-1,-7.0365614E-1,2.008467E-2,9.514523E-2,1E-1,3.9102033E-2,-0E0,-5.723361E-2,-2.1659018E-2,6.2003043E-2,-0E0,-1E-1,8.46608E-3,-8.85513E-2,-0E0,-9.0853654E-2],"categories":[],"categories_nodes":[],"categories_segments":[],"categories_sizes":[],"default_left":[0,0,0,0,0,0,0,0,0,0,0,0,0,0,0,0,0,0,0,0,0,0,0,0,0,0,0,0,0],"id":7,"left_children":[1,3,5,7,9,11,13,15,17,19,21,23,25,-1,27,-1,-1,-1,-1,-1,-1,-1,-1,-1,-1,-1,-1,-1,-1],"loss_changes":[4.896633E2,6.3696228E1,2.3256012E1,4.0793304E1,2.1323967E1,1.350613E1,3.927307E-1,3.570603E1,3.871704E0,6.896985E0,2.275519E1,5.406986E0,1.718396E1,0E0,4.431143E0,0E0,0E0,0E0,0E0,0E0,0E0,0E0,0E0,0E0,0E0,0E0,0E0,0E0,0E0],"parents":[2147483647,0,0,1,1,2,2,3,3,4,4,5,5,6,6,7,7,8,8,9,9,10,10,11,11,12,12,14,14],"right_children":[2,4,6,8,10,12,14,16,18,20,22,24,26,-1,28,-1,-1,-1,-1,-1,-1,-1,-1,-1,-1,-1,-1,-1,-1],"split_conditions":[1E0,1E0,1E0,1.6494219E-1,-3.1484342E-1,5.664442E-1,1.2732534E0,1.024377E0,1E0,-3.988322E-1,3E0,-6.254515E-1,2E0,-1E-1,1.3661672E0,2.008467E-2,9.514523E-2,1E-1,3.9102033E-2,-0E0,-5.723361E-2,-2.1659018E-2,6.2003043E-2,-0E0,-1E-1,8.46608E-3,-8.85513E-2,-0E0,-9.0853654E-2],"split_indices":[14,8,8,22,22,16,16,16,11,28,33,23,14,0,16,0,0,0,0,0,0,0,0,0,0,0,0,0,0],"split_type":[0,0,0,0,0,0,0,0,0,0,0,0,0,0,0,0,0,0,0,0,0,0,0,0,0,0,0,0,0],"sum_hessian":[1.0936504E3,7.4023096E2,3.5341943E2,5.3527594E2,2.0495503E2,1.1727415E2,2.3614526E2,3.211072E2,2.1416872E2,8.622862E1,1.1872642E2,4.777014E1,6.9504005E1,2.0414995E2,3.199532E1,2.3827359E2,8.283361E1,1.9661076E2,1.7557941E1,2.8932024E1,5.72966E1,5.2415596E1,6.631082E1,6.7963843E0,4.0973755E1,4.7093994E1,2.2410013E1,8.731721E0,2.32636E1],"tree_param":{"num_deleted":"0","num_feature":"36","num_nodes":"29","size_leaf_vector":"1"}},{"base_weights":[-1.2513696E-2,3.851535E-1,-8.422489E-1,7.096851E-1,1.0678673E-1,-5.0848407E-1,-1E-1,-1.265852E-1,8.255819E-1,-2.1434817E-1,4.0441367E-1,-1E0,-1.7252918E-1,-4.4929918E-2,5.0918497E-2,8.746742E-2,4.065505E-2,-2.1184327E-3,-9.2370145E-2,3.0139878E-2,8.748429E-2,-1E-1,-8.653721E-4,-5.3685736E-2,-3.3323624E-4],"categories":[],"categories_nodes":[],"categories_segments":[],"categories_sizes":[],"default_left":[0,0,0,0,0,0,0,0,0,0,0,0,0,0,0,0,0,0,0,0,0,0,0,0,0],"id":8,"left_children":[1,3,5,7,9,11,-1,13,15,17,19,21,23,-1,-1,-1,-1,-1,-1,-1,-1,-1,-1,-1,-1],"loss_changes":[3.6771017E2,6.734766E1,3.2518494E1,3.461116E1,4.0185852E1,3.2051342E1,0E0,1.0760986E1,5.138214E0,2.7188915E1,1.0161655E1,3.4550476E0,7.2897406E0,0E0,0E0,0E0,0E0,0E0,0E0,0E0,0E0,0E0,0E0,0E0,0E0],"parents":[2147483647,0,0,1,1,2,2,3,3,4,4,5,5,7,7,8,8,9,9,10,10,11,11,12,12],"right_children":[2,4,6,8,10,12,-1,14,16,18,20,22,24,-1,-1,-1,-1,-1,-1,-1,-1,-1,-1,-1,-1],"split_conditions":[1E0,3E0,2E0,-4.2315748E-1,-2.2156689E-1,5.079353E-1,-1E-1,2E0,2E0,3E0,7.2572523E-1,8.239045E-1,-4.328193E-1,-4.4929918E-2,5.0918497E-2,8.746742E-2,4.065505E-2,-2.1184327E-3,-9.2370145E-2,3.0139878E-2,8.748429E-2,-1E-1,-8.653721E-4,-5.3685736E-2,-3.3323624E-4],"split_indices":[14,35,14,22,22,18,0,12,8,15,16,29,22,0,0,0,0,0,0,0,0,0,0,0,0],"split_type":[0,0,0,0,0,0,0,0,0,0,0,0,0,0,0,0,0,0,0,0,0,0,0,0,0],"sum_hessian":[1.101698E3,7.446676E2,3.5703043E2,3.4073416E2,4.039334E2,1.8062755E2,1.7640288E2,4.0401123E1,3.0033304E2,1.9294666E2,2.1098676E2,6.747793E1,1.1314962E2,2.8230797E1,1.2170327E1,2.6475418E2,3.557886E1,1.5437758E2,3.856906E1,1.7752034E2,3.3466415E1,6.190978E1,5.56815E0,3.263059E1,8.0519035E1],"tree_param":{"num_deleted":"0","num_feature":"36","num_nodes":"25","size_leaf_vector":"1"}},{"base_weights":[-4.4467833E-2,-8.916096E-1,2.8693864E-1,-3.9775547E-1,-1E-1,-9.5746405E-2,5.5371803E-1,-1.3018864E-1,-7.5001794E-1,6.6106394E-2,-5.775789E-1,7.849444E-2,7.090967E-1,-9.656059E-2,3.3365157E-3,-8.874848E-2,-0E0,-5.6866467E-2,2.2755224E-2,-8.004712E-2,-1.6178548E-2,-1E-1,1.7793115E-2,1.4155376E-2,8.348986E-2],"categories":[],"categories_nodes":[],"categories_segments":[],"categories_sizes":[],"default_left":[0,0,0,0,0,0,0,0,0,0,0,0,0,0,0,0,0,0,0,0,0,0,0,0,0],"id":9,"left_children":[1,3,5,7,-1,9,11,13,15,17,19,21,23,-1,-1,-1,-1,-1,-1,-1,-1,-1,-1,-1,-1],"loss_changes":[2.979204E2,2.610495E1,7.834499E1,8.354418E0,0E0,2.5874905E1,3.2543137E1,1.0259436E1,4.602005E0,2.5198807E1,6.9398136E0,1.4629409E1,2.3218735E1,0E0,0E0,0E0,0E0,0E0,0E0,0E0,0E0,0E0,0E0,0E0,0E0],"parents":[2147483647,0,0,1,1,2,2,3,3,5,5,6,6,7,7,8,8,9,9,10,10,11,11,12,12],"right_children":[2,4,6,8,-1,10,12,14,16,18,20,22,24,-1,-1,-1,-1,-1,-1,-1,-1,-1,-1,-1,-1],"split_conditions":[-4.2591193E-1,1E0,-1.0835487E-1,1E0,-1E-1,1E0,7.185496E-1,1E0,1.4325342E0,1E0,4.7353017E-1,-1.3259035E0,1E0,-9.656059E-2,3.3365157E-3,-8.874848E-2,-0E0,-5.6866467E-2,2.2755224E-2,-8.004712E-2,-1.6178548E-2,-1E-1,1.7793115E-2,1.4155376E-2,8.348986E-2],"split_indices":[22,8,29,11,0,3,31,21,16,21,16,28,21,0,0,0,0,0,0,0,0,0,0,0,0],"split_type":[0,0,0,0,0,0,0,0,0,0,0,0,0,0,0,0,0,0,0,0,0,0,0,0,0],"sum_hessian":[1.0471102E3,2.943441E2,7.527661E2,8.781086E1,2.0653323E2,3.081994E2,4.4456674E2,5.3074894E1,3.4735962E1,2.3044171E2,7.775769E1,1.1186756E2,3.3269916E2,8.084815E0,4.4990078E1,2.9730717E1,5.0052476E0,4.4446953E1,1.8599475E2,4.7851048E1,2.9906643E1,6.5715027E0,1.0529606E2,6.257907E1,2.701201E2],"tree_param":{"num_deleted":"0","num_feature":"36","num_nodes":"25","size_leaf_vector":"1"}},{"base_weights":[-4.8070073E-2,-7.694426E-1,2.9228872E-1,-9.478923E-1,-3.940863E-1,-2.1189643E-1,4.2574596E-1,-1E0,-3.9991957E-1,-1E-1,-2.4428108E-1,3.262331E-1,-4.2030862E-1,2.362809E-1,6.962015E-1,-6.18917E-2,-1E-1,-0E0,-7.915006E-2,-4.325937E-2,3.168463E-2,-2.6538352E-2,7.3138595E-2,-1.3736193E-2,-7.129284E-2,-3.507979E-2,3.889706E-2,8.337859E-2,3.9829534E-2],"categories":[],"categories_nodes":[],"categories_segments":[],"categories_sizes":[],"default_left":[0,0,0,0,0,0,0,0,0,0,0,0,0,0,0,0,0,0,0,0,0,0,0,0,0,0,0,0,0],"id":10,"left_children":[1,3,5,7,9,11,13,15,17,-1,19,21,23,25,27,-1,-1,-1,-1,-1,-1,-1,-1,-1,-1,-1,-1,-1,-1],"loss_changes":[2.5564711E2,2.1255249E1,4.8170635E1,6.003769E0,1.2760586E1,1.7837465E1,2.8219086E1,3.802185E0,5.735737E0,0E0,1.1795847E1,1.1929047E1,8.724213E0,3.1068815E1,8.424492E0,0E0,0E0,0E0,0E0,0E0,0E0,0E0,0E0,0E0,0E0,0E0,0E0,0E0,0E0],"parents":[2147483647,0,0,1,1,2,2,3,3,4,4,5,5,6,6,7,7,8,8,10,10,11,11,12,12,13,13,14,14],"right_children":[2,4,6,8,10,12,14,16,18,-1,20,22,24,26,28,-1,-1,-1,-1,-1,-1,-1,-1,-1,-1,-1,-1,-1,-1],"split_conditions":[2E0,-4.2245933E-1,-4.8380113E-1,2.1867938E0,-6.679832E-1,1E0,1.153618E-1,1E0,1.4872872E0,-1E-1,-6.2524766E-2,7.185496E-1,1E0,-1.718894E-1,3E0,-6.18917E-2,-1E-1,-0E0,-7.915006E-2,-4.325937E-2,3.168463E-2,-2.6538352E-2,7.3138595E-2,-1.3736193E-2,-7.129284E-2,-3.507979E-2,3.889706E-2,8.337859E-2,3.9829534E-2],"split_indices":[33,22,29,32,16,5,22,11,16,0,31,31,0,16,35,0,0,0,0,0,0,0,0,0,0,0,0,0,0],"split_type":[0,0,0,0,0,0,0,0,0,0,0,0,0,0,0,0,0,0,0,0,0,0,0,0,0,0,0,0,0],"sum_hessian":[1.0271918E3,3.2942004E2,6.977717E2,2.1939961E2,1.1002044E2,1.4422789E2,5.535439E2,1.9445999E2,2.4939625E1,1.363955E1,9.638089E1,3.860898E1,1.0561892E2,3.2988843E2,2.2365544E2,4.320148E1,1.512585E2,1.215658E1,1.2783044E1,7.38405E1,2.2540392E1,1.4970439E1,2.3638538E1,5.6928524E1,4.8690395E1,6.6202255E1,2.6368616E2,1.4823875E2,7.541669E1],"tree_param":{"num_deleted":"0","num_feature":"36","num_nodes":"29","size_leaf_vector":"1"}},{"base_weights":[-3.528995E-2,2.7507758E-1,-6.7218673E-1,4.4080356E-1,-1.6587804E-1,-1E0,-3.6972743E-1,8.756315E-1,3.3715922E-1,-1E-1,-1.16757646E-1,-1E0,-2.3669311E-1,-5.5229876E-2,-7.625852E-1,-0E0,9.7494595E-2,4.4608694E-3,5.5214513E-2,4.9916063E-3,-3.9095055E-2,-2.0416453E-2,-1E-1,-9.572717E-2,5.6244727E-2,-2.656586E-2,1.9473054E-2,-4.552012E-2,-1E-1],"categories":[],"categories_nodes":[],"categories_segments":[],"categories_sizes":[],"default_left":[0,0,0,0,0,0,0,0,0,0,0,0,0,0,0,0,0,0,0,0,0,0,0,0,0,0,0,0,0],"id":11,"left_children":[1,3,5,7,9,11,13,15,17,-1,19,21,23,25,27,-1,-1,-1,-1,-1,-1,-1,-1,-1,-1,-1,-1,-1,-1],"loss_changes":[2.0259409E2,5.082452E1,3.250064E1,2.2135223E1,8.213111E0,5.2414246E0,2.2047684E1,8.439293E0,2.5431862E1,0E0,9.202725E0,3.9147797E0,1.2703501E1,6.3868303E0,5.650055E0,0E0,0E0,0E0,0E0,0E0,0E0,0E0,0E0,0E0,0E0,0E0,0E0,0E0,0E0],"parents":[2147483647,0,0,1,1,2,2,3,3,4,4,5,5,6,6,7,7,8,8,10,10,11,11,12,12,13,13,14,14],"right_children":[2,4,6,8,10,12,14,16,18,-1,20,22,24,26,28,-1,-1,-1,-1,-1,-1,-1,-1,-1,-1,-1,-1,-1,-1],"split_conditions":[1E0,1E0,1.6658252E-1,-1.240918E0,-1.512504E0,1.6174506E0,2E0,-1.760102E0,3.9886722E-1,-1E-1,-6.596326E-1,-9.465507E-1,2E0,1.3669934E0,1.165232E0,-0E0,9.7494595E-2,4.4608694E-3,5.5214513E-2,4.9916063E-3,-3.9095055E-2,-2.0416453E-2,-1E-1,-9.572717E-2,5.6244727E-2,-2.656586E-2,1.9473054E-2,-4.552012E-2,-1E-1],"split_indices":[14,11,16,4,16,28,14,28,16,0,23,28,15,32,28,0,0,0,0,0,0,0,0,0,0,0,0,0,0],"split_type":[0,0,0,0,0,0,0,0,0,0,0,0,0,0,0,0,0,0,0,0,0,0,0,0,0,0,0,0,0],"sum_hessian":[1.009793E3,6.786465E2,3.3114658E2,4.9491083E2,1.8373564E2,1.5465158E2,1.7649501E2,9.0535255E1,4.0437558E2,6.8667455E0,1.768689E2,1.416027E2,1.3048872E1,1.0070414E2,7.579086E1,9.222667E0,8.1312584E1,1.7428156E2,2.3009401E2,1.08751144E2,6.811775E1,9.851895E0,1.3175081E2,7.311627E0,5.7372456E0,5.6779472E1,4.3924667E1,4.0619007E1,3.5171856E1],"tree_param":{"num_deleted":"0","num_feature":"36","num_nodes":"29","size_leaf_vector":"1"}},{"base_weights":[-4.4358227E-2,-6.6301453E-1,2.4214803E-1,-9.5040536E-1,-3.1568074E-1,5.094009E-2,5.966303E-1,-6.048332E-1,-1E0,-1E0,-1.6554007E-1,-2.3113896E-1,2.6233995E-1,2.1718167E-1,7.6828223E-1,-9.351281E-2,-3.609578E-3,-1E-1,-3.8482513E-2,-1E-1,-2.6487619E-2,-2.9780036E-2,1.8299194E-2,-6.430063E-3,-5.8994997E-2,-4.8696153E-2,3.2063134E-2,-6.214651E-3,5.758211E-2,2.4845826E-2,8.81672E-2],"categories":[],"categories_nodes":[],"categories_segments":[],"categories_sizes":[],"default_left":[0,0,0,0,0,0,0,0,0,0,0,0,0,0,0,0,0,0,0,0,0,0,0,0,0,0,0,0,0,0,0],"id":12,"left_children":[1,3,5,7,9,11,13,15,17,19,21,23,25,27,29,-1,-1,-1,-1,-1,-1,-1,-1,-1,-1,-1,-1,-1,-1,-1,-1],"loss_changes":[1.8048264E2,3.1236633E1,4.665404E1,3.413498E0,1.6731411E1,2.7881878E1,1.5001526E1,7.547468E0,1.4259338E0,4.1773605E-1,6.7411885E0,1.1602933E1,1.2605192E1,9.3339405E0,8.686729E0,0E0,0E0,0E0,0E0,0E0,0E0,0E0,0E0,0E0,0E0,0E0,0E0,0E0,0E0,0E0,0E0],"parents":[2147483647,0,0,1,1,2,2,3,3,4,4,5,5,6,6,7,7,8,8,9,9,10,10,11,11,12,12,13,13,14,14],"right_children":[2,4,6,8,10,12,14,16,18,20,22,24,26,28,30,-1,-1,-1,-1,-1,-1,-1,-1,-1,-1,-1,-1,-1,-1,-1,-1],"split_conditions":[2E0,-4.328193E-1,1.6494219E-1,1E0,-6.3583076E-1,2.9599833E-1,3E0,1E0,-3.863376E-1,-3.9650774E-1,-3.8570523E-1,3E0,-5.058363E-1,1.6104012E0,1E0,-9.351281E-2,-3.609578E-3,-1E-1,-3.8482513E-2,-1E-1,-2.6487619E-2,-2.9780036E-2,1.8299194E-2,-6.430063E-3,-5.8994997E-2,-4.8696153E-2,3.2063134E-2,-6.214651E-3,5.758211E-2,2.4845826E-2,8.81672E-2],"split_indices":[33,22,22,11,23,16,33,25,29,29,22,15,29,22,21,0,0,0,0,0,0,0,0,0,0,0,0,0,0,0,0],"split_type":[0,0,0,0,0,0,0,0,0,0,0,0,0,0,0,0,0,0,0,0,0,0,0,0,0,0,0,0,0,0,0],"sum_hessian":[1.0023452E3,3.1753983E2,6.8480536E2,1.7028828E2,1.4725154E2,4.4817038E2,2.3663498E2,3.9806625E1,1.3048166E2,2.1544899E1,1.2570664E2,1.8988387E2,2.5828653E2,7.6930664E1,1.5970432E2,2.325471E1,1.6551918E1,1.2017777E2,1.0303884E1,1.6350351E1,5.1945486E0,9.341716E1,3.228948E1,1.3312799E2,5.675587E1,1.6343056E1,2.4194347E2,4.2609306E1,3.432136E1,3.1320417E1,1.283839E2],"tree_param":{"num_deleted":"0","num_feature":"36","num_nodes":"31","size_leaf_vector":"1"}},{"base_weights":[-1.4551551E-2,2.546697E-1,-6.171036E-1,-5.6664508E-2,4.0156317E-1,-8.3662504E-1,-2.4663395E-1,7.1679507E-3,-9.1019523E-1,2.7534032E-2,5.5978644E-1,-4.5842907E-1,-9.455414E-1,-5.783443E-1,-0E0,2.0516979E-2,-3.5735067E-2,-1E-1,-6.131495E-3,-2.2760382E-2,2.5314838E-2,3.1618897E-2,6.966243E-2,-6.8148516E-2,-0E0,-1E-1,-6.838878E-2,-8.6197786E-2,-1.128049E-2,1.7426817E-2,-5.837936E-2],"categories":[],"categories_nodes":[],"categories_segments":[],"categories_sizes":[],"default_left":[0,0,0,0,0,0,0,0,0,0,0,0,0,0,0,0,0,0,0,0,0,0,0,0,0,0,0,0,0,0,0],"id":13,"left_children":[1,3,5,7,9,11,13,15,17,19,21,23,25,27,29,-1,-1,-1,-1,-1,-1,-1,-1,-1,-1,-1,-1,-1,-1,-1,-1],"loss_changes":[1.6394734E2,3.2290195E1,2.4589523E1,1.4641195E1,2.758577E1,6.759384E0,1.0595451E1,1.5964945E1,2.9980106E0,9.3241005E0,1.0403091E1,5.604245E0,2.4357605E0,6.416649E0,8.754007E0,0E0,0E0,0E0,0E0,0E0,0E0,0E0,0E0,0E0,0E0,0E0,0E0,0E0,0E0,0E0,0E0],"parents":[2147483647,0,0,1,1,2,2,3,3,4,4,5,5,6,6,7,7,8,8,9,9,10,10,11,11,12,12,13,13,14,14],"right_children":[2,4,6,8,10,12,14,16,18,20,22,24,26,28,30,-1,-1,-1,-1,-1,-1,-1,-1,-1,-1,-1,-1,-1,-1,-1,-1],"split_conditions":[1E0,-3.263845E-1,-4.2646283E-1,1.135095E0,3E0,1E0,1.1903299E-1,1E0,1.3932197E0,1.153618E-1,2.6779237E-1,1.0259626E0,9.3531656E-1,2E0,1.723634E0,2.0516979E-2,-3.5735067E-2,-1E-1,-6.131495E-3,-2.2760382E-2,2.5314838E-2,3.1618897E-2,6.966243E-2,-6.8148516E-2,-0E0,-1E-1,-6.838878E-2,-8.6197786E-2,-1.128049E-2,1.7426817E-2,-5.837936E-2],"split_indices":[14,22,22,23,33,8,23,11,23,22,16,28,32,12,17,0,0,0,0,0,0,0,0,0,0,0,0,0,0,0,0],"split_type":[0,0,0,0,0,0,0,0,0,0,0,0,0,0,0,0,0,0,0,0,0,0,0,0,0,0,0,0,0,0,0],"sum_hessian":[9.93909E2,6.866208E2,3.072882E2,2.1832068E2,4.6830008E2,1.8967851E2,1.176097E2,2.038845E2,1.443618E1,1.417889E2,3.265112E2,4.6793682E1,1.4288483E2,4.9445747E1,6.8163956E1,1.3446338E2,6.942113E1,8.6866665E0,5.749513E0,6.445239E1,7.73365E1,1.2245218E2,2.0405902E2,3.1186369E1,1.5607313E1,9.0957886E1,5.1926945E1,2.8332668E1,2.1113081E1,5.3908897E1,1.4255057E1],"tree_param":{"num_deleted":"0","num_feature":"36","num_nodes":"31","size_leaf_vector":"1"}},{"base_weights":[-5.6464694E-2,2.1342115E-1,-6.617106E-1,-2.1183768E-2,4.3331105E-1,-3.9877662E-1,-9.399352E-1,-2.679402E-1,4.039293E-1,3.302732E-2,6.150654E-1,-6.710597E-1,-1.6293652E-1,-1E-1,-3.7163565E-1,2.4968948E-2,-4.6993583E-2,-2.6572285E-2,4.9317516E-2,-8.1077866E-2,1.0770928E-2,4.6779737E-2,8.6519234E-2,2.4494477E-2,-7.985421E-2,5.364269E-2,-2.5068376E-2,1.768332E-3,-8.933687E-2],"categories":[],"categories_nodes":[],"categories_segments":[],"categories_sizes":[],"default_left":[0,0,0,0,0,0,0,0,0,0,0,0,0,0,0,0,0,0,0,0,0,0,0,0,0,0,0,0,0],"id":14,"left_children":[1,3,5,7,9,11,13,15,17,19,21,23,25,-1,27,-1,-1,-1,-1,-1,-1,-1,-1,-1,-1,-1,-1,-1,-1],"loss_changes":[1.597676E2,3.5310608E1,2.1123947E1,3.5191795E1,2.49487E1,1.0024189E1,8.3752365E0,2.2962841E1,8.232651E0,8.302244E0,8.003387E0,9.999481E0,6.741065E0,0E0,8.171478E0,0E0,0E0,0E0,0E0,0E0,0E0,0E0,0E0,0E0,0E0,0E0,0E0,0E0,0E0],"parents":[2147483647,0,0,1,1,2,2,3,3,4,4,5,5,6,6,7,7,8,8,9,9,10,10,11,11,12,12,14,14],"right_children":[2,4,6,8,10,12,14,16,18,20,22,24,26,-1,28,-1,-1,-1,-1,-1,-1,-1,-1,-1,-1,-1,-1,-1,-1],"split_conditions":[1E0,2.9599833E-1,2E0,5.018346E-1,-3.3547464E-1,2.9599833E-1,1.2732534E0,1E0,-1.4942532E0,-4.3595514E-1,8.8334703E-1,-9.911877E-1,-8.546709E-1,-1E-1,1.165232E0,2.4968948E-2,-4.6993583E-2,-2.6572285E-2,4.9317516E-2,-8.1077866E-2,1.0770928E-2,4.6779737E-2,8.6519234E-2,2.4494477E-2,-7.985421E-2,5.364269E-2,-2.5068376E-2,1.768332E-3,-8.933687E-2],"split_indices":[14,16,14,22,22,16,16,5,16,22,16,28,29,0,28,0,0,0,0,0,0,0,0,0,0,0,0,0,0],"split_type":[0,0,0,0,0,0,0,0,0,0,0,0,0,0,0,0,0,0,0,0,0,0,0,0,0,0,0,0,0],"sum_hessian":[9.615881E2,6.6479236E2,2.9679572E2,3.2030847E2,3.4448392E2,1.5694081E2,1.3985492E2,2.0462553E2,1.1568292E2,1.10028915E2,2.34455E2,6.916136E1,8.777944E1,1.1140324E2,2.8451681E1,5.591532E1,1.4871022E2,1.1821443E1,1.0386148E2,6.254825E0,1.03774086E2,1.5369936E2,8.075564E1,7.265954E0,6.189541E1,7.3751283E0,8.040431E1,1.6302343E1,1.2149338E1],"tree_param":{"num_deleted":"0","num_feature":"36","num_nodes":"29","size_leaf_vector":"1"}},{"base_weights":[-2.199095E-2,2.0978111E-1,-5.6117034E-1,8.1487864E-2,6.082063E-1,-7.7579373E-1,-1.3613902E-1,-1.0600978E-1,3.6074892E-1,4.303466E-1,8.680318E-1,-5.2099746E-1,-1E0,-0E0,-7.154427E-1,-3.81273E-2,2.5568418E-3,5.992992E-2,5.0079366E-3,5.7035994E-2,5.0196406E-3,5.097404E-2,9.738872E-2,-9.946694E-2,-3.283911E-2,-1E-1,-1.955468E-2,-1.0002763E-2,6.896133E-2,-8.086095E-3,-9.8598205E-2],"categories":[],"categories_nodes":[],"categories_segments":[],"categories_sizes":[],"default_left":[0,0,0,0,0,0,0,0,0,0,0,0,0,0,0,0,0,0,0,0,0,0,0,0,0,0,0,0,0,0,0],"id":15,"left_children":[1,3,5,7,9,11,13,15,17,19,21,23,25,27,29,-1,-1,-1,-1,-1,-1,-1,-1,-1,-1,-1,-1,-1,-1,-1,-1],"loss_changes":[1.2038479E2,3.4020447E1,2.570739E1,2.755071E1,6.6867523E0,1.0064362E1,8.607227E0,1.19011755E1,1.5098089E1,5.0620556E0,1.0453796E0,8.391987E0,1.9006653E0,7.138885E0,2.5970316E0,0E0,0E0,0E0,0E0,0E0,0E0,0E0,0E0,0E0,0E0,0E0,0E0,0E0,0E0,0E0,0E0],"parents":[2147483647,0,0,1,1,2,2,3,3,4,4,5,5,6,6,7,7,8,8,9,9,10,10,11,11,12,12,13,13,14,14],"right_children":[2,4,6,8,10,12,14,16,18,20,22,24,26,28,30,-1,-1,-1,-1,-1,-1,-1,-1,-1,-1,-1,-1,-1,-1,-1,-1],"split_conditions":[1E0,7.0727533E-1,9.463955E-1,5.963094E-1,2.5470889E0,2E0,1.5899763E0,7.185496E-1,-1.4186317E-1,7.0440596E-1,1.4996239E0,-1.3283354E0,1E0,2.3286955E0,1E0,-3.81273E-2,2.5568418E-3,5.992992E-2,5.0079366E-3,5.7035994E-2,5.0196406E-3,5.097404E-2,9.738872E-2,-9.946694E-2,-3.283911E-2,-1E-1,-1.955468E-2,-1.0002763E-2,6.896133E-2,-8.086095E-3,-9.8598205E-2],"split_indices":[14,22,16,16,22,14,23,31,4,29,31,16,1,32,8,0,0,0,0,0,0,0,0,0,0,0,0,0,0,0,0],"split_type":[0,0,0,0,0,0,0,0,0,0,0,0,0,0,0,0,0,0,0,0,0,0,0,0,0,0,0,0,0,0,0],"sum_hessian":[9.446524E2,6.6021783E2,2.8443457E2,5.0312885E2,1.57089E2,1.8633815E2,9.809642E1,2.996212E2,2.0350766E2,9.869212E1,5.8396877E1,9.4064674E1,9.227347E1,8.191992E1,1.6176497E1,9.813216E1,2.0148904E2,1.1224354E2,9.126412E1,6.947317E1,2.9218952E1,1.8125336E1,4.027154E1,2.3283564E1,7.078111E1,8.575981E1,6.513659E0,7.382473E1,8.095196E0,6.7164245E0,9.460072E0],"tree_param":{"num_deleted":"0","num_feature":"36","num_nodes":"31","size_leaf_vector":"1"}},{"base_weights":[-1.2994258E-2,-4.070546E-1,2.3548752E-1,-5.2922434E-1,3.4282735E-1,1.866199E-2,4.2122003E-1,-3.5149403E-2,-6.5285385E-1,-4.315692E-2,5.2858084E-1,-6.607132E-1,7.234903E-2,2.447425E-1,5.7649004E-1,-3.9915048E-2,7.896375E-2,-8.906972E-2,-5.2663084E-2,-0E0,6.328463E-2,-2.2364222E-2,-9.405529E-2,-4.5202863E-3,3.6183305E-2,5.85562E-2,-0E0,6.425597E-2,3.794976E-3],"categories":[],"categories_nodes":[],"categories_segments":[],"categories_sizes":[],"default_left":[0,0,0,0,0,0,0,0,0,0,0,0,0,0,0,0,0,0,0,0,0,0,0,0,0,0,0,0,0],"id":16,"left_children":[1,3,5,7,9,11,13,15,17,-1,19,21,23,25,27,-1,-1,-1,-1,-1,-1,-1,-1,-1,-1,-1,-1,-1,-1],"loss_changes":[9.316607E1,3.4811287E1,2.3031887E1,1.8812195E1,9.129616E0,1.0746851E1,8.084091E0,2.258326E1,6.6806183E0,0E0,2.0802526E0,1.6888056E0,9.609464E0,1.3217989E1,5.1127014E0,0E0,0E0,0E0,0E0,0E0,0E0,0E0,0E0,0E0,0E0,0E0,0E0,0E0,0E0],"parents":[2147483647,0,0,1,1,2,2,3,3,4,4,5,5,6,6,7,7,8,8,10,10,11,11,12,12,13,13,14,14],"right_children":[2,4,6,8,10,12,14,16,18,-1,20,22,24,26,28,-1,-1,-1,-1,-1,-1,-1,-1,-1,-1,-1,-1,-1,-1],"split_conditions":[-3.9905024E-1,2.962485E-1,-2.6055923E-1,1E0,-7.0923835E-1,-8.4359914E-1,3.573878E-1,1E0,-1.4610696E0,-4.315692E-2,-1.000146E0,1E0,1.024377E0,-1.277072E0,1E0,-3.9915048E-2,7.896375E-2,-8.906972E-2,-5.2663084E-2,-0E0,6.328463E-2,-2.2364222E-2,-9.405529E-2,-4.5202863E-3,3.6183305E-2,5.85562E-2,-0E0,6.425597E-2,3.794976E-3],"split_indices":[29,22,22,5,29,31,16,25,16,0,17,8,16,23,8,0,0,0,0,0,0,0,0,0,0,0,0,0,0],"split_type":[0,0,0,0,0,0,0,0,0,0,0,0,0,0,0,0,0,0,0,0,0,0,0,0,0,0,0,0,0],"sum_hessian":[9.329129E2,3.6183575E2,5.7107715E2,3.127973E2,4.9038437E1,2.6698358E2,3.040936E2,6.473734E1,2.4805997E2,7.933584E0,4.110485E1,1.653271E1,2.5045087E2,1.4775285E2,1.5634074E2,4.6472363E1,1.826498E1,7.905686E1,1.690031E2,8.359984E0,3.274487E1,9.252857E0,7.279852E0,1.7686423E2,7.3586655E1,6.072224E1,8.703061E1,1.3725835E2,1.9082401E1],"tree_param":{"num_deleted":"0","num_feature":"36","num_nodes":"29","size_leaf_vector":"1"}},{"base_weights":[-2.2673516E-2,1.7597939E-1,-5.043429E-1,3.0977973E-1,-1.6444574E-1,-8.762091E-1,-3.3653462E-1,5.4489946E-1,1.4280339E-1,-2.4755318E-1,1.8090163E-1,-1E0,-4.9901253E-1,-2.3593973E-1,-9.3404675E-1,3.4954272E-2,8.613034E-2,-0E0,5.395353E-2,1.3855986E-2,-3.4568198E-2,7.594374E-2,-3.075001E-2,-1E-1,-2.6485145E-2,9.487565E-3,-1E-1,-2.9436398E-2,8.575767E-2,-3.7871283E-2,-1E-1],"categories":[],"categories_nodes":[],"categories_segments":[],"categories_sizes":[],"default_left":[0,0,0,0,0,0,0,0,0,0,0,0,0,0,0,0,0,0,0,0,0,0,0,0,0,0,0,0,0,0,0],"id":17,"left_children":[1,3,5,7,9,11,13,15,17,19,21,23,25,27,29,-1,-1,-1,-1,-1,-1,-1,-1,-1,-1,-1,-1,-1,-1,-1,-1],"loss_changes":[8.895659E1,3.0211588E1,1.633155E1,1.8193356E1,5.882313E0,2.6892586E0,1.145809E1,1.1273472E1,1.6593561E1,6.427782E0,1.2284428E1,1.212925E0,1.0342842E1,1.2409016E1,3.1700325E-1,0E0,0E0,0E0,0E0,0E0,0E0,0E0,0E0,0E0,0E0,0E0,0E0,0E0,0E0,0E0,0E0],"parents":[2147483647,0,0,1,1,2,2,3,3,4,4,5,5,6,6,7,7,8,8,9,9,10,10,11,11,12,12,13,13,14,14],"right_children":[2,4,6,8,10,12,14,16,18,20,22,24,26,28,30,-1,-1,-1,-1,-1,-1,-1,-1,-1,-1,-1,-1,-1,-1,-1,-1],"split_conditions":[1E0,1E0,-3.6933145E-1,-9.966836E-1,8.6675525E-1,-4.8380113E-1,1.6084833E0,3.4909195E-1,1.024377E0,-9.941346E-1,2.4178804E-1,2E0,-4.184659E-1,2.3286955E0,1E0,3.4954272E-2,8.613034E-2,-0E0,5.395353E-2,1.3855986E-2,-3.4568198E-2,7.594374E-2,-3.075001E-2,-1E-1,-2.6485145E-2,9.487565E-3,-1E-1,-2.9436398E-2,8.575767E-2,-3.7871283E-2,-1E-1],"split_indices":[14,8,16,4,16,29,4,16,16,17,32,10,17,32,11,0,0,0,0,0,0,0,0,0,0,0,0,0,0,0,0],"split_type":[0,0,0,0,0,0,0,0,0,0,0,0,0,0,0,0,0,0,0,0,0,0,0,0,0,0,0,0,0,0,0],"sum_hessian":[9.086485E2,6.427535E2,2.65895E2,4.6364175E2,1.7911174E2,7.8200066E1,1.8769492E2,1.8816736E2,2.754744E2,1.4715987E2,3.1951864E1,5.361455E1,2.4585514E1,1.644689E2,2.3226015E1,1.20893974E2,6.727339E1,2.0375847E2,7.171591E1,2.758902E1,1.19570854E2,1.5055498E1,1.6896366E1,4.6949043E1,6.6655087E0,1.12002E1,1.3385313E1,1.5838293E2,6.0859613E0,7.164298E0,1.6061718E1],"tree_param":{"num_deleted":"0","num_feature":"36","num_nodes":"31","size_leaf_vector":"1"}},{"base_weights":[-1.6925097E-2,-4.9082744E-1,1.7050196E-1,-8.9081144E-1,-2.9563105E-1,-6.602936E-2,3.3126682E-1,-9.9475846E-2,-6.0819544E-2,-8.5299715E-2,-5.580909E-1,-1.5933824E-1,6.155774E-1,4.4934496E-2,5.543188E-1,2.043478E-2,-4.4042192E-2,-1E-1,2.5310863E-3,-0E0,-7.297068E-2,-6.6520855E-2,-5.321022E-3,8.044019E-2,-1.4203615E-3,-3.7142813E-2,1.2475189E-2,-9.874265E-3,7.297681E-2],"categories":[],"categories_nodes":[],"categories_segments":[],"categories_sizes":[],"default_left":[0,0,0,0,0,0,0,0,0,0,0,0,0,0,0,0,0,0,0,0,0,0,0,0,0,0,0,0,0],"id":18,"left_children":[1,3,5,7,9,11,13,-1,15,17,19,21,23,25,27,-1,-1,-1,-1,-1,-1,-1,-1,-1,-1,-1,-1,-1,-1],"loss_changes":[8.10726E1,1.9590614E1,2.5088123E1,6.138687E0,9.676699E0,1.7566965E1,2.4392815E1,0E0,2.813306E0,1.3595221E1,7.6963253E0,1.2667276E1,4.8089924E0,6.469784E0,2.579132E1,0E0,0E0,0E0,0E0,0E0,0E0,0E0,0E0,0E0,0E0,0E0,0E0,0E0,0E0],"parents":[2147483647,0,0,1,1,2,2,3,3,4,4,5,5,6,6,8,8,9,9,10,10,11,11,12,12,13,13,14,14],"right_children":[2,4,6,8,10,12,14,-1,16,18,20,22,24,26,28,-1,-1,-1,-1,-1,-1,-1,-1,-1,-1,-1,-1,-1,-1],"split_conditions":[-4.18174E-1,-4.6434733E-1,3E0,7.185496E-1,2E0,1.1668292E0,1E0,-9.9475846E-2,-2.5918353E-1,-8.4359914E-1,-4.516702E-1,-3.770561E-1,1.660259E0,-3.3547464E-1,7.185496E-1,2.043478E-2,-4.4042192E-2,-1E-1,2.5310863E-3,-0E0,-7.297068E-2,-6.6520855E-2,-5.321022E-3,8.044019E-2,-1.4203615E-3,-3.7142813E-2,1.2475189E-2,-9.874265E-3,7.297681E-2],"split_indices":[22,22,33,31,11,32,6,0,28,31,22,22,32,22,31,0,0,0,0,0,0,0,0,0,0,0,0,0,0],"split_type":[0,0,0,0,0,0,0,0,0,0,0,0,0,0,0,0,0,0,0,0,0,0,0,0,0,0,0,0,0],"sum_hessian":[8.907517E2,2.5304208E2,6.377096E2,7.897045E1,1.7407162E2,2.5600742E2,3.8170218E2,6.87575E1,1.0212953E1,1.0021831E2,7.385332E1,2.2781955E2,2.818788E1,1.7015718E2,2.11545E2,5.0054617E0,5.2074904E0,9.721071E0,9.049724E1,1.7674128E1,5.617919E1,3.604565E1,1.917739E2,2.248085E1,5.7070284E0,2.4181307E1,1.4597588E2,4.377594E1,1.6776906E2],"tree_param":{"num_deleted":"0","num_feature":"36","num_nodes":"29","size_leaf_vector":"1"}},{"base_weights":[-1.6267542E-2,1.039721E-1,-8.01261E-1,-2.1131045E-1,2.541127E-1,-8.910688E-1,-3.7411708E-1,-5.5108577E-1,-1.21515945E-1,4.6247578E-1,9.723102E-2,-2.2750419E-2,-9.280085E-1,-0E0,-7.862701E-2,-0E0,-9.9946104E-2,7.515948E-2,-2.0039449E-2,5.1897284E-2,-0E0,-1.6522288E-2,2.0540651E-2,-1E-1,-7.07076E-2,-3.8452394E-2,4.4160772E-2],"categories":[],"categories_nodes":[],"categories_segments":[],"categories_sizes":[],"default_left":[0,0,0,0,0,0,0,0,0,0,0,0,0,0,0,0,0,0,0,0,0,0,0,0,0,0,0],"id":19,"left_children":[1,3,5,7,9,11,13,15,17,19,21,-1,23,25,-1,-1,-1,-1,-1,-1,-1,-1,-1,-1,-1,-1,-1],"loss_changes":[8.691421E1,3.7554703E1,3.5964584E0,7.7106085E0,1.7220589E1,1.2971725E0,5.003686E0,1.2753862E1,1.5307608E1,6.1488533E0,9.355988E0,0E0,5.946121E-1,4.6373653E0,0E0,0E0,0E0,0E0,0E0,0E0,0E0,0E0,0E0,0E0,0E0,0E0,0E0],"parents":[2147483647,0,0,1,1,2,2,3,3,4,4,5,5,6,6,7,7,8,8,9,9,10,10,12,12,13,13],"right_children":[2,4,6,8,10,12,14,16,18,20,22,-1,24,26,-1,-1,-1,-1,-1,-1,-1,-1,-1,-1,-1,-1,-1],"split_conditions":[2E0,-3.834577E-1,1.2732534E0,-4.573976E-1,3E0,-4.8333687E-1,1.165232E0,-3.8486722E-1,-4.5000714E-1,2E0,2E0,-2.2750419E-2,1.2717644E0,1.0512354E0,-7.862701E-2,-0E0,-9.9946104E-2,7.515948E-2,-2.0039449E-2,5.1897284E-2,-0E0,-1.6522288E-2,2.0540651E-2,-1E-1,-7.07076E-2,-3.8452394E-2,4.4160772E-2],"split_indices":[14,22,16,22,35,28,28,28,22,8,15,0,23,28,0,0,0,0,0,0,0,0,0,0,0,0,0],"split_type":[0,0,0,0,0,0,0,0,0,0,0,0,0,0,0,0,0,0,0,0,0,0,0,0,0,0,0],"sum_hessian":[8.908356E2,7.7290826E2,1.1792731E2,2.4692061E2,5.259877E2,9.3711044E1,2.4216263E1,4.7139088E1,1.9978151E2,2.2151347E2,3.0447418E2,7.1242213E0,8.658682E1,1.352063E1,1.0695634E1,2.232976E1,2.4809328E1,1.4089487E1,1.8569203E2,1.9790799E2,2.3605486E1,8.586083E1,2.1861336E2,4.7847733E1,3.8739094E1,7.154715E0,6.3659143E0],"tree_param":{"num_deleted":"0","num_feature":"36","num_nodes":"27","size_leaf_vector":"1"}},{"base_weights":[-2.3396244E-2,-2.7508977E-1,2.3582715E-1,-4.603121E-1,1.3940293E-2,1.686587E-1,7.992786E-1,-6.033331E-1,-1.4915138E-1,-3.800931E-1,2.569374E-1,-4.356217E-2,4.1441596E-1,7.6739728E-3,8.864584E-2,-6.554676E-2,-8.712293E-4,5.0319243E-2,-3.321145E-2,-8.6562425E-2,-3.333578E-3,3.9478578E-2,-1.6852604E-2,-1.9407898E-2,1.2152007E-2,-1.0947941E-2,5.024597E-2],"categories":[],"categories_nodes":[],"categories_segments":[],"categories_sizes":[],"default_left":[0,0,0,0,0,0,0,0,0,0,0,0,0,0,0,0,0,0,0,0,0,0,0,0,0,0,0],"id":20,"left_children":[1,3,5,7,9,11,13,15,17,19,21,23,25,-1,-1,-1,-1,-1,-1,-1,-1,-1,-1,-1,-1,-1,-1],"loss_changes":[5.804295E1,2.4699158E1,1.6452633E1,1.1826981E1,1.7956276E1,2.1179417E1,1.9714928E0,5.1678925E0,1.2397836E1,1.111219E1,7.437918E0,5.817145E0,9.283348E0,0E0,0E0,0E0,0E0,0E0,0E0,0E0,0E0,0E0,0E0,0E0,0E0,0E0,0E0],"parents":[2147483647,0,0,1,1,2,2,3,3,4,4,5,5,6,6,7,7,8,8,9,9,10,10,11,11,12,12],"right_children":[2,4,6,8,10,12,14,16,18,20,22,24,26,-1,-1,-1,-1,-1,-1,-1,-1,-1,-1,-1,-1,-1,-1],"split_conditions":[7.185496E-1,8.070248E-1,3.663792E0,-3.7252373E-1,-4.0477097E-1,1E0,5.709233E-1,1.0730721E0,-3.5058486E-1,1.3197101E0,1E0,2.962485E-1,-4.0824988E-1,7.6739728E-3,8.864584E-2,-6.554676E-2,-8.712293E-4,5.0319243E-2,-3.321145E-2,-8.6562425E-2,-3.333578E-3,3.9478578E-2,-1.6852604E-2,-1.9407898E-2,1.2152007E-2,-1.0947941E-2,5.024597E-2],"split_indices":[31,16,22,22,29,6,29,29,22,16,11,22,22,0,0,0,0,0,0,0,0,0,0,0,0,0,0],"split_type":[0,0,0,0,0,0,0,0,0,0,0,0,0,0,0,0,0,0,0,0,0,0,0,0,0,0,0],"sum_hessian":[8.7008264E2,4.4334808E2,4.2673456E2,2.715819E2,1.7176617E2,3.8518994E2,4.154464E1,1.8257289E2,8.900902E1,6.3520496E1,1.08245674E2,2.053976E2,1.7979233E2,6.1128497E0,3.543179E1,1.6612149E2,1.645141E1,1.7532368E1,7.147665E1,2.4016268E1,3.950423E1,8.364095E1,2.4604727E1,1.1042335E2,9.497426E1,2.4163712E1,1.5562862E2],"tree_param":{"num_deleted":"0","num_feature":"36","num_nodes":"27","size_leaf_vector":"1"}},{"base_weights":[-1.5267498E-2,-3.976492E-1,9.927142E-2,-0E0,-4.8547727E-1,6.277584E-2,6.4864725E-1,-3.680518E-1,5.780954E-1,1.2870172E-1,-5.384476E-1,-6.1947886E-2,2.2819048E-1,4.8396978E-1,9.093514E-2,4.0923376E-2,-7.174005E-2,2.6328984E-4,8.71227E-2,8.1345424E-2,-4.2762194E-2,-6.49355E-2,-8.754144E-3,-3.993126E-2,8.171732E-3,-1.6336352E-2,2.9870221E-2,-0E0,6.941264E-2],"categories":[],"categories_nodes":[],"categories_segments":[],"categories_sizes":[],"default_left":[0,0,0,0,0,0,0,0,0,0,0,0,0,0,0,0,0,0,0,0,0,0,0,0,0,0,0,0,0],"id":21,"left_children":[1,3,5,7,9,11,13,15,17,19,21,23,25,27,-1,-1,-1,-1,-1,-1,-1,-1,-1,-1,-1,-1,-1,-1,-1],"loss_changes":[3.897507E1,6.81369E0,1.3680482E1,1.0630929E1,6.2036705E0,1.3514082E1,9.005871E-1,9.564217E0,2.3231368E0,8.270155E0,7.129318E0,1.8360855E1,8.208429E0,3.359376E0,0E0,0E0,0E0,0E0,0E0,0E0,0E0,0E0,0E0,0E0,0E0,0E0,0E0,0E0,0E0],"parents":[2147483647,0,0,1,1,2,2,3,3,4,4,5,5,6,6,7,7,8,8,9,9,10,10,11,11,12,12,13,13],"right_children":[2,4,6,8,10,12,14,16,18,20,22,24,26,28,-1,-1,-1,-1,-1,-1,-1,-1,-1,-1,-1,-1,-1,-1,-1],"split_conditions":[-4.273951E-1,1E0,3.663792E0,1E0,-5.497041E-1,2E0,1E0,3E0,2E0,3E0,1.8730462E0,7.185496E-1,1E0,-9.766284E-1,9.093514E-2,4.0923376E-2,-7.174005E-2,2.6328984E-4,8.71227E-2,8.1345424E-2,-4.2762194E-2,-6.49355E-2,-8.754144E-3,-3.993126E-2,8.171732E-3,-1.6336352E-2,2.9870221E-2,-0E0,6.941264E-2],"split_indices":[22,5,22,25,23,13,35,35,15,15,32,31,21,32,0,0,0,0,0,0,0,0,0,0,0,0,0,0,0],"split_type":[0,0,0,0,0,0,0,0,0,0,0,0,0,0,0,0,0,0,0,0,0,0,0,0,0,0,0,0,0],"sum_hessian":[8.57281E2,1.9847398E2,6.5880707E2,3.7810093E1,1.606639E2,6.215647E2,3.7242367E1,2.4337255E1,1.3472838E1,1.1030454E1,1.4963344E2,3.516351E2,2.699296E2,2.867681E1,8.565558E0,6.552631E0,1.7784624E1,6.379094E0,7.093744E0,5.3358865E0,5.6945677E0,1.1760797E2,3.2025467E1,1.0603588E2,2.4559921E2,3.8625458E1,2.3130412E2,9.663629E0,1.9013182E1],"tree_param":{"num_deleted":"0","num_feature":"36","num_nodes":"29","size_leaf_vector":"1"}},{"base_weights":[8.787566E-3,1.07895635E-1,-6.8990844E-1,4.808003E-1,2.7671479E-2,-8.824005E-1,-2.4077734E-1,5.58928E-1,-1.7689814E-1,-2.9257525E-2,2.647892E-1,-9.431755E-1,-0E0,3.861011E-2,-4.7325218E-1,2.800495E-2,6.51473E-2,-6.082944E-2,1.2504803E-2,1.106838E-2,-1.8847594E-2,4.4631804E-3,5.7041284E-2,-1.8676568E-2,-1E-1,2.3810105E-2,-7.405819E-2],"categories":[],"categories_nodes":[],"categories_segments":[],"categories_sizes":[],"default_left":[0,0,0,0,0,0,0,0,0,0,0,0,0,0,0,0,0,0,0,0,0,0,0,0,0,0,0],"id":22,"left_children":[1,3,5,7,9,11,13,15,17,19,21,23,-1,-1,25,-1,-1,-1,-1,-1,-1,-1,-1,-1,-1,-1,-1],"loss_changes":[6.0144863E1,2.2678154E1,8.384136E0,7.7856026E0,9.164696E0,3.4985924E0,6.902387E0,2.5022583E0,3.571337E0,1.1778966E1,8.364585E0,2.1247978E0,0E0,0E0,7.220011E0,0E0,0E0,0E0,0E0,0E0,0E0,0E0,0E0,0E0,0E0,0E0,0E0],"parents":[2147483647,0,0,1,1,2,2,3,3,4,4,5,5,6,6,7,7,8,8,9,9,10,10,11,11,14,14],"right_children":[2,4,6,8,10,12,14,16,18,20,22,24,-1,-1,26,-1,-1,-1,-1,-1,-1,-1,-1,-1,-1,-1,-1],"split_conditions":[2E0,1E0,9.463955E-1,1E0,1.024377E0,1E0,1.0374572E0,3.4909195E-1,-8.6831397E-1,-6.042242E-1,1E0,-1.0079852E0,-0E0,3.861011E-2,1E0,2.800495E-2,6.51473E-2,-6.082944E-2,1.2504803E-2,1.106838E-2,-1.8847594E-2,4.4631804E-3,5.7041284E-2,-1.8676568E-2,-1E-1,2.3810105E-2,-7.405819E-2],"split_indices":[14,35,16,8,16,1,23,16,32,23,25,29,0,0,9,0,0,0,0,0,0,0,0,0,0,0,0],"split_type":[0,0,0,0,0,0,0,0,0,0,0,0,0,0,0,0,0,0,0,0,0,0,0,0,0,0,0],"sum_hessian":[8.5002924E2,7.4716797E2,1.0286129E2,1.2830736E2,6.188606E2,6.9092995E1,3.376829E1,1.1631157E2,1.1995793E1,4.9705887E2,1.2180173E2,6.402243E1,5.070564E0,7.6138954E0,2.6154396E1,3.3679184E1,8.2632385E1,5.467279E0,6.5285144E0,2.6152582E2,2.3553305E2,7.403462E1,4.776711E1,6.8467617E0,5.717567E1,6.182088E0,1.997231E1],"tree_param":{"num_deleted":"0","num_feature":"36","num_nodes":"27","size_leaf_vector":"1"}},{"base_weights":[-6.8973294E-3,8.0381006E-2,-6.6076034E-1,-9.499448E-2,9.586411E-2,-9.0191644E-1,-3.3903548E-1,4.2551446E-1,4.018422E-2,-1E-1,-2.7116895E-1,4.4446018E-1,-6.356528E-1,-3.6650054E-2,5.2361038E-2,-1.13421725E-2,1.5695475E-2,-6.93041E-2,5.115368E-3,1.0976515E-3,6.214692E-2,-2.1812825E-2,-1E-1],"categories":[],"categories_nodes":[],"categories_segments":[],"categories_sizes":[],"default_left":[0,0,0,0,0,0,0,0,0,0,0,0,0,0,0,0,0,0,0,0,0,0,0],"id":23,"left_children":[1,3,5,-1,7,9,11,13,15,-1,17,19,21,-1,-1,-1,-1,-1,-1,-1,-1,-1,-1],"loss_changes":[5.0063206E1,1.3080835E1,7.0995407E0,0E0,1.3691448E1,3.0333443E0,1.3395152E1,9.479895E0,1.1871375E1,0E0,3.4042563E0,7.607362E-1,5.0817566E0,0E0,0E0,0E0,0E0,0E0,0E0,0E0,0E0,0E0,0E0],"parents":[2147483647,0,0,1,1,2,2,4,4,5,5,6,6,7,7,8,8,10,10,11,11,12,12],"right_children":[2,4,6,-1,8,10,12,14,16,-1,18,20,22,-1,-1,-1,-1,-1,-1,-1,-1,-1,-1],"split_conditions":[2E0,-1.512504E0,1.070936E0,-9.499448E-2,-1.240918E0,1E0,1.415904E0,2E0,1E0,-1E-1,7.9386455E-1,1.2770096E0,1.165232E0,-3.6650054E-2,5.2361038E-2,-1.13421725E-2,1.5695475E-2,-6.93041E-2,5.115368E-3,1.0976515E-3,6.214692E-2,-2.1812825E-2,-1E-1],"split_indices":[14,16,17,0,4,25,32,15,6,0,28,32,28,0,0,0,0,0,0,0,0,0,0],"split_type":[0,0,0,0,0,0,0,0,0,0,0,0,0,0,0,0,0,0,0,0,0,0,0],"sum_hessian":[8.374906E2,7.390643E2,9.842633E1,8.198519E0,7.308658E2,5.2419277E1,4.6007053E1,1.01094734E2,6.29771E2,4.158336E1,1.0835917E1,1.1434732E1,3.4572323E1,9.414749E0,9.1679985E1,2.6831253E2,3.614585E2,5.0406494E0,5.795268E0,5.5693083E0,5.865424E0,1.8891949E1,1.5680374E1],"tree_param":{"num_deleted":"0","num_feature":"36","num_nodes":"23","size_leaf_vector":"1"}},{"base_weights":[-2.1687083E-2,4.9413912E-2,-5.926048E-1,3.8039666E-1,-1.3474906E-2,-7.516345E-2,-7.323814E-1,1.4881851E-1,6.4850664E-1,-1E-1,-0E0,-7.391587E-2,1.7871685E-1,-8.329591E-1,-0E0,-2.8509011E-2,3.0812813E-2,3.0941809E-2,8.553942E-2,1.0044609E-2,-1.0055131E-2,-1.330819E-2,5.549978E-2,-9.373621E-2,-1.8852875E-2],"categories":[],"categories_nodes":[],"categories_segments":[],"categories_sizes":[],"default_left":[0,0,0,0,0,0,0,0,0,0,0,0,0,0,0,0,0,0,0,0,0,0,0,0,0],"id":24,"left_children":[1,3,5,7,9,11,13,15,17,-1,19,-1,21,23,-1,-1,-1,-1,-1,-1,-1,-1,-1,-1,-1],"loss_changes":[3.620468E1,1.6740944E1,6.416439E0,7.470812E0,1.1042277E1,6.564721E0,5.289051E0,5.9616146E0,3.1502533E0,0E0,6.7388134E0,0E0,3.6908994E0,3.4180527E0,0E0,0E0,0E0,0E0,0E0,0E0,0E0,0E0,0E0,0E0,0E0],"parents":[2147483647,0,0,1,1,2,2,3,3,4,4,5,5,6,6,7,7,8,8,10,10,12,12,13,13],"right_children":[2,4,6,8,10,12,14,16,18,-1,20,-1,22,24,-1,-1,-1,-1,-1,-1,-1,-1,-1,-1,-1],"split_conditions":[2E0,1E0,1E0,1E0,-1.512504E0,-7.5712264E-1,1E0,3E0,-6.570621E-1,-1E-1,-4.0864268E-1,-7.391587E-2,1.3090785E0,1.3860773E0,-0E0,-2.8509011E-2,3.0812813E-2,3.0941809E-2,8.553942E-2,1.0044609E-2,-1.0055131E-2,-1.330819E-2,5.549978E-2,-9.373621E-2,-1.8852875E-2],"split_indices":[14,35,9,6,16,29,1,33,28,0,23,0,23,16,0,0,0,0,0,0,0,0,0,0,0],"split_type":[0,0,0,0,0,0,0,0,0,0,0,0,0,0,0,0,0,0,0,0,0,0,0,0,0],"sum_hessian":[8.445108E2,7.510516E2,9.345919E1,1.2084582E2,6.3020575E2,2.2052488E1,7.140671E1,6.851038E1,5.2335434E1,6.7921576E0,6.2341364E2,6.131698E0,1.592079E1,6.2082794E1,9.323913E0,1.628878E1,5.22216E1,2.355444E1,2.8780996E1,3.1420526E2,3.0920837E2,7.959961E0,7.9608283E0,5.130938E1,1.0773414E1],"tree_param":{"num_deleted":"0","num_feature":"36","num_nodes":"25","size_leaf_vector":"1"}},{"base_weights":[-1.6054358E-2,7.304228E-2,-7.7918226E-1,2.0816214E-1,-2.1017228E-1,-9.3464655E-1,-4.0047207E-1,1.7226228E-1,8.608794E-2,-6.2886816E-1,-8.830158E-2,-3.4026858E-1,-1E-1,-0E0,-7.245714E-1,1.895809E-2,-7.752781E-2,4.8901336E-3,-8.1039466E-2,-1.976931E-2,3.177155E-2,-7.976498E-2,2.019683E-2,-1.9140815E-2,1.8057229E-2,-1.612862E-2,-9.4238594E-2],"categories":[],"categories_nodes":[],"categories_segments":[],"categories_sizes":[],"default_left":[0,0,0,0,0,0,0,0,0,0,0,0,0,0,0,0,0,0,0,0,0,0,0,0,0,0,0],"id":25,"left_children":[1,3,5,7,9,11,13,15,-1,17,19,21,-1,23,25,-1,-1,-1,-1,-1,-1,-1,-1,-1,-1,-1,-1],"loss_changes":[5.8943016E1,2.9251575E1,4.2177353E0,1.2204252E1,1.2378509E1,2.7267036E0,4.1509337E0,9.246985E0,0E0,7.6617107E0,9.265491E0,5.751173E0,0E0,1.4041909E0,1.3319216E0,0E0,0E0,0E0,0E0,0E0,0E0,0E0,0E0,0E0,0E0,0E0,0E0],"parents":[2147483647,0,0,1,1,2,2,3,3,4,4,5,5,6,6,7,7,9,9,10,10,11,11,13,13,14,14],"right_children":[2,4,6,8,10,12,14,16,-1,18,20,22,-1,24,26,-1,-1,-1,-1,-1,-1,-1,-1,-1,-1,-1,-1],"split_conditions":[2E0,1E0,9.59669E-1,3.8285513E0,-4.2646283E-1,1E0,1E0,1.4825374E0,8.608794E-2,-1.4975716E0,1.092403E0,1.2977887E0,-1E-1,-4.24683E-1,-4.3163553E-1,1.895809E-2,-7.752781E-2,4.8901336E-3,-8.1039466E-2,-1.976931E-2,3.177155E-2,-7.976498E-2,2.019683E-2,-1.9140815E-2,1.8057229E-2,-1.612862E-2,-9.4238594E-2],"split_indices":[14,11,16,22,22,9,20,23,0,16,16,23,0,22,22,0,0,0,0,0,0,0,0,0,0,0,0],"split_type":[0,0,0,0,0,0,0,0,0,0,0,0,0,0,0,0,0,0,0,0,0,0,0,0,0,0,0],"sum_hessian":[8.282535E2,7.42109E2,8.614447E1,5.0516086E2,2.3694814E2,5.7119755E1,2.9024714E1,4.826734E2,2.2487455E1,4.9694233E1,1.872539E2,1.2171237E1,4.494852E1,1.4875466E1,1.4149248E1,4.7661728E2,6.0561323E0,9.6428585E0,4.0051373E1,1.502593E2,3.699461E1,7.0915766E0,5.07966E0,9.10713E0,5.7683363E0,6.1965365E0,7.952711E0],"tree_param":{"num_deleted":"0","num_feature":"36","num_nodes":"27","size_leaf_vector":"1"}},{"base_weights":[-1.3207108E-2,4.0658083E-2,-4.705138E-1,5.0711925E-3,5.9557396E-1,-6.4228624E-1,7.21439E-4,-1.1216605E-1,1.7616792E-1,2.687212E-3,6.7853093E-1,-3.8423046E-1,-8.955177E-1,3.6794755E-1,-5.4758966E-2,-2.3526996E-3,-6.399545E-2,3.9040454E-2,8.921974E-3,9.088945E-2,3.9325964E-2,-7.7563144E-2,-0E0,-1E-1,-3.3977577E-3,-1.1520679E-2,6.894406E-2],"categories":[],"categories_nodes":[],"categories_segments":[],"categories_sizes":[],"default_left":[0,0,0,0,0,0,0,0,0,0,0,0,0,0,0,0,0,0,0,0,0,0,0,0,0,0,0],"id":26,"left_children":[1,3,5,7,9,11,13,15,17,-1,19,21,23,25,-1,-1,-1,-1,-1,-1,-1,-1,-1,-1,-1,-1,-1],"loss_changes":[2.1741138E1,1.5053797E1,8.180082E0,1.4624016E1,1.4905663E0,3.6642609E0,6.921687E0,1.9615683E1,5.405554E0,0E0,1.5707302E0,6.4056015E0,2.6143913E0,4.211342E0,0E0,0E0,0E0,0E0,0E0,0E0,0E0,0E0,0E0,0E0,0E0,0E0,0E0],"parents":[2147483647,0,0,1,1,2,2,3,3,4,4,5,5,6,6,7,7,8,8,10,10,11,11,12,12,13,13],"right_children":[2,4,6,8,10,12,14,16,18,-1,20,22,24,26,-1,-1,-1,-1,-1,-1,-1,-1,-1,-1,-1,-1,-1],"split_conditions":[2E0,2.5470889E0,1.2732534E0,2E0,5.861785E-1,-4.5054802E-1,1.5005606E0,1E0,-6.2524766E-2,2.687212E-3,1.8485426E0,-4.811849E-1,-1.7276551E-1,1E0,-5.4758966E-2,-2.3526996E-3,-6.399545E-2,3.9040454E-2,8.921974E-3,9.088945E-2,3.9325964E-2,-7.7563144E-2,-0E0,-1E-1,-3.3977577E-3,-1.1520679E-2,6.894406E-2],"split_indices":[14,22,16,13,29,22,16,14,31,0,29,22,29,0,0,0,0,0,0,0,0,0,0,0,0,0,0],"split_type":[0,0,0,0,0,0,0,0,0,0,0,0,0,0,0,0,0,0,0,0,0,0,0,0,0,0,0],"sum_hessian":[8.211707E2,7.3431305E2,8.685771E1,6.936495E2,4.0663555E1,6.467779E1,2.2179926E1,4.085506E2,2.8509888E2,7.0481405E0,3.3615414E1,3.648316E1,2.8194624E1,1.4769719E1,7.4102077E0,3.5321414E2,5.533645E1,7.696908E1,2.081298E2,1.4239277E1,1.9376137E1,1.6790075E1,1.9693085E1,2.3050282E1,5.1443424E0,5.1711273E0,9.598592E0],"tree_param":{"num_deleted":"0","num_feature":"36","num_nodes":"27","size_leaf_vector":"1"}},{"base_weights":[-3.4702007E-2,1.4314374E-1,-2.4416003E-1,-5.493837E-1,1.8742843E-1,-1.6603385E-1,-6.198764E-1,7.450963E-3,-7.6628137E-1,1.0611684E-1,4.8180157E-1,-2.4914661E-1,1.11065716E-1,-7.184048E-1,-0E0,-2.7129222E-2,-9.3694024E-2,2.6017299E-2,-2.209149E-2,6.5579325E-2,1.7762482E-2,-5.0988097E-2,-3.2137925E-4,-1.922566E-2,3.264731E-2,-7.826059E-2,-0E0],"categories":[],"categories_nodes":[],"categories_segments":[],"categories_sizes":[],"default_left":[0,0,0,0,0,0,0,0,0,0,0,0,0,0,0,0,0,0,0,0,0,0,0,0,0,0,0],"id":27,"left_children":[1,3,5,7,9,11,13,-1,15,17,19,21,23,25,-1,-1,-1,-1,-1,-1,-1,-1,-1,-1,-1,-1,-1],"loss_changes":[3.0944118E1,1.4378318E1,1.1068825E1,4.813574E0,9.969915E0,7.8254204E0,3.4285374E0,0E0,8.6915493E-1,1.7427853E1,4.184208E0,1.5743848E1,5.7257013E0,1.8995647E0,0E0,0E0,0E0,0E0,0E0,0E0,0E0,0E0,0E0,0E0,0E0,0E0,0E0],"parents":[2147483647,0,0,1,1,2,2,3,3,4,4,5,5,6,6,8,8,9,9,10,10,11,11,12,12,13,13],"right_children":[2,4,6,8,10,12,14,-1,16,18,20,22,24,26,-1,-1,-1,-1,-1,-1,-1,-1,-1,-1,-1,-1,-1],"split_conditions":[1E0,1E0,2E0,-8.533069E-1,9.463955E-1,2E0,2.3364902E0,7.450963E-3,-5.973673E-1,-4.7559622E-1,6.464081E-1,3E0,1.3020088E-1,1E0,-0E0,-2.7129222E-2,-9.3694024E-2,2.6017299E-2,-2.209149E-2,6.5579325E-2,1.7762482E-2,-5.0988097E-2,-3.2137925E-4,-1.922566E-2,3.264731E-2,-7.826059E-2,-0E0],"split_indices":[9,33,14,28,16,11,17,0,29,17,17,33,23,1,0,0,0,0,0,0,0,0,0,0,0,0,0],"split_type":[0,0,0,0,0,0,0,0,0,0,0,0,0,0,0,0,0,0,0,0,0,0,0,0,0,0,0],"sum_hessian":[8.0516815E2,4.3320404E2,3.719641E2,2.3308668E1,4.098954E2,3.125236E2,5.944052E1,5.162249E0,1.8146418E1,3.2597324E2,8.392214E1,2.4334554E2,6.917807E1,5.0004482E1,9.436038E0,7.482557E0,1.0663861E1,2.2394518E2,1.0202807E2,4.9823303E1,3.409884E1,1.151027E2,1.2824283E2,2.6888319E1,4.2289753E1,4.4713924E1,5.290561E0],"tree_param":{"num_deleted":"0","num_feature":"36","num_nodes":"27","size_leaf_vector":"1"}},{"base_weights":[-2.3304382E-2,4.2909805E-2,-6.3242704E-1,1.5217677E-1,-1.0927096E-1,-8.2862794E-1,-2.0789476E-1,-1.542386E-2,4.0331572E-1,-6.6278654E-1,2.9810863E-2,-9.239211E-1,-3.527467E-1,3.4162307E-1,-8.1328936E-2,-1.1114134E-2,2.751418E-2,6.1801642E-2,2.3272447E-2,-3.9534583E-3,-8.535656E-2,5.3628154E-2,-3.994548E-3,-2.5273725E-2,-9.790015E-2,-0E0,-7.166053E-2,7.184257E-2,-0E0],"categories":[],"categories_nodes":[],"categories_segments":[],"categories_sizes":[],"default_left":[0,0,0,0,0,0,0,0,0,0,0,0,0,0,0,0,0,0,0,0,0,0,0,0,0,0,0,0,0],"id":28,"left_children":[1,3,5,7,9,11,13,15,17,19,21,23,25,27,-1,-1,-1,-1,-1,-1,-1,-1,-1,-1,-1,-1,-1,-1,-1],"loss_changes":[3.469801E1,1.2698166E1,6.192375E0,1.9082712E1,2.5210768E1,1.383213E0,1.2886093E1,7.8184495E0,6.167696E0,6.9308605E0,1.02204895E1,4.19384E-1,2.6479297E0,3.479504E0,0E0,0E0,0E0,0E0,0E0,0E0,0E0,0E0,0E0,0E0,0E0,0E0,0E0,0E0,0E0],"parents":[2147483647,0,0,1,1,2,2,3,3,4,4,5,5,6,6,7,7,8,8,9,9,10,10,11,11,12,12,13,13],"right_children":[2,4,6,8,10,12,14,16,18,20,22,24,26,28,-1,-1,-1,-1,-1,-1,-1,-1,-1,-1,-1,-1,-1,-1,-1],"split_conditions":[2E0,-3.8609758E-1,1.6663282E0,1E0,-6.2235437E-2,-6.2524766E-2,1.5629576E0,4.6855286E-1,3E0,1E0,7.52991E-2,-1.4793205E0,1E0,1E0,-8.1328936E-2,-1.1114134E-2,2.751418E-2,6.1801642E-2,2.3272447E-2,-3.9534583E-3,-8.535656E-2,5.3628154E-2,-3.994548E-3,-2.5273725E-2,-9.790015E-2,-0E0,-7.166053E-2,7.184257E-2,-0E0],"split_indices":[14,4,17,6,17,31,23,16,35,15,32,16,0,15,0,0,0,0,0,0,0,0,0,0,0,0,0,0,0],"split_type":[0,0,0,0,0,0,0,0,0,0,0,0,0,0,0,0,0,0,0,0,0,0,0,0,0,0,0,0,0],"sum_hessian":[8.100028E2,7.307812E2,7.922158E1,4.291904E2,3.0159082E2,5.1268284E1,2.7953297E1,2.5614453E2,1.7304585E2,6.0494587E1,2.4109624E2,3.9395206E1,1.1873077E1,1.4243779E1,1.3709518E1,1.9619197E2,5.9952553E1,7.169955E1,1.01346306E2,1.5972033E1,4.4522552E1,2.9302588E1,2.1179364E2,5.212343E0,3.4182865E1,6.772243E0,5.1008344E0,6.9543333E0,7.2894454E0],"tree_param":{"num_deleted":"0","num_feature":"36","num_nodes":"29","size_leaf_vector":"1"}},{"base_weights":[-3.2867026E-2,1.5585089E-2,-3.8650146E-1,7.893913E-2,-2.0319314E-1,-5.436385E-1,-2.4473384E-2,4.2351916E-2,7.094426E-1,-4.708371E-1,-6.958809E-2,-1E-1,-3.7282425E-1,2.245292E-1,-4.127809E-1,1.1780326E-2,-2.464202E-2,9.4734885E-2,3.9586227E-2,-0E0,-8.159334E-2,-1.5031107E-2,6.801592E-2,-0E0,-8.304037E-2,-0E0,4.5619544E-2,-0E0,-6.3061275E-2],"categories":[],"categories_nodes":[],"categories_segments":[],"categories_sizes":[],"default_left":[0,0,0,0,0,0,0,0,0,0,0,0,0,0,0,0,0,0,0,0,0,0,0,0,0,0,0,0,0],"id":29,"left_children":[1,3,5,7,9,11,13,15,17,19,21,-1,23,25,27,-1,-1,-1,-1,-1,-1,-1,-1,-1,-1,-1,-1,-1,-1],"loss_changes":[1.4707922E1,1.009926E1,5.3500834E0,1.3113815E1,5.557109E0,5.614542E0,4.859395E0,1.1882412E1,1.2843065E0,8.12436E0,7.6856174E0,0E0,9.821619E0,1.8121445E0,1.6120079E0,0E0,0E0,0E0,0E0,0E0,0E0,0E0,0E0,0E0,0E0,0E0,0E0,0E0,0E0],"parents":[2147483647,0,0,1,1,2,2,3,3,4,4,5,5,6,6,7,7,8,8,9,9,10,10,12,12,13,13,14,14],"right_children":[2,4,6,8,10,12,14,16,18,20,22,-1,24,26,28,-1,-1,-1,-1,-1,-1,-1,-1,-1,-1,-1,-1,-1,-1],"split_conditions":[1.1200147E0,1E0,2E0,1.3695974E0,-4.0107015E-1,1.2828375E0,2E0,1E0,1.4654287E0,-2.5918353E-1,9.7161615E-1,-1E-1,1.5677776E0,1.4188231E0,1.3592154E0,1.1780326E-2,-2.464202E-2,9.4734885E-2,3.9586227E-2,-0E0,-8.159334E-2,-1.5031107E-2,6.801592E-2,-0E0,-8.304037E-2,-0E0,4.5619544E-2,-0E0,-6.3061275E-2],"split_indices":[4,3,15,17,22,4,8,20,17,28,17,0,4,23,23,0,0,0,0,0,0,0,0,0,0,0,0,0,0],"split_type":[0,0,0,0,0,0,0,0,0,0,0,0,0,0,0,0,0,0,0,0,0,0,0,0,0,0,0,0,0],"sum_hessian":[7.909409E2,6.948256E2,9.611527E1,5.433352E2,1.514904E2,6.439802E1,3.1717255E1,5.170518E2,2.6283398E1,4.6269077E1,1.0522133E2,1.1015694E1,5.3382328E1,1.826992E1,1.3447334E1,4.1362543E2,1.03426384E2,1.0833301E1,1.5450097E1,2.1029276E1,2.52398E1,9.7641396E1,7.579931E0,3.130286E1,2.2079468E1,8.878644E0,9.391276E0,5.870644E0,7.5766897E0],"tree_param":{"num_deleted":"0","num_feature":"36","num_nodes":"29","size_leaf_vector":"1"}},{"base_weights":[-1.1126124E-2,4.3395553E-2,-5.3028154E-1,-5.138986E-1,7.100581E-2,-8.4854424E-1,-3.5265103E-1,-8.985036E-2,1.2105559E-1,6.9647557E-3,2.795849E-1,-2.4696525E-2,-9.331625E-2,-6.3153446E-2,-5.780536E-1,5.0818175E-2,-1.4247444E-2,-1E-1,2.3471927E-3,2.2393947E-2,6.797565E-2,-4.4775404E-2,6.695654E-2,-0E0,-7.6556E-2],"categories":[],"categories_nodes":[],"categories_segments":[],"categories_sizes":[],"default_left":[0,0,0,0,0,0,0,0,0,0,0,0,0,0,0,0,0,0,0,0,0,0,0,0,0],"id":30,"left_children":[1,3,5,7,9,11,13,-1,15,17,19,-1,-1,21,23,-1,-1,-1,-1,-1,-1,-1,-1,-1,-1],"loss_changes":[2.4195744E1,1.18020935E1,3.9273262E0,9.955768E0,9.3589945E0,2.6145744E-1,3.4663143E0,0E0,2.902217E0,1.0325491E1,3.5671997E0,0E0,0E0,1.0478466E1,4.032077E0,0E0,0E0,0E0,0E0,0E0,0E0,0E0,0E0,0E0,0E0],"parents":[2147483647,0,0,1,1,2,2,3,3,4,4,5,5,6,6,8,8,9,9,10,10,13,13,14,14],"right_children":[2,4,6,8,10,12,14,-1,16,18,20,-1,-1,22,24,-1,-1,-1,-1,-1,-1,-1,-1,-1,-1],"split_conditions":[2E0,-4.6434733E-1,7.52991E-2,3E0,5.018346E-1,-5.0401163E-1,1.4188231E0,-8.985036E-2,-4.7682095E-1,-9.836313E-1,4.081793E0,-2.4696525E-2,-9.331625E-2,1.2828375E0,1E0,5.0818175E-2,-1.4247444E-2,-1E-1,2.3471927E-3,2.2393947E-2,6.797565E-2,-4.4775404E-2,6.695654E-2,-0E0,-7.6556E-2],"split_indices":[14,22,32,33,22,22,23,0,22,32,22,0,0,4,19,0,0,0,0,0,0,0,0,0,0],"split_type":[0,0,0,0,0,0,0,0,0,0,0,0,0,0,0,0,0,0,0,0,0,0,0,0,0],"sum_hessian":[7.942393E2,7.1867114E2,7.556819E1,3.0552198E1,6.881189E2,2.2346315E1,5.3221874E1,1.9490921E1,1.1061276E1,5.3172266E2,1.5639624E2,5.1793733E0,1.7166943E1,2.6361341E1,2.6860533E1,5.264954E0,5.7963223E0,5.3424444E0,5.2638025E2,1.4223592E2,1.4160327E1,1.86924E1,7.668941E0,6.166283E0,2.069425E1],"tree_param":{"num_deleted":"0","num_feature":"36","num_nodes":"25","size_leaf_vector":"1"}},{"base_weights":[-1.25441635E-2,-4.497655E-1,3.850749E-2,-2.2767083E-1,-8.599503E-1,7.4901E-2,-4.2371562E-1,-5.179118E-1,-0E0,-1E-1,-0E0,-1.7100953E-1,1.4099187E-1,-7.842845E-1,-4.569899E-3,-0E0,-8.017189E-2,3.019513E-2,-6.6790156E-2,-0E0,-6.0747076E-2,2.6033388E-3,2.8036073E-2,-2.2187147E-2,-9.607712E-2,4.3425664E-2,-3.051807E-2],"categories":[],"categories_nodes":[],"categories_segments":[],"categories_sizes":[],"default_left":[0,0,0,0,0,0,0,0,0,0,0,0,0,0,0,0,0,0,0,0,0,0,0,0,0,0,0],"id":31,"left_children":[1,3,5,7,9,11,13,15,17,-1,-1,19,21,23,25,-1,-1,-1,-1,-1,-1,-1,-1,-1,-1,-1,-1],"loss_changes":[1.9334028E1,7.6515923E0,1.2735864E1,4.7263856E0,3.3828392E0,1.1390608E1,7.611718E0,4.662504E0,9.31346E0,0E0,0E0,1.0794648E1,8.546397E0,1.7698479E0,5.1392255E0,0E0,0E0,0E0,0E0,0E0,0E0,0E0,0E0,0E0,0E0,0E0,0E0],"parents":[2147483647,0,0,1,1,2,2,3,3,4,4,5,5,6,6,7,7,8,8,11,11,12,12,13,13,14,14],"right_children":[2,4,6,8,10,12,14,16,18,-1,-1,20,22,24,26,-1,-1,-1,-1,-1,-1,-1,-1,-1,-1,-1,-1],"split_conditions":[-7.21951E-1,-8.109394E-1,2E0,-3.5605797E-1,1.3235432E0,1E0,1.2701678E0,-6.3583076E-1,1.9465841E0,-1E-1,-0E0,-3.8486722E-1,2E0,-5.211425E-1,-5.9058726E-1,-0E0,-8.017189E-2,3.019513E-2,-6.6790156E-2,-0E0,-6.0747076E-2,2.6033388E-3,2.8036073E-2,-2.2187147E-2,-9.607712E-2,4.3425664E-2,-3.051807E-2],"split_indices":[29,29,14,16,4,21,17,23,28,0,0,28,12,17,29,0,0,0,0,0,0,0,0,0,0,0,0],"split_type":[0,0,0,0,0,0,0,0,0,0,0,0,0,0,0,0,0,0,0,0,0,0,0,0,0,0,0],"sum_hessian":[8.0158295E2,8.422483E1,7.1735815E2,5.8239212E1,2.598562E1,6.6855804E2,4.8800083E1,2.5097162E1,3.3142048E1,2.052868E1,5.45694E0,1.3774216E2,5.308159E2,2.4014004E1,2.4786081E1,9.418165E0,1.5678998E1,2.3907497E1,9.234551E0,1.0178119E2,3.5960964E1,2.961145E2,2.3470139E2,8.167372E0,1.5846631E1,8.362672E0,1.642341E1],"tree_param":{"num_deleted":"0","num_feature":"36","num_nodes":"27","size_leaf_vector":"1"}},{"base_weights":[1.580216E-2,-4.002644E-1,6.668459E-2,8.23707E-2,-5.676327E-1,2.483343E-1,-3.6195148E-2,-1.3372236E-1,5.223745E-2,-0E0,-6.7676044E-1,-3.8052175E-2,2.733768E-1,2.0292033E-2,-3.129937E-1,-2.3848576E-2,-0E0,-6.586716E-2,5.5899113E-2,-8.863618E-2,-2.4484007E-2,3.2470336E-3,3.7351355E-2,5.8658784E-3,-5.627914E-2,-8.84679E-2,-1.07261175E-2],"categories":[],"categories_nodes":[],"categories_segments":[],"categories_sizes":[],"default_left":[0,0,0,0,0,0,0,0,0,0,0,0,0,0,0,0,0,0,0,0,0,0,0,0,0,0,0],"id":32,"left_children":[1,3,5,7,9,11,13,15,-1,17,19,-1,21,23,25,-1,-1,-1,-1,-1,-1,-1,-1,-1,-1,-1,-1],"loss_changes":[1.7374603E1,7.8936243E0,1.3914581E1,3.7612278E0,3.9734726E0,5.008238E0,7.948651E0,3.470242E-1,0E0,7.958787E0,4.1899586E0,0E0,5.9343624E0,9.115375E0,9.530308E0,0E0,0E0,0E0,0E0,0E0,0E0,0E0,0E0,0E0,0E0,0E0,0E0],"parents":[2147483647,0,0,1,1,2,2,3,3,4,4,5,5,6,6,7,7,9,9,10,10,12,12,13,13,14,14],"right_children":[2,4,6,8,10,12,14,16,-1,18,20,-1,22,24,26,-1,-1,-1,-1,-1,-1,-1,-1,-1,-1,-1,-1],"split_conditions":[-1.3631781E0,-1.0000583E0,3E0,3E0,1E0,-7.65174E-1,3E0,1E0,5.223745E-2,-4.573976E-1,1E0,-3.8052175E-2,-9.191278E-1,1.5677776E0,-3.789165E-1,-2.3848576E-2,-0E0,-6.586716E-2,5.5899113E-2,-8.863618E-2,-2.4484007E-2,3.2470336E-3,3.7351355E-2,5.8658784E-3,-5.627914E-2,-8.84679E-2,-1.07261175E-2],"split_indices":[16,17,35,33,15,29,15,0,0,22,2,0,28,4,22,0,0,0,0,0,0,0,0,0,0,0,0],"split_type":[0,0,0,0,0,0,0,0,0,0,0,0,0,0,0,0,0,0,0,0,0,0,0,0,0,0,0],"sum_hessian":[7.893146E2,8.2371895E1,7.069427E2,1.9932878E1,6.2439022E1,2.5810742E2,4.4883524E2,1.2777237E1,7.155641E0,1.0907014E1,5.1532005E1,7.2682486E0,2.5083919E2,3.713029E2,7.753234E1,5.063487E0,7.71375E0,5.1302505E0,5.776764E0,3.171964E1,1.9812366E1,7.736097E1,1.7347821E2,3.5167648E2,1.962641E1,1.7484848E1,6.0047497E1],"tree_param":{"num_deleted":"0","num_feature":"36","num_nodes":"27","size_leaf_vector":"1"}},{"base_weights":[2.2460615E-2,6.963232E-2,-4.3001664E-1,-4.4637185E-2,1.7303999E-1,-7.604271E-1,-9.3519345E-2,-8.795958E-2,4.6028548E-1,3.696862E-1,2.4652934E-2,-0E0,-8.884517E-1,2.5061464E-1,-7.3242925E-2,-4.942124E-3,-5.2260287E-2,6.753202E-2,3.6536062E-3,1.2819673E-2,5.4024477E-2,-3.6276884E-2,8.246719E-3,-2.5678486E-2,-9.5839515E-2,8.020615E-2,-1.5989514E-2],"categories":[],"categories_nodes":[],"categories_segments":[],"categories_sizes":[],"default_left":[0,0,0,0,0,0,0,0,0,0,0,0,0,0,0,0,0,0,0,0,0,0,0,0,0,0,0],"id":33,"left_children":[1,3,5,7,9,11,13,15,17,19,21,-1,23,25,-1,-1,-1,-1,-1,-1,-1,-1,-1,-1,-1,-1,-1],"loss_changes":[1.725259E1,8.805608E0,7.82312E0,8.007046E0,1.10207205E1,3.0723038E0,1.1269167E1,5.545185E0,2.0049992E0,6.337208E0,5.541862E0,0E0,2.1693993E-1,8.210682E0,0E0,0E0,0E0,0E0,0E0,0E0,0E0,0E0,0E0,0E0,0E0,0E0,0E0],"parents":[2147483647,0,0,1,1,2,2,3,3,4,4,5,5,6,6,7,7,8,8,9,9,10,10,12,12,13,13],"right_children":[2,4,6,8,10,12,14,16,18,20,22,-1,24,26,-1,-1,-1,-1,-1,-1,-1,-1,-1,-1,-1,-1,-1],"split_conditions":[2E0,1E0,1.070936E0,3.663792E0,-4.5394948E-1,-4.3507987E-1,1.165232E0,6.247189E-1,-1.1589347E0,-4.4151422E-1,1E0,-0E0,-9.9061126E-1,-5.058363E-1,-7.3242925E-2,-4.942124E-3,-5.2260287E-2,6.753202E-2,3.6536062E-3,1.2819673E-2,5.4024477E-2,-3.6276884E-2,8.246719E-3,-2.5678486E-2,-9.5839515E-2,8.020615E-2,-1.5989514E-2],"split_indices":[14,6,17,22,23,28,28,23,28,28,21,0,29,29,0,0,0,0,0,0,0,0,0,0,0,0,0],"split_type":[0,0,0,0,0,0,0,0,0,0,0,0,0,0,0,0,0,0,0,0,0,0,0,0,0,0,0],"sum_hessian":[7.7567126E2,7.0597424E2,6.969703E1,3.313195E2,3.7465475E2,3.2395786E1,3.7301243E1,3.0848364E2,2.2835825E1,1.5694522E2,2.1770955E2,5.6307216E0,2.6765066E1,2.4015942E1,1.3285302E1,2.8751852E2,2.0965143E1,1.2795444E1,1.00403805E1,6.884116E1,8.810406E1,2.4653902E1,1.9305563E2,5.0248656E0,2.17402E1,1.0474149E1,1.3541793E1],"tree_param":{"num_deleted":"0","num_feature":"36","num_nodes":"27","size_leaf_vector":"1"}},{"base_weights":[-1.7904377E-3,1.1505533E-1,-1.9877857E-1,-7.590401E-2,2.3320588E-1,-7.888665E-2,-1.509247E-1,8.157774E-2,-1.1570543E-1,-3.4120223E-1,2.6385152E-1,-9.665199E-2,-1.2229707E-1,-4.0672094E-2,-6.615411E-5,1.3165926E-2,-9.435742E-2,5.9117943E-2,2.0977145E-2,3.7705403E-2,-1.6060991E-2],"categories":[],"categories_nodes":[],"categories_segments":[],"categories_sizes":[],"default_left":[0,0,0,0,0,0,0,0,0,0,0,0,0,0,0,0,0,0,0,0,0],"id":34,"left_children":[1,3,5,7,9,-1,11,-1,13,15,17,-1,19,-1,-1,-1,-1,-1,-1,-1,-1],"loss_changes":[1.8604965E1,1.1520896E1,8.568719E0,7.716316E0,6.185026E0,0E0,6.9658804E0,0E0,6.154623E0,6.6814613E0,5.171131E0,0E0,5.8802643E0,0E0,0E0,0E0,0E0,0E0,0E0,0E0,0E0],"parents":[2147483647,0,0,1,1,2,2,3,3,4,4,6,6,8,8,9,9,10,10,12,12],"right_children":[2,4,6,8,10,-1,12,-1,14,16,18,-1,20,-1,-1,-1,-1,-1,-1,-1,-1],"split_conditions":[1E0,3E0,-4.858615E-1,-9.825599E-1,-1.7826388E0,-7.888665E-2,-1.5108448E0,8.157774E-2,-4.2137766E-1,-9.67917E-1,-5.2197564E-1,-9.665199E-2,-1.0000583E0,-4.0672094E-2,-6.615411E-5,1.3165926E-2,-9.435742E-2,5.9117943E-2,2.0977145E-2,3.7705403E-2,-1.6060991E-2],"split_indices":[11,33,22,29,28,0,16,0,22,17,16,0,17,0,0,0,0,0,0,0,0],"split_type":[0,0,0,0,0,0,0,0,0,0,0,0,0,0,0,0,0,0,0,0,0],"sum_hessian":[7.735675E2,4.8289072E2,2.906768E2,1.8161275E2,3.0127798E2,1.7913836E1,2.7276294E2,5.020482E0,1.7659225E2,1.2580272E1,2.8869772E2,5.8429713E0,2.6691998E2,4.613243E1,1.3045982E2,6.9932985E0,5.586973E0,3.549634E1,2.5320137E2,1.59002285E1,2.5101974E2],"tree_param":{"num_deleted":"0","num_feature":"36","num_nodes":"21","size_leaf_vector":"1"}},{"base_weights":[2.1577307E-3,-1.5013589E-1,1.3547997E-1,-2.0124769E-1,3.668098E-1,4.8500977E-2,4.75263E-1,3.972817E-1,-2.3936719E-1,6.310436E-1,-0E0,9.06702E-2,-1E-1,-0E0,6.5612364E-1,-3.341718E-3,1E-1,-8.582495E-3,-3.8139872E-2,7.973252E-2,1.4460494E-2,-6.468312E-2,5.1615536E-2,1.1786012E-2,-6.3909E-2,2.3068508E-2,-5.4152828E-2,4.0720303E-2,8.715943E-2],"categories":[],"categories_nodes":[],"categories_segments":[],"categories_sizes":[],"default_left":[0,0,0,0,0,0,0,0,0,0,0,0,0,0,0,0,0,0,0,0,0,0,0,0,0,0,0,0,0],"id":35,"left_children":[1,3,5,7,9,11,13,15,17,19,21,23,-1,25,27,-1,-1,-1,-1,-1,-1,-1,-1,-1,-1,-1,-1,-1,-1],"loss_changes":[1.5906442E1,1.0052483E1,1.2226425E1,8.229351E0,3.1094236E0,1.8379372E1,7.623945E0,8.825335E0,6.5678635E0,8.041825E-1,8.141076E0,7.3222156E0,0E0,4.875695E0,2.4218369E0,0E0,0E0,0E0,0E0,0E0,0E0,0E0,0E0,0E0,0E0,0E0,0E0,0E0,0E0],"parents":[2147483647,0,0,1,1,2,2,3,3,4,4,5,5,6,6,7,7,8,8,9,9,10,10,11,11,13,13,14,14],"right_children":[2,4,6,8,10,12,14,16,18,20,22,24,-1,26,28,-1,-1,-1,-1,-1,-1,-1,-1,-1,-1,-1,-1,-1,-1],"split_conditions":[1E0,2.5470889E0,-3.8718794E-2,-8.4359914E-1,-1.2153155E0,-1.1794569E-1,3E0,1.5864003E0,1E0,1.6658252E-1,3.573878E-1,1.9465841E0,-1E-1,-1.334998E-1,-3.129729E-2,-3.341718E-3,1E-1,-8.582495E-3,-3.8139872E-2,7.973252E-2,1.4460494E-2,-6.468312E-2,5.1615536E-2,1.1786012E-2,-6.3909E-2,2.3068508E-2,-5.4152828E-2,4.0720303E-2,8.715943E-2],"split_indices":[6,22,22,31,28,22,33,30,0,16,16,28,0,28,30,0,0,0,0,0,0,0,0,0,0,0,0,0,0],"split_type":[0,0,0,0,0,0,0,0,0,0,0,0,0,0,0,0,0,0,0,0,0,0,0,0,0,0,0,0,0],"sum_hessian":[7.522064E2,3.4750244E2,4.0470395E2,3.191073E2,2.8395155E1,3.2638354E2,7.83204E1,1.640761E1,3.0269968E2,1.47512245E1,1.3643931E1,3.185424E2,7.841144E0,2.130833E1,5.7012066E1,1.133393E1,5.07368E0,1.5038077E2,1.5231892E2,8.508688E0,6.2425365E0,5.333295E0,8.3106365E0,3.100381E2,8.5043125E0,1.5040988E1,6.2673426E0,3.1287786E1,2.572428E1],"tree_param":{"num_deleted":"0","num_feature":"36","num_nodes":"29","size_leaf_vector":"1"}},{"base_weights":[-4.0053666E-2,-1.5011778E-1,1.0594807E-1,-1.8011753E-1,2.9994333E-1,1.2857816E-1,-5.5184465E-2,-1.4564247E-1,-6.428792E-1,8.6903083E-1,-3.220967E-1,3.0188937E-2,2.9115385E-1,-4.7651906E-3,-2.8663546E-2,-0E0,-9.3297355E-2,-0E0,1E-1,-0E0,-6.8708815E-2,-2.9718624E-3,4.1434184E-2,-0E0,4.5075335E-2],"categories":[],"categories_nodes":[],"categories_segments":[],"categories_sizes":[],"default_left":[0,0,0,0,0,0,0,0,0,0,0,0,0,0,0,0,0,0,0,0,0,0,0,0,0],"id":36,"left_children":[1,3,5,7,9,11,-1,13,15,17,19,21,23,-1,-1,-1,-1,-1,-1,-1,-1,-1,-1,-1,-1],"loss_changes":[1.28032675E1,6.6022053E0,5.7224865E0,6.889944E0,1.217277E1,5.139397E0,0E0,5.4379597E0,4.6917505E0,4.2740335E0,2.94131E0,5.941227E0,5.380184E0,0E0,0E0,0E0,0E0,0E0,0E0,0E0,0E0,0E0,0E0,0E0,0E0],"parents":[2147483647,0,0,1,1,2,2,3,3,4,4,5,5,7,7,8,8,9,9,10,10,11,11,12,12],"right_children":[2,4,6,8,10,12,-1,14,16,18,20,22,24,-1,-1,-1,-1,-1,-1,-1,-1,-1,-1,-1,-1],"split_conditions":[-2.5195682E-1,1.6174506E0,9.6972436E-1,1.2153088E0,8.757802E-1,1E0,-5.5184465E-2,1E0,1E0,2E0,1.8917383E0,-8.3386064E-1,-3.8718794E-2,-4.7651906E-3,-2.8663546E-2,-0E0,-9.3297355E-2,-0E0,1E-1,-0E0,-6.8708815E-2,-2.9718624E-3,4.1434184E-2,-0E0,4.5075335E-2],"split_indices":[22,28,28,28,4,6,0,8,21,15,28,4,22,0,0,0,0,0,0,0,0,0,0,0,0],"split_type":[0,0,0,0,0,0,0,0,0,0,0,0,0,0,0,0,0,0,0,0,0,0,0,0,0],"sum_hessian":[7.6312805E2,4.389878E2,3.2414023E2,4.1476245E2,2.4225338E1,3.1638492E2,7.755317E0,3.9046387E2,2.4298594E1,1.3075971E1,1.1149367E1,2.0241045E2,1.1397447E2,2.3612486E2,1.5433902E2,9.088202E0,1.521039E1,5.288115E0,7.787855E0,5.5755486E0,5.573818E0,1.7444794E2,2.7962517E1,4.2678318E1,7.129616E1],"tree_param":{"num_deleted":"0","num_feature":"36","num_nodes":"25","size_leaf_vector":"1"}},{"base_weights":[6.747211E-2,1.3509667E-1,-1.4870644E-1,8.091493E-4,2.5614363E-1,-5.790914E-2,-5.496654E-1,3.328567E-1,-7.650962E-2,-2.6916783E-2,3.2797864E-1,9.980324E-3,-5.8343804E-1,7.3624525E-4,-6.9719535E-1,1.8086923E-2,6.66333E-2,-2.4734667E-2,6.261734E-3,6.7286514E-2,-1.6602077E-2,2.8328005E-2,8.5494645E-2,-7.4906624E-3,3.0832937E-2,-8.621856E-2,-1.1273172E-2,-0E0,-8.871973E-2],"categories":[],"categories_nodes":[],"categories_segments":[],"categories_sizes":[],"default_left":[0,0,0,0,0,0,0,0,0,0,0,0,0,0,0,0,0,0,0,0,0,0,0,0,0,0,0,0,0],"id":37,"left_children":[1,3,5,7,9,11,13,15,17,19,21,23,25,-1,27,-1,-1,-1,-1,-1,-1,-1,-1,-1,-1,-1,-1,-1,-1],"loss_changes":[1.183737E1,9.697597E0,6.9045987E0,8.547807E0,6.8253727E0,7.1286135E0,3.598383E0,2.851193E0,6.2376266E0,7.3596983E0,5.8970737E0,4.473477E0,2.1416106E0,0E0,3.716426E0,0E0,0E0,0E0,0E0,0E0,0E0,0E0,0E0,0E0,0E0,0E0,0E0,0E0,0E0],"parents":[2147483647,0,0,1,1,2,2,3,3,4,4,5,5,6,6,7,7,8,8,9,9,10,10,11,11,12,12,14,14],"right_children":[2,4,6,8,10,12,14,16,18,20,22,24,26,-1,28,-1,-1,-1,-1,-1,-1,-1,-1,-1,-1,-1,-1,-1,-1],"split_conditions":[1E0,1E0,2E0,-1.2771118E0,1E0,1.5864003E0,-4.511654E-1,-3.06679E-1,-7.395275E-1,-5.687949E-1,1.5032443E0,1.0471679E0,1.3478469E0,7.3624525E-4,-1.240918E0,1.8086923E-2,6.66333E-2,-2.4734667E-2,6.261734E-3,6.7286514E-2,-1.6602077E-2,2.8328005E-2,8.5494645E-2,-7.4906624E-3,3.0832937E-2,-8.621856E-2,-1.1273172E-2,-0E0,-8.871973E-2],"split_indices":[3,6,7,23,15,30,28,28,17,17,28,30,28,0,4,0,0,0,0,0,0,0,0,0,0,0,0,0,0],"split_type":[0,0,0,0,0,0,0,0,0,0,0,0,0,0,0,0,0,0,0,0,0,0,0,0,0,0,0,0,0],"sum_hessian":[7.763127E2,5.95428E2,1.8088472E2,2.8714673E2,3.0828125E2,1.5138614E2,2.9498571E1,5.542897E1,2.3171776E2,5.9835148E1,2.484461E2,1.3411935E2,1.7266783E1,5.155373E0,2.4343199E1,4.225431E1,1.3174661E1,1.06534134E2,1.25183624E2,7.457254E0,5.237789E1,2.3360408E2,1.4842035E1,1.0296858E2,3.1150776E1,8.465667E0,8.801117E0,5.8363113E0,1.8506887E1],"tree_param":{"num_deleted":"0","num_feature":"36","num_nodes":"29","size_leaf_vector":"1"}},{"base_weights":[-4.433103E-2,-8.1204765E-2,3.4550852E-1,-5.9245538E-2,-6.2528557E-1,4.8404402E-1,-6.0888257E-2,-8.8678144E-2,-4.7161885E-2,-7.657704E-1,-0E0,5.664285E-3,5.543892E-1,-1.3678774E-2,2.120822E-3,-1.2172278E-3,-9.902588E-2,6.2030982E-2,-0E0],"categories":[],"categories_nodes":[],"categories_segments":[],"categories_sizes":[],"default_left":[0,0,0,0,0,0,0,0,0,0,0,0,0,0,0,0,0,0,0],"id":38,"left_children":[1,3,5,7,9,11,-1,-1,13,15,-1,-1,17,-1,-1,-1,-1,-1,-1],"loss_changes":[1.1431556E1,8.7530155E0,1.0343508E1,7.452845E0,1.9927692E0,1.3059864E0,0E0,0E0,4.4226284E0,2.7594795E0,0E0,0E0,1.6892033E0,0E0,0E0,0E0,0E0,0E0,0E0],"parents":[2147483647,0,0,1,1,2,2,3,3,4,4,5,5,8,8,9,9,12,12],"right_children":[2,4,6,8,10,12,-1,-1,14,16,-1,-1,18,-1,-1,-1,-1,-1,-1],"split_conditions":[1.9078834E0,1.5677776E0,1E0,-1.512504E0,1.6174506E0,-1.7235383E0,-6.0888257E-2,-8.8678144E-2,1E0,1.572855E0,-0E0,5.664285E-3,-1.7539437E-1,-1.3678774E-2,2.120822E-3,-1.2172278E-3,-9.902588E-2,6.2030982E-2,-0E0],"split_indices":[22,4,8,16,28,28,0,0,6,23,0,0,28,0,0,0,0,0,0],"split_type":[0,0,0,0,0,0,0,0,0,0,0,0,0,0,0,0,0,0,0],"sum_hessian":[7.545288E2,6.931175E2,6.1411324E1,6.701268E2,2.299073E1,5.5402725E1,6.0085955E0,6.3697715E0,6.6375696E2,1.7581587E1,5.4091425E0,1.0349226E1,4.50535E1,2.926929E2,3.710641E2,5.5416207E0,1.2039967E1,3.9631466E1,5.422036E0],"tree_param":{"num_deleted":"0","num_feature":"36","num_nodes":"19","size_leaf_vector":"1"}},{"base_weights":[2.4644386E-2,-5.6804642E-2,1.38768E-1,-2.3541719E-1,6.27739E-2,2.0920648E-1,-8.625773E-2,1.2476109E-2,-4.440115E-1,3.2352936E-3,4.4331935E-1,4.74373E-1,1.4008035E-1,-6.996885E-2,-0E0,-6.786411E-3,5.6785233E-2,-2.6545951E-2,-1E-1,-2.6163677E-2,9.313157E-3,8.08735E-2,9.752886E-3,-3.20914E-3,6.420885E-2,-1.8119032E-2,2.0131586E-2,2.918901E-2,-2.0324279E-2],"categories":[],"categories_nodes":[],"categories_segments":[],"categories_sizes":[],"default_left":[0,0,0,0,0,0,0,0,0,0,0,0,0,0,0,0,0,0,0,0,0,0,0,0,0,0,0,0,0],"id":39,"left_children":[1,3,5,7,9,11,13,15,17,19,21,23,25,-1,27,-1,-1,-1,-1,-1,-1,-1,-1,-1,-1,-1,-1,-1,-1],"loss_changes":[7.604734E0,1.02132635E1,5.651112E0,1.0330655E1,6.3323483E0,4.6969376E0,5.796865E0,5.537114E0,1.0684793E1,6.1507726E0,4.1106033E0,5.1658487E0,4.6375713E0,0E0,5.1793776E0,0E0,0E0,0E0,0E0,0E0,0E0,0E0,0E0,0E0,0E0,0E0,0E0,0E0,0E0],"parents":[2147483647,0,0,1,1,2,2,3,3,4,4,5,5,6,6,7,7,8,8,9,9,10,10,11,11,12,12,14,14],"right_children":[2,4,6,8,10,12,14,16,18,20,22,24,26,-1,28,-1,-1,-1,-1,-1,-1,-1,-1,-1,-1,-1,-1,-1,-1],"split_conditions":[2E0,7.185496E-1,1.3898243E0,1E0,2E0,-4.121154E-1,-4.3876165E-1,1E0,-3.263845E-1,1E0,-8.1859726E-1,-4.573976E-1,-3.834577E-1,-6.996885E-2,8.4509027E-1,-6.786411E-3,5.6785233E-2,-2.6545951E-2,-1E-1,-2.6163677E-2,9.313157E-3,8.08735E-2,9.752886E-3,-3.20914E-3,6.420885E-2,-1.8119032E-2,2.0131586E-2,2.918901E-2,-2.0324279E-2],"split_indices":[13,31,32,7,10,22,22,1,22,21,17,22,22,0,28,0,0,0,0,0,0,0,0,0,0,0,0,0,0],"split_type":[0,0,0,0,0,0,0,0,0,0,0,0,0,0,0,0,0,0,0,0,0,0,0,0,0,0,0,0,0],"sum_hessian":[7.688391E2,4.4411804E2,3.2472107E2,1.8067377E2,2.6344427E2,2.5079938E2,7.392171E1,8.122839E1,9.944537E1,2.3181953E2,3.1624737E1,4.6445213E1,2.0435417E2,8.488704E0,6.5433E1,7.092367E1,1.0304725E1,8.029272E1,1.9152658E1,5.4954823E1,1.7686472E2,1.266812E1,1.8956617E1,1.0473211E1,3.5972E1,2.9473568E1,1.748806E2,2.8096462E1,3.7336536E1],"tree_param":{"num_deleted":"0","num_feature":"36","num_nodes":"29","size_leaf_vector":"1"}},{"base_weights":[-7.921111E-3,-9.55741E-2,1.0298543E-1,-7.077937E-2,-9.614031E-2,3.019982E-1,1.711551E-2,5.706485E-1,-9.438415E-2,-4.110747E-2,3.6489433E-1,-9.505414E-2,6.4795054E-2,-0E0,8.608406E-2,1.1651165E-2,-1.7307956E-2,6.802179E-2,2.2739863E-2,2.8297395E-2,-7.2644777E-3],"categories":[],"categories_nodes":[],"categories_segments":[],"categories_sizes":[],"default_left":[0,0,0,0,0,0,0,0,0,0,0,0,0,0,0,0,0,0,0,0,0],"id":40,"left_children":[1,3,5,7,-1,9,11,13,15,-1,17,-1,19,-1,-1,-1,-1,-1,-1,-1,-1],"loss_changes":[7.60152E0,9.726255E0,5.626734E0,7.0549946E0,0E0,5.4087143E0,1.191189E1,2.297031E0,7.1326904E0,0E0,3.7074623E0,0E0,7.532914E0,0E0,0E0,0E0,0E0,0E0,0E0,0E0,0E0],"parents":[2147483647,0,0,1,1,2,2,3,3,5,5,6,6,7,7,8,8,10,10,12,12],"right_children":[2,4,6,8,-1,10,12,14,16,-1,18,-1,20,-1,-1,-1,-1,-1,-1,-1,-1],"split_conditions":[2E0,9.911935E-1,3E0,-8.8619816E-1,-9.614031E-2,-7.431388E-1,-4.3507987E-1,-2.6015103E-1,-9.584955E-1,-4.110747E-2,6.543806E-1,-9.505414E-2,3.4616703E-1,-0E0,8.608406E-2,1.1651165E-2,-1.7307956E-2,6.802179E-2,2.2739863E-2,2.8297395E-2,-7.2644777E-3],"split_indices":[12,16,35,29,0,29,28,17,32,0,16,0,17,0,0,0,0,0,0,0,0],"split_type":[0,0,0,0,0,0,0,0,0,0,0,0,0,0,0,0,0,0,0,0,0],"sum_hessian":[7.394622E2,4.1822147E2,3.2124075E2,4.0980438E2,8.417108E0,9.180151E1,2.2943924E2,1.1396815E1,3.9840756E2,5.254853E0,8.654666E1,8.010975E0,2.2142827E2,5.193307E0,6.2035084E0,1.0455155E2,2.93856E2,2.1673874E1,6.487279E1,8.7571304E1,1.3385696E2],"tree_param":{"num_deleted":"0","num_feature":"36","num_nodes":"21","size_leaf_vector":"1"}},{"base_weights":[4.3603275E-2,-1.0566411E-1,8.725548E-2,-2.6796225E-1,1.3675816E-1,1.1707501E-1,-2.2934301E-1,-4.7429556E-1,-1.1304758E-2,3.2432795E-1,-8.537602E-2,1.2627742E-1,-4.348021E-2,-8.0939925E-1,1.4477873E-1,-2.0426504E-2,-9.3396164E-2,-4.3677196E-2,3.3182792E-2,5.2947927E-2,-2.737544E-2,1.9361582E-2,3.4001935E-3,-2.3030302E-2,-9.02777E-2,3.7774492E-2,-4.4337347E-2],"categories":[],"categories_nodes":[],"categories_segments":[],"categories_sizes":[],"default_left":[0,0,0,0,0,0,0,0,0,0,0,0,0,0,0,0,0,0,0,0,0,0,0,0,0,0,0],"id":41,"left_children":[1,3,5,7,9,11,13,15,17,19,-1,21,-1,23,25,-1,-1,-1,-1,-1,-1,-1,-1,-1,-1,-1,-1],"loss_changes":[5.2896557E0,7.453427E0,6.114214E0,5.4676285E0,1.4488249E1,3.4906087E0,1.3057211E1,6.7174025E0,9.31623E0,8.6601925E0,0E0,3.3538027E0,0E0,2.1776581E-1,5.8211503E0,0E0,0E0,0E0,0E0,0E0,0E0,0E0,0E0,0E0,0E0,0E0,0E0],"parents":[2147483647,0,0,1,1,2,2,3,3,4,4,5,5,6,6,7,7,8,8,9,9,11,11,13,13,14,14],"right_children":[2,4,6,8,10,12,14,16,18,20,-1,22,-1,24,26,-1,-1,-1,-1,-1,-1,-1,-1,-1,-1,-1,-1],"split_conditions":[1E0,5.810933E-1,2E0,1E0,1E0,1E0,1.0471678E0,-2.2327465E-1,5.9163883E-2,1E0,-8.537602E-2,1E0,-4.348021E-2,-7.016108E-1,2.3840766E0,-2.0426504E-2,-9.3396164E-2,-4.3677196E-2,3.3182792E-2,5.2947927E-2,-2.737544E-2,1.9361582E-2,3.4001935E-3,-2.3030302E-2,-9.02777E-2,3.7774492E-2,-4.4337347E-2],"split_indices":[21,29,14,19,9,24,18,4,32,2,0,34,0,29,17,0,0,0,0,0,0,0,0,0,0,0,0],"split_type":[0,0,0,0,0,0,0,0,0,0,0,0,0,0,0,0,0,0,0,0,0,0,0,0,0,0,0],"sum_hessian":[7.6397705E2,1.6703983E2,5.969372E2,1.0239932E2,6.46405E1,5.495917E2,4.734552E1,5.366473E1,4.8734596E1,5.6328545E1,8.311963E0,5.43877E2,5.7146344E0,1.8699272E1,2.8646248E1,3.699581E1,1.6668919E1,2.2814411E1,2.5920185E1,4.3357635E1,1.2970907E1,3.0688956E2,2.3698747E2,5.0462294E0,1.3653043E1,2.2249128E1,6.3971195E0],"tree_param":{"num_deleted":"0","num_feature":"36","num_nodes":"27","size_leaf_vector":"1"}},{"base_weights":[3.2649614E-2,1.0584366E-1,-5.0220225E-2,2.931976E-2,3.5577556E-1,-6.209924E-1,1.7281553E-2,1.3872199E-1,-1.555779E-1,6.770261E-1,1.1449428E-1,-9.810765E-1,-1.2832938E-1,1.2420281E-1,-1.3835435E-1,3.201444E-2,4.1221445E-3,-3.8318553E-3,-7.276376E-2,3.408464E-2,1E-1,-3.568774E-2,3.1039614E-2,-1.8582672E-2,-1E-1,-6.692834E-2,4.3982092E-2,-2.0838553E-2,1.9797293E-2,-4.9826715E-2,1.6890265E-2],"categories":[],"categories_nodes":[],"categories_segments":[],"categories_sizes":[],"default_left":[0,0,0,0,0,0,0,0,0,0,0,0,0,0,0,0,0,0,0,0,0,0,0,0,0,0,0,0,0,0,0],"id":42,"left_children":[1,3,5,7,9,11,13,15,17,19,21,23,25,27,29,-1,-1,-1,-1,-1,-1,-1,-1,-1,-1,-1,-1,-1,-1,-1,-1],"loss_changes":[4.868414E0,7.914526E0,1.5177266E1,6.9473696E0,7.0474224E0,6.4165936E0,5.683348E0,3.6475482E0,8.112835E0,3.597454E0,6.512826E0,1.4743366E0,8.822707E0,5.2764244E0,1.5236969E1,0E0,0E0,0E0,0E0,0E0,0E0,0E0,0E0,0E0,0E0,0E0,0E0,0E0,0E0,0E0,0E0],"parents":[2147483647,0,0,1,1,2,2,3,3,4,4,5,5,6,6,7,7,8,8,9,9,10,10,11,11,12,12,13,13,14,14],"right_children":[2,4,6,8,10,12,14,16,18,20,22,24,26,28,30,-1,-1,-1,-1,-1,-1,-1,-1,-1,-1,-1,-1,-1,-1,-1,-1],"split_conditions":[-3.8609758E-1,-7.117435E-1,-1.9887964E-1,1E0,2.223421E-2,2E0,8.5595405E-1,-5.0206554E-1,-8.874505E-1,-4.6888202E-1,-3.8494244E-1,1E0,7.185496E-1,-1.0168324E-1,1.2977887E0,3.201444E-2,4.1221445E-3,-3.8318553E-3,-7.276376E-2,3.408464E-2,1E-1,-3.568774E-2,3.1039614E-2,-1.8582672E-2,-1E-1,-6.692834E-2,4.3982092E-2,-2.0838553E-2,1.9797293E-2,-4.9826715E-2,1.6890265E-2],"split_indices":[4,4,23,9,16,6,23,16,23,16,17,21,31,32,23,0,0,0,0,0,0,0,0,0,0,0,0,0,0,0,0],"split_type":[0,0,0,0,0,0,0,0,0,0,0,0,0,0,0,0,0,0,0,0,0,0,0,0,0,0,0,0,0,0,0],"sum_hessian":[7.4901337E2,4.038389E2,3.4517444E2,3.1394977E2,8.988912E1,3.6336918E1,3.0883752E2,2.0095464E2,1.1299513E2,3.522836E1,5.4660767E1,1.8674973E1,1.7661945E1,1.8711763E2,1.217199E2,6.506421E1,1.3589043E2,9.6995316E1,1.5999817E1,2.1368399E1,1.385996E1,1.4066487E1,4.059428E1,5.651849E0,1.3023124E1,9.766775E0,7.8951693E0,3.0845812E1,1.5627182E2,5.6982903E1,6.4737E1],"tree_param":{"num_deleted":"0","num_feature":"36","num_nodes":"31","size_leaf_vector":"1"}},{"base_weights":[1.5861083E-2,-3.8531223E-1,5.9191577E-2,-5.0425225E-1,5.0465208E-2,1.16419956E-1,-1.2791112E-1,4.1948054E-2,-6.206477E-1,-3.0795795E-1,1.3480602E-1,-8.5697986E-2,-6.0795523E-2,-1.6312378E-2,-8.0705106E-2,-5.9908964E-2,2.4523996E-2,1.467064E-2,-4.6994634E-2,1.0807766E-2,-3.623196E-2],"categories":[],"categories_nodes":[],"categories_segments":[],"categories_sizes":[],"default_left":[0,0,0,0,0,0,0,0,0,0,0,0,0,0,0,0,0,0,0,0,0],"id":43,"left_children":[1,3,5,7,-1,9,11,-1,13,15,17,-1,19,-1,-1,-1,-1,-1,-1,-1,-1],"loss_changes":[1.3562538E1,9.254119E0,7.6504345E0,8.726248E0,0E0,4.6549516E0,8.176981E0,0E0,4.499996E0,4.962451E0,4.4224854E0,0E0,8.585667E0,0E0,0E0,0E0,0E0,0E0,0E0,0E0,0E0],"parents":[2147483647,0,0,1,1,2,2,3,3,5,5,6,6,8,8,9,9,10,10,12,12],"right_children":[2,4,6,8,-1,10,12,-1,14,16,18,-1,20,-1,-1,-1,-1,-1,-1,-1,-1],"split_conditions":[1E0,1.8730462E0,2E0,-9.191278E-1,5.0465208E-2,-1.8195188E0,-9.148454E-1,4.1948054E-2,-7.194085E-1,2.2806983E0,1.5864003E0,-8.5697986E-2,1E0,-1.6312378E-2,-8.0705106E-2,-5.9908964E-2,2.4523996E-2,1.467064E-2,-4.6994634E-2,1.0807766E-2,-3.623196E-2],"split_indices":[33,32,11,28,0,28,17,0,29,31,30,0,20,0,0,0,0,0,0,0,0],"split_type":[0,0,0,0,0,0,0,0,0,0,0,0,0,0,0,0,0,0,0,0,0],"sum_hessian":[7.450363E2,6.883817E1,6.761982E2,6.2478607E1,6.359564E0,5.2248724E2,1.5371094E2,5.4474583E0,5.7031147E1,1.8130074E1,5.0435715E2,9.717187E0,1.4399376E2,1.9147892E1,3.7883255E1,1.2954344E1,5.17573E0,4.9773114E2,6.626013E0,9.0996445E1,5.2997314E1],"tree_param":{"num_deleted":"0","num_feature":"36","num_nodes":"21","size_leaf_vector":"1"}},{"base_weights":[1.202356E-2,1.5932447E-1,-6.0450826E-2,-4.979658E-1,2.0294273E-1,-1.14679E-1,1.3052237E-1,-7.333021E-2,-1.1687989E-3,8.115254E-1,1.2837906E-1,-5.6333147E-2,-4.9818745E-1,2.57636E-1,-3.1141326E-1,1.8961249E-2,1E-1,-4.49362E-2,1.7006818E-2,-7.4644755E-3,6.791573E-2,-8.643375E-2,-0E0,6.8635405E-3,9.362008E-2,3.1537566E-2,-6.8686865E-2],"categories":[],"categories_nodes":[],"categories_segments":[],"categories_sizes":[],"default_left":[0,0,0,0,0,0,0,0,0,0,0,0,0,0,0,0,0,0,0,0,0,0,0,0,0,0,0],"id":44,"left_children":[1,3,5,7,9,11,13,-1,-1,15,17,19,21,23,25,-1,-1,-1,-1,-1,-1,-1,-1,-1,-1,-1,-1],"loss_changes":[8.44448E0,8.142384E0,5.4949636E0,1.4115143E0,1.1070656E1,8.985613E0,6.9390545E0,0E0,0E0,3.0279675E0,6.028808E0,5.506325E0,9.842632E0,1.1285662E1,7.5587645E0,0E0,0E0,0E0,0E0,0E0,0E0,0E0,0E0,0E0,0E0,0E0,0E0],"parents":[2147483647,0,0,1,1,2,2,3,3,4,4,5,5,6,6,9,9,10,10,11,11,12,12,13,13,14,14],"right_children":[2,4,6,8,10,12,14,-1,-1,16,18,20,22,24,26,-1,-1,-1,-1,-1,-1,-1,-1,-1,-1,-1,-1],"split_conditions":[3E0,-4.875044E-1,1.070936E0,1E0,-7.177585E-1,4.5439416E-1,1.1791968E0,-7.333021E-2,-1.1687989E-3,-7.254424E-1,-3.4942123E-1,1.8917383E0,1.0011485E0,1.0158464E0,1E0,1.8961249E-2,1E-1,-4.49362E-2,1.7006818E-2,-7.4644755E-3,6.791573E-2,-8.643375E-2,-0E0,6.8635405E-3,9.362008E-2,3.1537566E-2,-6.8686865E-2],"split_indices":[35,22,17,34,16,17,28,0,0,17,16,28,16,28,2,0,0,0,0,0,0,0,0,0,0,0,0],"split_type":[0,0,0,0,0,0,0,0,0,0,0,0,0,0,0,0,0,0,0,0,0,0,0,0,0,0,0],"sum_hessian":[7.3902466E2,2.4746484E2,4.915598E2,1.267682E1,2.3478802E2,3.8754816E2,1.04011665E2,6.472168E0,6.204652E0,2.2005142E1,2.1278288E2,3.4062738E2,4.692077E1,8.318271E1,2.0828955E1,8.848505E0,1.3156637E1,1.139012E1,2.0139276E2,3.3543274E2,5.194656E0,2.6446802E1,2.0473967E1,6.7936386E1,1.5246325E1,6.9249606E0,1.3903994E1],"tree_param":{"num_deleted":"0","num_feature":"36","num_nodes":"27","size_leaf_vector":"1"}},{"base_weights":[-1.1007134E-2,5.0341822E-2,-1.2423731E-1,-1.4260264E-1,1.08417094E-1,4.773607E-2,-3.161472E-1,1.5876621E-2,-4.4123662E-1,4.237708E-1,6.737105E-2,1.9074745E-1,-3.2261294E-1,3.0105805E-2,-3.8272166E-1,-4.295719E-2,3.230151E-2,-1E-1,-1.0106673E-2,4.1717156E-3,5.3522497E-2,-4.4514113E-3,1.9406352E-2,-4.035384E-2,3.3974256E-2,-5.007994E-2,4.5225512E-2,-8.4406726E-2,-3.1293295E-2],"categories":[],"categories_nodes":[],"categories_segments":[],"categories_sizes":[],"default_left":[0,0,0,0,0,0,0,0,0,0,0,0,0,0,0,0,0,0,0,0,0,0,0,0,0,0,0,0,0],"id":45,"left_children":[1,3,5,7,9,11,13,15,17,19,21,23,25,-1,27,-1,-1,-1,-1,-1,-1,-1,-1,-1,-1,-1,-1,-1,-1],"loss_changes":[5.537183E0,5.710317E0,9.540222E0,6.111697E0,5.0002723E0,8.285087E0,6.326894E0,1.1133894E1,7.5603886E0,1.3613076E0,5.2174125E0,1.0479124E1,6.942952E0,0E0,3.6727886E0,0E0,0E0,0E0,0E0,0E0,0E0,0E0,0E0,0E0,0E0,0E0,0E0,0E0,0E0],"parents":[2147483647,0,0,1,1,2,2,3,3,4,4,5,5,6,6,7,7,8,8,9,9,10,10,11,11,12,12,14,14],"right_children":[2,4,6,8,10,12,14,16,18,20,22,24,26,-1,28,-1,-1,-1,-1,-1,-1,-1,-1,-1,-1,-1,-1,-1,-1],"split_conditions":[1E0,1E0,1E0,-3.1457856E-1,-9.4854444E-1,7.1295726E-1,-1.0000583E0,1E0,-6.1997956E-1,-1.1143017E0,1E0,-7.130522E-1,2.3364902E0,3.0105805E-2,-9.7579324E-1,-4.295719E-2,3.230151E-2,-1E-1,-1.0106673E-2,4.1717156E-3,5.3522497E-2,-4.4514113E-3,1.9406352E-2,-4.035384E-2,3.3974256E-2,-5.007994E-2,4.5225512E-2,-8.4406726E-2,-3.1293295E-2],"split_indices":[11,21,0,16,17,4,17,0,17,16,2,29,17,0,17,0,0,0,0,0,0,0,0,0,0,0,0,0,0],"split_type":[0,0,0,0,0,0,0,0,0,0,0,0,0,0,0,0,0,0,0,0,0,0,0,0,0,0,0,0,0],"sum_hessian":[7.3557947E2,4.7208145E2,2.6349805E2,1.0456232E2,3.6751913E2,1.370116E2,1.26486435E2,6.7360504E1,3.720182E1,3.7373093E1,3.3014606E2,1.01490715E2,3.552088E1,1.0166722E1,1.1631972E2,2.5836395E1,4.1524105E1,1.13826E1,2.581922E1,1.1087423E1,2.6285667E1,1.7181567E2,1.5833037E2,1.8314114E1,8.31766E1,3.0504168E1,5.016715E0,1.0485574E1,1.0583414E2],"tree_param":{"num_deleted":"0","num_feature":"36","num_nodes":"29","size_leaf_vector":"1"}},{"base_weights":[1.26091335E-2,-9.927657E-3,5.2909684E-1,2.225301E-1,-3.0284543E-2,1.467327E-3,6.8362035E-2,-1.097744E-1,3.40167E-1,-6.395202E-2,-1.647286E-2,-0E0,-1.7971989E-2,4.5902333E-3,4.416659E-2,6.0507148E-3,-8.492946E-3],"categories":[],"categories_nodes":[],"categories_segments":[],"categories_sizes":[],"default_left":[0,0,0,0,0,0,0,0,0,0,0,0,0,0,0,0,0],"id":46,"left_children":[1,3,5,7,9,-1,-1,11,13,-1,15,-1,-1,-1,-1,-1,-1],"loss_changes":[1.0240479E1,3.680166E0,2.2425194E0,2.8583686E0,6.137574E0,0E0,0E0,2.3020118E-1,1.0317817E0,0E0,3.7187443E0,0E0,0E0,0E0,0E0,0E0,0E0],"parents":[2147483647,0,0,1,1,2,2,3,3,4,4,7,7,8,8,10,10],"right_children":[2,4,6,8,10,-1,-1,12,14,-1,16,-1,-1,-1,-1,-1,-1],"split_conditions":[2.8308413E0,-1.2773765E0,3E0,-6.950003E-1,-9.86741E-1,1.467327E-3,6.8362035E-2,-1.5058674E0,-9.999266E-1,-6.395202E-2,-2.5158378E-1,-0E0,-1.7971989E-2,4.5902333E-3,4.416659E-2,6.0507148E-3,-8.492946E-3],"split_indices":[22,23,33,29,17,0,0,16,17,0,29,0,0,0,0,0,0],"split_type":[0,0,0,0,0,0,0,0,0,0,0,0,0,0,0,0,0],"sum_hessian":[7.418138E2,7.1082263E2,3.0991138E1,5.1681297E1,6.5914136E2,9.159548E0,2.183159E1,1.1324481E1,4.0356815E1,1.0998255E1,6.481431E2,5.557245E0,5.767236E0,1.3621706E1,2.673511E1,2.983126E2,3.498305E2],"tree_param":{"num_deleted":"0","num_feature":"36","num_nodes":"17","size_leaf_vector":"1"}},{"base_weights":[-3.8350195E-2,2.9213285E-2,-1.6157772E-1,9.4148524E-2,-1.7300874E-1,-6.627911E-2,-5.157075E-1,5.4978292E-2,4.4844428E-1,-6.408805E-1,-7.029569E-2,-1.7466952E-1,3.5185492E-1,-0E0,-6.600186E-1,8.824637E-3,-6.009814E-2,5.8463942E-2,-4.7288053E-3,1.45941395E-2,-1E-1,2.2809172E-2,-2.8794764E-2,1.7636003E-3,-3.730565E-2,-3.176042E-3,7.2968416E-2,1.2797761E-2,-8.653354E-3,-1.2596023E-2,-8.37294E-2],"categories":[],"categories_nodes":[],"categories_segments":[],"categories_sizes":[],"default_left":[0,0,0,0,0,0,0,0,0,0,0,0,0,0,0,0,0,0,0,0,0,0,0,0,0,0,0,0,0,0,0],"id":47,"left_children":[1,3,5,7,9,11,13,15,17,19,21,23,25,27,29,-1,-1,-1,-1,-1,-1,-1,-1,-1,-1,-1,-1,-1,-1,-1,-1],"loss_changes":[6.589627E0,6.640728E0,9.195474E0,5.3044596E0,5.6539793E0,1.0599992E1,4.4262304E0,8.1014E0,3.2094827E0,1.38263645E1,7.3030486E0,7.431007E0,7.7925763E0,6.08492E-1,3.4562035E0,0E0,0E0,0E0,0E0,0E0,0E0,0E0,0E0,0E0,0E0,0E0,0E0,0E0,0E0,0E0,0E0],"parents":[2147483647,0,0,1,1,2,2,3,3,4,4,5,5,6,6,7,7,8,8,9,9,10,10,11,11,12,12,13,13,14,14],"right_children":[2,4,6,8,10,12,14,16,18,20,22,24,26,28,30,-1,-1,-1,-1,-1,-1,-1,-1,-1,-1,-1,-1,-1,-1,-1,-1],"split_conditions":[1E0,1E0,8.732659E-1,1.3669934E0,-8.590939E-1,2.2276872E-1,-8.4359914E-1,9.648208E-1,8.1316763E-1,-9.584955E-1,-1.4067279E-1,1E0,8.3137935E-1,1.3592154E0,-4.5532668E-1,8.824637E-3,-6.009814E-2,5.8463942E-2,-4.7288053E-3,1.45941395E-2,-1E-1,2.2809172E-2,-2.8794764E-2,1.7636003E-3,-3.730565E-2,-3.176042E-3,7.2968416E-2,1.2797761E-2,-8.653354E-3,-1.2596023E-2,-8.37294E-2],"split_indices":[11,8,23,32,32,23,31,32,28,32,23,0,28,23,22,0,0,0,0,0,0,0,0,0,0,0,0,0,0,0,0],"split_type":[0,0,0,0,0,0,0,0,0,0,0,0,0,0,0,0,0,0,0,0,0,0,0,0,0,0,0,0,0,0,0],"sum_hessian":[7.358303E2,4.7100006E2,2.6483026E2,3.6107098E2,1.0992909E2,2.1277051E2,5.2059765E1,3.297476E2,3.1323383E1,1.6149775E1,9.377932E1,1.7179358E2,4.097693E1,1.15575075E1,4.050226E1,3.169294E2,1.2818173E1,2.5873539E1,5.449845E0,9.542166E0,6.6076083E0,3.757537E1,5.620395E1,8.559957E1,8.6194016E1,1.9928463E1,2.1048466E1,5.083551E0,6.4739566E0,1.2352183E1,2.8150074E1],"tree_param":{"num_deleted":"0","num_feature":"36","num_nodes":"31","size_leaf_vector":"1"}},{"base_weights":[1.6753843E-2,8.2071416E-2,-9.648133E-2,1.4920996E-1,-1.3670032E-1,-3.339151E-2,-3.3196184E-1,1.075984E-1,4.947686E-1,-8.2614854E-2,-7.3169224E-2,-7.5111516E-2,9.0634346E-2,-5.7040757E-1,1.5144873E-1,8.780615E-3,6.791979E-2,2.957502E-2,6.479806E-2,7.825917E-2,-2.0809516E-2,-1.1013271E-2,3.898786E-2,-5.279539E-3,-7.560847E-2,7.140016E-2,-3.0035153E-2],"categories":[],"categories_nodes":[],"categories_segments":[],"categories_sizes":[],"default_left":[0,0,0,0,0,0,0,0,0,0,0,0,0,0,0,0,0,0,0,0,0,0,0,0,0,0,0],"id":48,"left_children":[1,3,5,7,9,11,13,15,17,-1,19,21,-1,23,25,-1,-1,-1,-1,-1,-1,-1,-1,-1,-1,-1,-1],"loss_changes":[5.841278E0,7.5063295E0,4.133992E0,5.5391207E0,5.3312025E0,9.711136E0,7.490957E0,4.2416587E0,6.926203E-1,0E0,1.3641788E1,4.087095E0,0E0,3.1786118E0,7.0750604E0,0E0,0E0,0E0,0E0,0E0,0E0,0E0,0E0,0E0,0E0,0E0,0E0],"parents":[2147483647,0,0,1,1,2,2,3,3,4,4,5,5,6,6,7,7,8,8,10,10,11,11,13,13,14,14],"right_children":[2,4,6,8,10,12,14,16,18,-1,20,22,-1,24,26,-1,-1,-1,-1,-1,-1,-1,-1,-1,-1,-1,-1],"split_conditions":[1E0,1E0,9.553561E-1,2.2389278E0,-4.6357316E-1,8.757802E-1,1.5331073E0,2E0,2.6779237E-1,-8.2614854E-2,-4.3779626E-1,1.4126241E0,9.0634346E-2,-4.5455837E-1,1.6084833E0,8.780615E-3,6.791979E-2,2.957502E-2,6.479806E-2,7.825917E-2,-2.0809516E-2,-1.1013271E-2,3.898786E-2,-5.279539E-3,-7.560847E-2,7.140016E-2,-3.0035153E-2],"split_indices":[11,8,23,22,22,4,23,14,16,0,22,16,0,22,4,0,0,0,0,0,0,0,0,0,0,0,0],"split_type":[0,0,0,0,0,0,0,0,0,0,0,0,0,0,0,0,0,0,0,0,0,0,0,0,0,0,0],"sum_hessian":[7.4381793E2,4.776666E2,2.6615137E2,3.694833E2,1.0818329E2,2.1506223E2,5.1089127E1,3.3469635E2,3.478693E1,5.7740865E0,1.024092E2,2.0870111E2,6.361117E0,3.5357494E1,1.5731631E1,3.2741595E2,7.280423E0,2.0519802E1,1.4267125E1,1.1630644E1,9.077856E1,1.9750287E2,1.1198243E1,1.1434874E1,2.3922623E1,7.4758506E0,8.255781E0],"tree_param":{"num_deleted":"0","num_feature":"36","num_nodes":"27","size_leaf_vector":"1"}},{"base_weights":[1.8337836E-2,-5.770619E-1,3.3023007E-2,-0E0,-8.270191E-2,-1.4239663E-1,8.6158104E-2,-2.106311E-1,3.479093E-1,-4.4402733E-1,1.1100057E-1,-9.4383763E-4,-3.8501613E-2,1E-1,-1.3684586E-2,1.4307514E-3,-6.202332E-2,2.1280479E-2,-8.028731E-5],"categories":[],"categories_nodes":[],"categories_segments":[],"categories_sizes":[],"default_left":[0,0,0,0,0,0,0,0,0,0,0,0,0,0,0,0,0,0,0],"id":49,"left_children":[1,3,5,-1,-1,7,9,11,13,15,17,-1,-1,-1,-1,-1,-1,-1,-1],"loss_changes":[7.244297E0,2.616654E0,7.224143E0,0E0,0E0,6.448759E0,8.222546E0,5.234334E0,9.431402E0,2.9551425E0,6.663343E0,0E0,0E0,0E0,0E0,0E0,0E0,0E0,0E0],"parents":[2147483647,0,0,1,1,2,2,5,5,6,6,7,7,8,8,9,9,10,10],"right_children":[2,4,6,-1,-1,8,10,12,14,16,18,-1,-1,-1,-1,-1,-1,-1,-1],"split_conditions":[-4.858615E-1,1E0,1E0,-0E0,-8.270191E-2,1E0,-8.4359914E-1,-3.1457856E-1,-4.121154E-1,-1.2217394E-1,1E0,-9.4383763E-4,-3.8501613E-2,1E-1,-1.3684586E-2,1.4307514E-3,-6.202332E-2,2.1280479E-2,-8.028731E-5],"split_indices":[22,19,21,0,0,1,31,16,22,17,9,0,0,0,0,0,0,0,0],"split_type":[0,0,0,0,0,0,0,0,0,0,0,0,0,0,0,0,0,0,0],"sum_hessian":[7.4903735E2,1.4547135E1,7.3449023E2,5.3959904E0,9.151145E0,1.656001E2,5.6889014E2,1.4816129E2,1.7438822E1,2.2150707E1,5.467394E2,7.243442E1,7.572687E1,6.9665856E0,1.0472237E1,5.08538E0,1.7065327E1,2.8990228E2,2.5683713E2],"tree_param":{"num_deleted":"0","num_feature":"36","num_nodes":"19","size_leaf_vector":"1"}},{"base_weights":[-2.5700295E-2,-3.6103213E-1,6.45466E-3,-5.4386044E-1,1.5716411E-1,-7.945612E-2,8.654534E-2,3.1844184E-2,-6.8729866E-1,4.159319E-2,-9.070775E-3,-2.2476895E-2,-4.642313E-1,1.384455E-1,-2.81042E-1,-9.552202E-2,-6.1122123E-3,-1.0449941E-2,3.4065355E-2,-6.506704E-2,8.013094E-3,1.0235065E-2,8.4588975E-2,-7.9439595E-2,-0E0],"categories":[],"categories_nodes":[],"categories_segments":[],"categories_sizes":[],"default_left":[0,0,0,0,0,0,0,0,0,0,0,0,0,0,0,0,0,0,0,0,0,0,0,0,0],"id":50,"left_children":[1,3,5,7,9,11,13,-1,15,-1,-1,17,19,21,23,-1,-1,-1,-1,-1,-1,-1,-1,-1,-1],"loss_changes":[9.024276E0,7.635028E0,4.982266E0,8.136024E0,2.237228E0,7.3344584E0,7.3957853E0,0E0,7.247366E0,0E0,0E0,9.126162E0,5.1639233E0,8.562558E0,7.138662E0,0E0,0E0,0E0,0E0,0E0,0E0,0E0,0E0,0E0,0E0],"parents":[2147483647,0,0,1,1,2,2,3,3,4,4,5,5,6,6,8,8,11,11,12,12,13,13,14,14],"right_children":[2,4,6,8,10,12,14,-1,16,-1,-1,18,20,22,24,-1,-1,-1,-1,-1,-1,-1,-1,-1,-1],"split_conditions":[1E0,1.5864005E0,1E0,-9.191278E-1,-4.187261E-1,6.892232E-1,1.5864005E0,3.1844184E-2,9.571917E-1,4.159319E-2,-9.070775E-3,-6.2235437E-2,1E0,1.3214743E0,1.3296653E0,-9.552202E-2,-6.1122123E-3,-1.0449941E-2,3.4065355E-2,-6.506704E-2,8.013094E-3,1.0235065E-2,8.4588975E-2,-7.9439595E-2,-0E0],"split_indices":[33,18,12,28,22,16,18,0,4,0,0,17,14,28,16,0,0,0,0,0,0,0,0,0,0],"split_type":[0,0,0,0,0,0,0,0,0,0,0,0,0,0,0,0,0,0,0,0,0,0,0,0,0],"sum_hessian":[7.3821844E2,6.552515E1,6.726933E2,4.978935E1,1.5735798E1,3.1853775E2,3.5415555E2,5.758631E0,4.4030716E1,9.009049E0,6.726748E0,2.81559E2,3.697876E1,3.1381476E2,4.034076E1,2.8982187E1,1.5048532E1,2.330882E2,4.8470787E1,2.8622314E1,8.356445E0,3.0210388E2,1.17108965E1,1.29845495E1,2.735621E1],"tree_param":{"num_deleted":"0","num_feature":"36","num_nodes":"25","size_leaf_vector":"1"}},{"base_weights":[-1.4136631E-2,2.1377053E-2,-4.543843E-1,1.0074179E-2,8.489557E-2,-1.8628162E-1,-7.2895026E-1,2.1754129E-2,-7.90387E-2,-8.6064555E-2,1.7949453E-1,-0E0,-8.9669734E-2,-2.2669297E-3,2.2515731E-2,-9.058915E-3,6.457704E-2],"categories":[],"categories_nodes":[],"categories_segments":[],"categories_sizes":[],"default_left":[0,0,0,0,0,0,0,0,0,0,0,0,0,0,0,0,0],"id":51,"left_children":[1,3,5,7,-1,9,11,13,-1,-1,15,-1,-1,-1,-1,-1,-1],"loss_changes":[1.2642309E1,7.034828E0,3.8558636E0,7.048526E0,0E0,1.0801785E1,2.8736677E0,6.5791445E0,0E0,0E0,4.555687E0,0E0,0E0,0E0,0E0,0E0,0E0],"parents":[2147483647,0,0,1,1,2,2,3,3,5,5,6,6,7,7,10,10],"right_children":[2,4,6,8,-1,10,12,14,-1,-1,16,-1,-1,-1,-1,-1,-1],"split_conditions":[2E0,2.2955072E0,1.4170963E0,1.5270718E0,8.489557E-2,6.7977554E-1,-7.372062E-1,1E0,-7.90387E-2,-8.6064555E-2,9.455522E-1,-0E0,-8.9669734E-2,-2.2669297E-3,2.2515731E-2,-9.058915E-3,6.457704E-2],"split_indices":[14,17,17,4,0,23,29,14,0,0,17,0,0,0,0,0,0],"split_type":[0,0,0,0,0,0,0,0,0,0,0,0,0,0,0,0,0],"sum_hessian":[7.186113E2,6.6462885E2,5.3982517E1,6.588629E2,5.7659044E0,3.0853924E1,2.3128592E1,6.525363E2,6.3265753E0,1.0859971E1,1.9993954E1,5.365644E0,1.7762949E1,5.3299133E2,1.19545E2,1.2322882E1,7.671071E0],"tree_param":{"num_deleted":"0","num_feature":"36","num_nodes":"17","size_leaf_vector":"1"}},{"base_weights":[-9.325279E-3,2.5084175E-2,-2.762599E-1,7.425213E-3,4.7015622E-1,-8.4755486E-1,-9.61995E-2,8.047808E-2,-9.252138E-2,-1.672974E-2,8.386751E-1,-4.377055E-2,-1E-1,5.282397E-1,-2.5776768E-1,1.0511032E-2,-7.8758076E-2,-2.9525006E-2,1.0196554E-2,1E-1,3.4628157E-2,-3.1353352E-3,1E-1,-4.942802E-2,1.08768E-2],"categories":[],"categories_nodes":[],"categories_segments":[],"categories_sizes":[],"default_left":[0,0,0,0,0,0,0,0,0,0,0,0,0,0,0,0,0,0,0,0,0,0,0,0,0],"id":52,"left_children":[1,3,5,7,9,11,13,15,17,-1,19,-1,-1,21,23,-1,-1,-1,-1,-1,-1,-1,-1,-1,-1],"loss_changes":[7.590655E0,5.5187144E0,9.207958E0,4.9201055E0,7.323733E0,4.6098137E-1,8.439874E0,9.013162E0,1.112938E1,0E0,3.0120373E-1,0E0,0E0,5.7353177E0,6.228716E0,0E0,0E0,0E0,0E0,0E0,0E0,0E0,0E0,0E0,0E0],"parents":[2147483647,0,0,1,1,2,2,3,3,4,4,5,5,6,6,7,7,8,8,10,10,13,13,14,14],"right_children":[2,4,6,8,10,12,14,16,18,-1,20,-1,-1,22,24,-1,-1,-1,-1,-1,-1,-1,-1,-1,-1],"split_conditions":[1.0998731E0,1.3669934E0,1.2717644E0,-4.600631E-1,1E0,6.072709E-1,1.3370557E0,6.1665505E-2,1.3020088E-1,-1.672974E-2,1E0,-4.377055E-2,-1E-1,1.3235432E0,2.1249092E0,1.0511032E-2,-7.8758076E-2,-2.9525006E-2,1.0196554E-2,1E-1,3.4628157E-2,-3.1353352E-3,1E-1,-4.942802E-2,1.08768E-2],"split_indices":[23,32,23,17,14,28,23,4,23,0,2,0,0,4,32,0,0,0,0,0,0,0,0,0,0],"split_type":[0,0,0,0,0,0,0,0,0,0,0,0,0,0,0,0,0,0,0,0,0,0,0,0,0],"sum_hessian":[7.3197144E2,6.466768E2,8.5294655E1,6.2611487E2,2.056194E1,1.7332943E1,6.7961716E1,3.6772937E2,2.583855E2,6.938465E0,1.3623474E1,9.797166E0,7.535777E0,1.1764656E1,5.6197056E1,3.6041205E2,7.3173146E0,1.2852232E2,1.2986316E2,6.982732E0,6.6407423E0,5.3259344E0,6.438721E0,3.5391426E1,2.080563E1],"tree_param":{"num_deleted":"0","num_feature":"36","num_nodes":"25","size_leaf_vector":"1"}},{"base_weights":[-4.713053E-3,-1.11322604E-1,8.434647E-2,-7.7213466E-2,-8.934223E-2,4.3548805E-1,5.5630572E-2,1.4738251E-1,-1.5735891E-1,-1.6917488E-2,6.386445E-1,-6.508269E-2,7.860234E-2,-1.1940453E-3,7.552647E-2,-1.0540843E-2,-4.3257196E-2,7.5590774E-2,